{
    "layers": [
        {
            "size": 30,
            "activation": null,
            "initializer": null
        },
        {
            "size": 32,
            "activation": "sigmoid",
            "initializer": "xavierUniform"
        },
        {
            "size": 32,
            "activation": "sigmoid",
            "initializer": "xavierUniform"
        },
        {
            "size": 32,
            "activation": "sigmoid",
            "initializer": "xavierUniform"
        },
        {
            "size": 2,
            "activation": "softmax",
            "initializer": null
        }
    ],
    "weights": [
        [
            [
                0.3368433990642736,
                0.031187048697609406,
                0.1467836555201609,
                0.13111893232319297,
                0.38208531931413875,
                0.11690508688130646,
                -0.0804105270148264,
                -0.18953473899201,
                -0.36633050352222507,
                -0.08402702152259901,
                0.15932089273453995,
                0.043262324435352044,
                -0.06136606053579119,
                -0.2861234501265607,
                0.1490140630168863,
                -0.002060275800178822,
                -0.20646388916658504,
                -0.3764131057607383,
                0.15681714361031912,
                -0.14725131005907943,
                -0.02956042636823463,
                -0.19051040379476766,
                -0.03129081323659006,
                0.10176094420448512,
                0.31097588300376094,
                0.12239181506068757,
                0.04965939401721659,
                -0.28273213821391435,
                0.11047183311159947,
                -0.1721744417487558,
                0.23513060654841916,
                0.08247635693461938
            ],
            [
                0.29089856485729043,
                -0.2977278540995093,
                0.2094831416903467,
                0.0465861995349372,
                0.2065030240189422,
                -0.04617468921728254,
                -0.08358228341232941,
                0.2897390112161232,
                -0.2624367220023428,
                0.046955109777078,
                -0.1348398507606334,
                0.377279821605082,
                -0.1286524853703643,
                0.6032580593720196,
                -0.11147057498257755,
                -0.1936130774229962,
                0.07483102715546464,
                0.01025567543996777,
                0.035605546462471736,
                -0.027118652096021663,
                0.2885747707536595,
                0.20046730185278236,
                -0.3342526414776576,
                -0.1288942987696907,
                0.02247976891637006,
                0.0876239953168348,
                -0.1682787385802547,
                -0.07951301112414502,
                -0.04875133840668747,
                0.0992395958925699,
                0.10033740122517716,
                -0.04913914103581187
            ],
            [
                0.2260133145571603,
                -0.2124541319447773,
                0.07952358802144899,
                -0.08127654973837045,
                0.0023705630457905563,
                0.23597086188533645,
                -0.06259410352925979,
                -0.011224937456165845,
                -0.2839632123659361,
                -0.3386964252136918,
                -0.4572876688185288,
                0.07978108784379795,
                0.22703693378006246,
                0.32504309293123573,
                0.19019918076859046,
                -0.02222581245131461,
                -0.026000274386090264,
                -0.2652488519521367,
                -0.23795454894708812,
                0.09270088210571058,
                0.2595437456620373,
                0.11071787482472807,
                0.2749011429634921,
                0.22088711011303278,
                0.3942834317676274,
                -0.08011287193552626,
                -0.11246993891140092,
                -0.005928360813638863,
                0.2015070154582441,
                -0.1202611066054531,
                0.3271553417911083,
                0.12459013142383167
            ],
            [
                -0.0042909088299728695,
                -0.3113018737639843,
                0.22310895267255815,
                -0.4626357569538689,
                0.27610844013730096,
                0.24470069858470214,
                0.34476615789792503,
                -0.009198642636640235,
                0.17906372844228466,
                -0.30629987224000904,
                0.035701656199521266,
                -0.05515708092970803,
                -0.21073747903436021,
                0.2698248369073941,
                0.1650835723465399,
                -0.17783964896022775,
                -0.016796794090854227,
                0.1698845213822302,
                -0.18154185701592548,
                0.03230581558008436,
                0.02160899293129792,
                -0.08428016279824833,
                0.17411313001748974,
                -0.1407887025674883,
                0.19623171053937996,
                0.030224159729598285,
                -0.10347751414733433,
                -0.1051200708927585,
                -0.00513241458815694,
                -0.1926948473586712,
                -0.017504176017257133,
                -0.24286501202783967
            ],
            [
                -0.036283935303207324,
                -0.10671584367677482,
                0.05510298128266569,
                0.08070427536117322,
                0.091744140280928,
                0.0047376852530970825,
                0.37452362404975065,
                0.25811491985195495,
                -0.031222313626972652,
                0.05427906530025376,
                0.06174421876829235,
                -0.45391231737229515,
                -0.0732294316680413,
                -0.1252433236301702,
                -0.08393504541597122,
                -0.12532139614427124,
                0.1618141588785308,
                -0.1730143940659074,
                0.1099964487609065,
                0.05956124097352287,
                0.12780930228849618,
                -0.2505501755797707,
                0.04207476380854611,
                0.3715697278569243,
                -0.025553885433183283,
                0.14414325241298362,
                -0.037429268326200395,
                -0.07582704720547045,
                0.001975657983513294,
                0.21223169937370695,
                -0.222801310455084,
                -0.08878047932960723
            ],
            [
                -0.17788896782488536,
                -0.2424776841323719,
                0.15150725803607087,
                0.13084382083017732,
                -0.23048565971059418,
                -0.09848722230570646,
                -0.014075418306469226,
                0.03329899083492889,
                0.04180920866569941,
                0.3233219142632611,
                -0.07930536727485804,
                0.02151493173687252,
                -0.11778429443530876,
                -0.03383428635129573,
                0.05930004253858383,
                0.4742336258589634,
                -0.24088680475115454,
                -0.1278758114695689,
                -0.44267697311492593,
                0.1490106173947194,
                -0.03288446509304398,
                -0.07519955792203034,
                -0.33005961312491405,
                -0.0692668961176726,
                -0.17846631269455884,
                0.05256101792626654,
                0.009008829215081454,
                -0.2664527797322986,
                -0.20276866124748497,
                -0.2574592844380752,
                -0.13855438042613122,
                -0.027644629599460843
            ],
            [
                -0.22937160598646777,
                -0.0970326452290284,
                -0.29117442430882723,
                -0.3791061143394813,
                0.11951443453383728,
                -0.1779283655479345,
                0.018207493757983594,
                0.11251125983638123,
                -0.3195252170807797,
                0.23233284884685226,
                0.07810022147305094,
                0.28917085091721567,
                0.0016056366837736808,
                0.3934570194591937,
                -0.004575038324919897,
                -0.5359796939907644,
                0.23181215032477628,
                -0.09424842554794248,
                -0.35781601388680284,
                -0.15774919754325628,
                -0.3566540030758773,
                0.08055663568882476,
                0.13136068043573254,
                0.14569899378663215,
                -0.22391384433178568,
                0.03778883494303532,
                -0.22331224298365288,
                0.03440937536095585,
                0.33667318156326453,
                -0.02319752086472215,
                0.39567945092334506,
                -0.4031605338857396
            ],
            [
                -0.05293372497117294,
                -0.3667053143657782,
                -0.21058605120542795,
                -0.16979263406845652,
                0.2266652828541348,
                -0.0699640093941899,
                0.21368135318547987,
                0.30128692935235063,
                -0.09795899983278841,
                -0.3839917330683227,
                -0.13543041269303674,
                0.036492764279754564,
                -0.14089142105961958,
                -0.14365873757966108,
                0.29246543202903286,
                -0.3538059092441762,
                0.19221610572093872,
                0.07447167256341322,
                0.2739320006755313,
                -0.28561579861174247,
                -0.28317955284234503,
                0.12854290383937597,
                -0.2580317530195288,
                0.38094426753450844,
                -0.41475077416325556,
                -0.17905782520348204,
                -0.1170367322113035,
                -0.09709573943141159,
                0.02602841711062251,
                -0.08034977983279322,
                0.07735278955272497,
                -0.06072161699959323
            ],
            [
                0.41858654078371044,
                0.2416837419481644,
                0.1157594834321614,
                0.25173907786623845,
                -0.00022424945833146153,
                0.05884725999815718,
                0.20080958837961926,
                -0.16278008915601916,
                -0.15664132013242615,
                -0.15163101521283834,
                0.2846626331272192,
                0.13595392609440515,
                0.21386793798740422,
                0.03665327444480881,
                0.24315923071233136,
                0.12047745165108897,
                0.11883572790178228,
                -0.09558064530693158,
                -0.13488335431009155,
                0.05165723959080454,
                0.1390129707492656,
                -0.3220325565053744,
                0.10326279658117066,
                0.06836230509415195,
                0.28505398342322846,
                -0.03515180627429141,
                -0.11526759259988748,
                -0.1520628482777295,
                0.0558014573228273,
                0.028680299359667556,
                0.3718325833647164,
                -0.18253014955651883
            ],
            [
                -0.03186258138074524,
                -0.11774953805234083,
                -0.05139405251575013,
                0.2541390576478489,
                0.017499957369737695,
                -0.29070511898190216,
                -0.27495028727603255,
                0.25679468639476083,
                0.15527825740913243,
                -0.14494163155281028,
                0.22391452848622645,
                -0.5314107916890859,
                -0.08712466552262489,
                -0.22378039816593345,
                -0.40325489581308266,
                0.1727881705105844,
                0.07462300569112496,
                0.32399585719264545,
                0.2994923950635192,
                -0.0917272890822296,
                0.09928010828228484,
                0.15892805519618777,
                -0.15231612331984615,
                -0.03921073686083025,
                -0.3462133692490746,
                -0.13171201025938112,
                0.16604152510814313,
                0.11346543849950969,
                -0.233534994259079,
                -0.014333548660541604,
                -0.2477515102688968,
                -0.1388746517986625
            ],
            [
                -0.1507884180684873,
                -0.4315752470151865,
                -0.259649584805027,
                -0.24640858538100135,
                0.11539326774010471,
                0.06525772336636469,
                -0.19157961905233645,
                0.2840149261025887,
                -0.20655579562922105,
                -0.2713231807540929,
                -0.24569445658892475,
                -0.3098933553660039,
                0.1725511199364569,
                0.1985308439842076,
                0.385275628275787,
                -0.41094186217367107,
                0.42505346798868643,
                0.01111794110340929,
                0.5293631013599192,
                -0.5378104608964491,
                -0.17321053829446328,
                -0.13085976096627552,
                -0.20370320063418582,
                0.04381085085800061,
                -0.023926318880499124,
                -0.19326232345289082,
                -0.027475727289979643,
                -0.32555502251315277,
                0.15317764296522687,
                0.39159335642165516,
                -0.10796096273562215,
                -0.26868953338645035
            ],
            [
                -0.09213533801112918,
                0.1591035324682555,
                0.10670105934226919,
                0.14891437504378185,
                -0.16340189304817693,
                -0.24023277146917477,
                0.3348913303351386,
                -0.027963245070427637,
                0.10576803300731319,
                0.01975325069366714,
                0.22972005606130985,
                -0.31291746676789234,
                0.09470506685118495,
                0.24132965491596847,
                -0.29452842962611736,
                0.3014804724894334,
                0.0876937199155728,
                0.302581282181677,
                -0.23022997500740394,
                -0.007158912325385676,
                0.0898764205705795,
                -0.19784363551855064,
                0.41790675170925184,
                -0.25327920678397353,
                0.11154459532166579,
                -0.1700577247725489,
                0.17103498201334047,
                -0.17166303442622372,
                -0.06526033450710085,
                -0.051382201502844706,
                -0.0990491438654968,
                0.014318644757067846
            ],
            [
                -0.14528897590960685,
                -0.12158994005090724,
                0.011444422670513954,
                -0.0978255742104495,
                0.11798047726929202,
                0.009425720887448256,
                -0.010670629519528801,
                -0.1554897950851196,
                0.085400900537718,
                0.21460111785818084,
                -0.11852783637637729,
                -0.0673052467518693,
                0.1777465481224211,
                0.36186377643385337,
                0.02766038149865505,
                -0.14805606181538097,
                0.03269663585594417,
                -0.16150547139620278,
                -0.1952064689651302,
                -0.2719137315126714,
                -0.44912971540420255,
                -0.06562682244981569,
                -0.057015869337263235,
                -0.41330487395224474,
                0.10611939403348049,
                0.20517322564588567,
                0.03716620102122974,
                -0.04985311648966281,
                0.3150381005313733,
                0.19607072046111348,
                -0.10214636805671327,
                -0.2760685377401506
            ],
            [
                -0.21175252092381866,
                -0.4416856528553141,
                -0.4851946768281935,
                -0.34629674175243796,
                0.38121358006218603,
                0.4781179888799235,
                0.16668217134399851,
                -0.00783163906328092,
                -0.404054909310614,
                -0.024700245759840235,
                0.12795152264141896,
                -0.0754880159818294,
                0.33154694176411825,
                -0.1348033894049742,
                0.4870041367897968,
                -0.30124810859917184,
                0.19625014234886348,
                0.019813582152053883,
                0.3251069131041262,
                -0.20443283708102225,
                -0.2690925725955922,
                0.07818711826095687,
                -0.1134391273035049,
                -0.10340476904927985,
                0.3043939634351981,
                -0.21568962138246126,
                -0.06191878183313212,
                -0.010028190756178265,
                0.4117987317241646,
                0.1471708840933103,
                0.4613711492709932,
                -0.4364949190515433
            ],
            [
                0.1681563718458997,
                -0.5753879150287557,
                -0.13471306827495,
                -0.04805263027829113,
                0.0793782015063313,
                0.17461745772148368,
                0.08502892689803819,
                0.3421803276697812,
                -0.08755140208063533,
                0.2151872583890192,
                -0.0865327373248309,
                -0.007331262577968495,
                0.17177562160778656,
                -0.16663282387559353,
                0.0032736109266326384,
                0.05298703197247391,
                0.013599037543358049,
                -0.24626846048679393,
                0.08721306708808507,
                -0.03247197592819607,
                -0.1787658163306972,
                0.06931023318774805,
                0.024944919388774963,
                -0.026319170921847882,
                0.4164547977426465,
                0.03044355230121015,
                -0.2888254500418642,
                0.3428062161873905,
                -0.015486980511838722,
                -0.28696866473142757,
                0.3452339090147278,
                0.007743827098420991
            ],
            [
                -0.014105139359786448,
                0.3414217955380422,
                0.26094969746880814,
                0.2998503907036859,
                -0.2514426098522682,
                0.08464943768193385,
                0.11849791662347033,
                0.03649997717412932,
                0.06286631658719287,
                -0.031435883354076696,
                0.4474485007848579,
                -0.0686249477350446,
                -0.2631338823976403,
                0.13292439844230755,
                -0.38077478743451426,
                0.0808768185552831,
                -0.20500761441009024,
                -0.12586368277429552,
                -0.3035839236187796,
                0.06965313498379018,
                -0.04725773796213651,
                -0.25451740394153516,
                0.0995484238671369,
                0.009924600986753625,
                -0.048550023663175866,
                0.22236248049902455,
                0.20469990132439086,
                0.11899707018571642,
                0.06607055144369504,
                -0.36348152020310653,
                -0.3565377868695515,
                0.028040122147254577
            ],
            [
                -0.06423647217637264,
                0.20970716556236238,
                0.045351570843547066,
                0.16958685103286855,
                0.14986468344985804,
                0.1315497529451293,
                0.05768948568300126,
                -0.07258660820108616,
                0.0807044878047513,
                -0.03588651914526223,
                -0.2597372594656442,
                0.28810893599097537,
                -0.15128199065886003,
                -0.008329856656110204,
                0.11718223180864148,
                0.017795193339259364,
                0.25198756203774314,
                0.08496464610160114,
                -0.08460207258145597,
                -0.07189055513856965,
                -0.15154052668046802,
                0.0439188753938149,
                0.06944372371944253,
                -0.39908227259038404,
                -0.015283141596577123,
                -0.09814897500427065,
                0.10673769549742644,
                -0.25933321389044656,
                0.03636631670822024,
                0.0392902545301349,
                -0.17875894710343843,
                -0.1354046055203063
            ],
            [
                -0.024740428070956912,
                0.09290324736824718,
                -0.12997523712288794,
                -0.22862328863090112,
                0.42703836785611277,
                -0.28730321030313455,
                -0.3651261851970429,
                -0.02461475131730822,
                -0.18898678488739423,
                0.2247994117305767,
                0.08891855591157805,
                -0.32771441826975356,
                0.3115653716587762,
                0.4122663360794658,
                -0.2974347665059031,
                -0.08633822748579786,
                0.007144701765425621,
                0.3089907334952047,
                -0.05484094149854182,
                -0.13721007558882778,
                0.08708851384952722,
                0.025739043379735538,
                0.2402339754117595,
                0.36558174912362895,
                -0.02375513907227999,
                -0.06068556208378751,
                0.1574846818689759,
                -0.35785096033500563,
                0.06903535910790233,
                -0.08204849615906609,
                0.1914987403599589,
                -0.303064232922804
            ],
            [
                -0.038474647569666405,
                -0.14996178704437954,
                0.09189008981213195,
                -0.1195266137437849,
                -0.06880091596282731,
                -0.054251000527135704,
                0.15082933785269786,
                0.02628768674435147,
                0.18438553039741792,
                0.19968168382769755,
                0.11472273363789327,
                -0.11121100332106983,
                0.14094443465262396,
                -0.1668069721970379,
                -0.12754597264728648,
                -0.05016422097221676,
                0.019026346371199696,
                -0.14609772151934045,
                -0.4271171833590766,
                -0.09956827589452757,
                0.15330611355689677,
                -0.6964068916224677,
                0.34671632234281285,
                0.1739548154516818,
                -0.21731528190606259,
                -0.14461719404605672,
                -0.1605182927055904,
                0.286199317447838,
                0.11453555778619748,
                -0.045757270353581445,
                -0.002230671738819575,
                0.17623441913394475
            ],
            [
                -0.1869856299121498,
                0.38549966533072566,
                0.3053224789171595,
                0.14849366781591444,
                -0.31738761506287005,
                -0.005585327707428235,
                -0.475840209254625,
                0.015479710963409811,
                0.2844209769239582,
                0.159605925879839,
                0.12186268424803824,
                -0.04467188973609492,
                -0.09159113947131568,
                -0.21943987995509442,
                -0.4783506704053727,
                0.4711101055019582,
                0.009058899891991186,
                0.07326834511006217,
                0.041547692442493206,
                0.18996317954502784,
                -0.07162110551782543,
                -0.1580933183868157,
                -0.08719484765412067,
                0.07917485339970638,
                -0.14049150262406665,
                0.5623377137748834,
                0.1927235130635513,
                -0.1609631467923315,
                -0.2916926925879571,
                -0.31892780385044367,
                -0.42707103387568307,
                0.15695955810789852
            ],
            [
                0.20477805238690078,
                -0.13057888573586304,
                -0.20114494380970216,
                0.30682867469276237,
                0.455316201649479,
                0.03359294115706393,
                0.06717152866516693,
                0.21052836513916517,
                -0.04900793539148682,
                -0.09974845533676374,
                -0.005336796569486675,
                0.17433573874708444,
                0.13011787054002025,
                0.3423352391721592,
                0.029058221537288886,
                -0.273210929061231,
                -0.1619608339008542,
                -0.18968314389690769,
                0.024629119336207206,
                -0.2704474489737355,
                0.12657931526492613,
                0.2826428411383114,
                0.07115119243778668,
                0.14406315187645646,
                -0.1731019030261257,
                0.1637520047955913,
                -0.12886302774706315,
                -0.45856480576500347,
                0.27507328320876007,
                -0.009638205531926718,
                0.43103441604767445,
                0.19410772580659474
            ],
            [
                -0.014262101384391395,
                -0.10693464620293164,
                -0.5080446251716045,
                -0.5986159993725139,
                0.4295840105578037,
                0.24728061122178346,
                -0.2591002178972254,
                -0.13454476064010065,
                -0.3594008686079466,
                -0.22599945829187848,
                -0.11232919728488854,
                0.16253947055993964,
                0.31619387001998517,
                -0.4229537434553692,
                0.5533959181612141,
                -0.5809098464842453,
                0.1650107408802735,
                -0.4327015130749459,
                0.48549038745955375,
                -0.6001724292379992,
                0.15528013095333912,
                -0.09450715203208358,
                0.09456802852190885,
                0.3450601702826184,
                0.269747516584054,
                -0.008627294451658631,
                -0.013640262934901736,
                -0.21520948528568193,
                0.3455844004147002,
                0.08440873938628492,
                0.43730877646895155,
                -0.2672805188698406
            ],
            [
                0.30389886939962607,
                -0.8958492584590504,
                -0.2749792267618822,
                -0.1823526001521568,
                -0.17869965797053833,
                -0.09700212985943911,
                -0.029985986944244942,
                0.15268400678919505,
                0.05822219386578819,
                -0.05418076150514853,
                -0.49226600469597176,
                -0.023878633315195248,
                0.19739064402078316,
                -0.34247575479767367,
                0.043930265367813866,
                -0.6517239065381302,
                0.3219384715037131,
                -0.015094246189496976,
                0.11159346915721173,
                -0.05816745697090186,
                0.28091084494884905,
                0.1173510659349674,
                0.10938822607060063,
                0.2070449445987871,
                -0.00588040259779087,
                0.10447487851607189,
                -0.35998538445351036,
                -0.1398748702251201,
                0.052485313810254536,
                -0.10654489879200757,
                0.13547088578477387,
                -0.030094530640918906
            ],
            [
                -0.03221739576301792,
                -0.45108173208597024,
                -0.2823081239735377,
                0.06347886715543413,
                0.4106702478475512,
                0.11248979160743035,
                -0.19147887776194417,
                -0.0718420445033556,
                -0.46555401940588276,
                -0.6006007617548669,
                0.00514788615625479,
                0.21863134894724837,
                0.21615082889409648,
                0.1208125629070951,
                0.1324465496021708,
                0.02469749832234759,
                -0.20439047749873782,
                -0.3232929017538819,
                0.36970403858185097,
                -0.4656280616002896,
                -0.09197997300951274,
                0.24553178526091402,
                0.21806079849317833,
                -0.2295239310967849,
                0.33453775136455394,
                -0.03804921936107698,
                -0.2165348414285361,
                0.3308877989273453,
                -0.09728732945383678,
                0.09835709431772184,
                0.584504106643447,
                -0.14367406622396703
            ],
            [
                0.15601372188791213,
                0.08031336794469889,
                -0.07215201508971872,
                -0.23949557132535232,
                0.6486431043569507,
                0.08235599659754113,
                0.07987895148296817,
                0.1685416794265068,
                -0.16869955904753398,
                -0.3207532481902692,
                0.15131734448830467,
                -0.020693830143713614,
                0.27798771564097313,
                0.19284032521144517,
                0.255570557069766,
                -0.4133231948782093,
                -0.48873012153229795,
                0.11969140094495737,
                -0.10398689858321898,
                -0.4724961284873676,
                -0.1605054472882457,
                0.5024594299243152,
                -0.08367512694758598,
                0.03524211114941084,
                -0.09586314943566544,
                -0.45563799140007666,
                -0.0783164283316479,
                0.18189542586061297,
                -0.08588377653479701,
                -0.08299180569397775,
                0.11372533219425633,
                -0.2678805772560586
            ],
            [
                0.09869265266879482,
                -0.13138519074551705,
                0.042062497378559834,
                0.12935317788314357,
                -0.1662321276190698,
                0.19852359353887547,
                0.0013890375098731089,
                0.4480597885746079,
                -0.0389915774589487,
                -0.20471855075059397,
                0.3584217292036207,
                0.07421450685678911,
                -0.31622718144250395,
                0.18803986670822312,
                -0.3016773544073601,
                0.03735815106080658,
                -0.0909177451206492,
                -0.30133392889087746,
                -0.13913359694433813,
                0.08458303287760262,
                0.38740213685238595,
                -0.21832234230065029,
                0.3248648754474138,
                0.008622841234194887,
                0.3613106044852006,
                0.02280393831589975,
                -0.27181125160979175,
                0.13530251799308712,
                -0.4269310821352412,
                0.15689424201333405,
                0.16183547959407157,
                -0.016292717044377986
            ],
            [
                0.10996983623466501,
                -0.6144475802337663,
                -0.03644476371344375,
                -0.22073681256425212,
                0.2828235139504428,
                0.04325858608688415,
                0.05388762799387608,
                0.02239782129092995,
                -0.15557737099695298,
                -0.2145293638070126,
                0.00904991303612984,
                -0.4037618952506508,
                0.20975178245710344,
                0.3239616029019438,
                0.29138425481748276,
                -0.3163935859464798,
                -0.21001494205672366,
                -0.17656490580236806,
                0.3860073948480937,
                -0.2465380477075991,
                -0.5047248798296512,
                0.0105169464603755,
                -0.3261389218742537,
                0.1411689452127906,
                -0.038465650673343274,
                -0.10396164624016413,
                0.1455340905107232,
                -0.0325427434275601,
                -0.24716994199401762,
                0.19227761289215095,
                0.6282684918225893,
                -0.31372832123427213
            ],
            [
                -0.16868043604136135,
                -0.056916916832457164,
                -0.16669841763076518,
                -0.4570064769195038,
                0.2902876669664807,
                0.1636012691730771,
                -0.09786072423659893,
                -0.3805656860667883,
                -0.23257511356963573,
                -0.021680245710245738,
                -0.22083479101491438,
                -0.1365159425697638,
                0.31357296980907506,
                -0.05303580694846879,
                -0.23920313993183454,
                -0.0969358941144737,
                0.3576761173970017,
                0.2853792112604524,
                0.036334658338838546,
                -0.007894545269974663,
                -0.08252452911064626,
                0.2973207609737791,
                0.009520985971060133,
                0.27956704750371436,
                0.19788200254998092,
                0.25359020355180245,
                -0.11270143189607877,
                -0.3909700008592729,
                -0.047293709733333134,
                -0.13401954651592338,
                0.03216612388872933,
                0.1384074589900246
            ],
            [
                0.04495416025418924,
                -0.5250310058267432,
                -0.11488962037330432,
                -0.27517235319015243,
                0.43997962489077924,
                -0.3815336698798166,
                0.08679301615607307,
                -0.36905662066549577,
                -0.297954380004008,
                -0.18223133430022284,
                0.12903634553323626,
                0.0691716816197417,
                0.06049955956632032,
                -0.0009251212938206731,
                0.4087294173042308,
                -0.5017917596634731,
                0.3762575823306778,
                -0.24645592583823037,
                0.27960452179707673,
                -0.10130144206004395,
                0.1901382026621463,
                -0.08758236558388811,
                -0.37973845019973923,
                0.04433342855114336,
                0.41858744912347484,
                -0.018910742241100502,
                0.021333860782695134,
                -0.16175873561775203,
                0.2232360405575541,
                0.3614470044225076,
                0.2266561416344043,
                -0.03191600850675254
            ],
            [
                0.06291371871238709,
                -0.31625044945355874,
                0.20424795077472854,
                -0.14723546110171018,
                -0.015530287040732537,
                -0.07956628191101892,
                -0.011345312011717677,
                -0.06453240764299474,
                -0.01829524521612464,
                -0.0945897838870822,
                0.10735887855802335,
                -0.033717187779803086,
                0.053360847909068455,
                0.06611731078788122,
                0.19598278172364805,
                -0.055035533434810546,
                0.16954436473186196,
                -0.11076363879163588,
                0.33676212771641595,
                -0.0745232660460879,
                0.0029961061981691713,
                0.021985908582473096,
                -0.3392194389399271,
                -0.03917202423955321,
                0.15857882814630306,
                -0.41773767896056074,
                -0.26357997615222833,
                0.20140566041433705,
                -0.3591006758689445,
                0.3763873049497861,
                0.28507394022863847,
                0.01585578255031839
            ]
        ],
        [
            [
                -0.19622314770175733,
                0.09519311767010578,
                0.21423896661917863,
                -0.14279466234990312,
                0.14413024104520106,
                0.04869421597879251,
                -0.199966152999828,
                0.14914263538301065,
                -0.12523490275846202,
                0.16942554447123265,
                -0.08576263046726035,
                0.018422039073431273,
                -0.11182037835661188,
                0.16380518136006192,
                0.2674122513472281,
                -0.03408114506575439,
                0.053804374304750345,
                -0.2506977236086469,
                -0.009292051623523883,
                0.06899863745429713,
                0.25238673883293433,
                0.05990583953151023,
                -0.09999357801970887,
                -0.2840603200273404,
                0.03187698459499386,
                0.007640925381689507,
                -0.2628519229311306,
                0.2596639284066011,
                0.2545101488703314,
                0.023553852317656998,
                -0.22334007326485533,
                0.10990047659523319
            ],
            [
                0.04364493579061702,
                -0.020916741977432395,
                -0.35050174193525074,
                -0.12950713516491894,
                -0.0801057765378785,
                -0.04263818043831303,
                0.2063929876469189,
                -0.511072881974225,
                -0.030563212457550375,
                -0.05530947937739643,
                -0.5266541271228878,
                -0.2059471237002765,
                0.28326419018044,
                0.0582671256101227,
                0.08128117071408678,
                -0.45718782465579366,
                -0.60523331098657,
                -0.20767286969248142,
                0.041407582928369005,
                0.1473064492621139,
                -0.3834592382469857,
                -0.0035990418736625376,
                0.09285850374197596,
                -0.3348651248080211,
                -0.17656081332756893,
                -0.4988075865776163,
                -0.44081486021407257,
                0.432119564309364,
                -0.09987255201372101,
                -0.5052285333754537,
                -0.15892279984080215,
                0.0529920815944382
            ],
            [
                0.12976141413998937,
                0.18311743086044593,
                -0.17235559727281854,
                -0.23937723675250233,
                0.2479665907029128,
                0.4581713336207142,
                0.2496047166881213,
                -0.16740048764374926,
                -0.20838387726928329,
                -0.09803887721053971,
                0.0520829511923614,
                0.16046777778738255,
                0.2038195170149893,
                0.2970906582517102,
                -0.09294945414041382,
                0.0725431559610375,
                -0.5999494413444676,
                -0.21976493381718518,
                0.1306922771138315,
                0.03466473999964102,
                -0.2740423376619452,
                -0.042366027053782646,
                0.3921239225346877,
                -0.19100981844567388,
                0.15890452884535025,
                -0.2749409702754958,
                -0.4187900069781944,
                -0.09383331191136766,
                0.013458004326713482,
                -0.10620832326671915,
                -0.3374899941277081,
                -0.1138855290425884
            ],
            [
                -0.12589603062955065,
                0.22129544797482642,
                -0.28851746746137813,
                -0.3287807717649472,
                0.08360462627144562,
                0.3864887078743052,
                0.1748588153664207,
                -0.3263519495761151,
                0.3220399473137148,
                -0.020283259757742728,
                0.03027320547538171,
                -0.38415706591935844,
                0.3641324445397874,
                0.27838981716204136,
                0.03087200981954258,
                -0.18367232282877416,
                -0.043205208442344545,
                -0.3440676259651012,
                -0.17198604843432666,
                -0.2881399784529128,
                -0.37169265971496257,
                0.37073295669546996,
                0.06461348395234122,
                -0.08137195799918953,
                0.352155124066451,
                0.09843591916355954,
                -0.3421531690283183,
                0.4776569107997739,
                0.15593715431392277,
                -0.414057847548032,
                -0.2741629616813478,
                0.1943366448212935
            ],
            [
                0.09891672781634635,
                -0.5153505412750399,
                0.008991548892344707,
                0.32768624716021655,
                -0.13431103804426478,
                -0.2305095773073411,
                -0.48692272734164865,
                0.5268492772367811,
                -0.02931982388907916,
                -0.24748962133490104,
                0.4844326873067236,
                -0.02639180155601737,
                -0.49786960588181195,
                -0.32912188100262985,
                0.02463641594609172,
                0.2150558567499149,
                0.5374818947612179,
                0.30540784340324645,
                0.25164997666597383,
                -0.17129533415197423,
                0.4244782109323963,
                -0.09015923455182638,
                0.12982963373973735,
                0.24504747239450145,
                -0.4028433265922932,
                0.3161129913564574,
                0.3347416790829884,
                -0.40252807988322253,
                0.11378867085227959,
                0.18619620955683272,
                -0.06244441352865546,
                -0.058669046472015596
            ],
            [
                -0.04091874880671587,
                -0.04898098146848587,
                0.22309759493764617,
                0.23594450537801517,
                0.06982048660110216,
                0.12488591021454147,
                -0.31927268119407215,
                0.08295111429037445,
                0.010402921092460533,
                0.09035450611472083,
                -0.18470116164827557,
                0.30506594505793877,
                -0.027879757140131817,
                0.11266741954330521,
                0.05240550031796304,
                -0.06694011974791099,
                0.12616787495461482,
                -0.1272997516311777,
                0.04957108460824446,
                0.14136976965703768,
                -0.19941079155238559,
                -0.1135461825998393,
                0.16678571187176022,
                0.09201269133251885,
                0.1689441058307879,
                -0.022018178211174206,
                0.24897450125881937,
                -0.3460607493489646,
                0.07219342537769054,
                -0.1967330493691482,
                -0.1972939806361889,
                0.07617395667051
            ],
            [
                0.27737620593345064,
                -0.1864872146434358,
                -0.1421969140535875,
                -0.24654322201869136,
                0.26653424169805556,
                -0.28344000341288855,
                0.10284937456399496,
                -0.10516964634237,
                0.14021385093575625,
                0.24500989924683214,
                -0.08760449092978853,
                -0.117510298485032,
                0.2002860854884351,
                0.024697160119923626,
                0.049705570843899684,
                0.21045045386800557,
                0.07140131564882354,
                0.040155083549021656,
                0.2680770222367168,
                -0.14993712337659884,
                -0.11181119974119484,
                0.26058998998712823,
                -0.019499853141107762,
                -0.22811786850372945,
                0.07235775060582969,
                0.03340139551168952,
                0.031113953380213194,
                0.07178275846671446,
                0.05769024180156178,
                0.205938941211208,
                -0.08183418961638324,
                -0.18870217987804153
            ],
            [
                0.09743693174144008,
                -0.06098940531625958,
                0.10398229098699853,
                -0.28952916799260614,
                -0.283763739483783,
                0.13707940381550313,
                -0.10214081146616823,
                0.14903916815018908,
                0.22754998029781554,
                0.20275161750435494,
                0.11323968977088003,
                0.09738819671115405,
                -0.08921726537121458,
                0.02419698825136737,
                -0.17698604561951528,
                -0.2991103571695549,
                0.13602747101906434,
                -0.24494958605520084,
                0.008612686815846916,
                0.04007032631841131,
                -0.1547668180224652,
                -0.030960660126237875,
                0.06641101429343091,
                -0.15561363172202508,
                -0.13689995146487058,
                -0.18337602472534606,
                -0.006787498099198554,
                -0.16416457194166867,
                0.04124178758851375,
                0.21596001918400834,
                0.1359888500979654,
                0.25484917627774595
            ],
            [
                0.09274579438155005,
                0.06310063178573154,
                -0.42272710595519736,
                -0.25005571553455624,
                -0.2193425102215862,
                0.21225081761064152,
                0.3622447558730775,
                -0.16705212013436105,
                0.33453984816638055,
                -0.27353244705057966,
                -0.14770163156317176,
                -0.21656531128110051,
                0.0688136102098435,
                0.3452735511393588,
                -0.2136615617644705,
                -0.2916443175614386,
                -0.5767305050180864,
                -0.22230155405110535,
                0.230066417255506,
                -0.3598556768799995,
                0.11343722545398616,
                0.3558753045346379,
                0.12271755143314507,
                -0.34667352278275665,
                -0.004887725458842895,
                -0.06055250186459658,
                -0.31671660813481184,
                0.08565212091517817,
                -0.35955937252105463,
                -0.45922159196859574,
                -0.06834580470378578,
                -0.1896302806326623
            ],
            [
                -0.2481807732881928,
                0.14308873516048534,
                -0.10271780417156025,
                -0.21018955613907575,
                -0.09541196011775374,
                0.10813259368870555,
                0.1719098294094926,
                -0.31700657548510636,
                0.09220334124338612,
                0.08602992416344056,
                -0.13294756432099486,
                -0.18291870197602045,
                0.1663491972945272,
                -0.25333896702171066,
                -0.01385098396252811,
                -0.06123799528400811,
                -0.044631116511348636,
                -0.11950725169272318,
                0.21697634413281594,
                -0.2491347265801844,
                -0.3659208660696494,
                0.3291205260684753,
                -0.004692108416068531,
                0.16102726962334604,
                0.23529958720292746,
                -0.19021825671684722,
                -0.097827523766985,
                0.29039343169685716,
                -0.22811785622412428,
                -0.1826309176918483,
                -0.13414008374643538,
                0.24888619899406034
            ],
            [
                0.16719969733158854,
                0.3480557063721563,
                -0.2639956088895502,
                -0.3046056416350061,
                0.015640834330993662,
                0.17433666569084458,
                0.06297616570446157,
                -0.4022312173455681,
                0.026153685574209544,
                -0.20822854656023362,
                0.06268902824579585,
                0.03581494194421962,
                -0.03809421407015446,
                0.1244764722984622,
                -0.12129860519307349,
                0.13042368189661183,
                -0.29259688844118575,
                -0.12354850025336933,
                -0.165018908948006,
                0.21108821505173667,
                -0.03227636382209207,
                -0.04731933160695191,
                -0.24811705898030123,
                -0.14820109328714293,
                0.23049431242923601,
                -0.1838840299658394,
                -0.2697087464486491,
                0.2054651907867008,
                0.032627885872070925,
                0.042766724552144496,
                0.1253696562275174,
                0.268053208801226
            ],
            [
                0.24375720420005248,
                0.10440524590347143,
                0.19871227922678047,
                -0.1366363741881305,
                -0.14243262839663134,
                0.17141315924142736,
                0.30795854817273194,
                -0.18181547025476394,
                -0.13666508440607136,
                0.18275267694190497,
                -0.2522652891454163,
                0.1792519978923301,
                0.09651117452728171,
                -0.12424508014769925,
                0.10347037056524652,
                -0.05245070516688905,
                0.20374445184689838,
                0.1950135385332422,
                -0.22660162855622157,
                -0.13669592613788678,
                0.19469579216889255,
                -0.14415812557940258,
                -0.19747639246337617,
                0.17807546284352202,
                0.26266760437691916,
                -0.3230089476753536,
                -0.22703866954983398,
                -0.09698937377212893,
                0.11039168806636504,
                -0.05990386019820174,
                -0.11696670807833434,
                -0.030718229738026494
            ],
            [
                -0.24620149814768086,
                -0.31160365451810107,
                0.023520530825691572,
                0.006384344543141537,
                -0.050878088091049295,
                -0.05734220078539926,
                -0.4010991975234593,
                0.3217771883542589,
                0.20171375546416984,
                -0.2528179913601948,
                0.24934849327057274,
                -0.04677010491382114,
                -0.15066529877893647,
                0.08154635861000126,
                -0.17766453685884143,
                0.30614721877059214,
                0.4584311081448395,
                0.0786400805895604,
                0.2170753277920598,
                -0.013694711152801369,
                -0.14426720171450538,
                -0.08474054693347108,
                -0.10393447249971012,
                0.079957603844437,
                -0.12145394995191135,
                -0.05948875183537191,
                0.30269751186562294,
                -0.08294339056665742,
                0.13145667979895032,
                0.029428886702494213,
                -0.16594010369381268,
                -0.1513298554296014
            ],
            [
                0.233420212870511,
                -0.18254146724922088,
                0.0266561909437575,
                -0.2025678554181691,
                -0.04539296562897507,
                0.006141959760222311,
                -0.2075433548436939,
                0.14532459911763884,
                0.16459036926295711,
                0.18422674154778368,
                0.320057307462682,
                -0.17315170272165548,
                -0.020890858061994488,
                -0.04700722267169263,
                0.0655772024100975,
                -0.15675297386737475,
                -0.11761127160770464,
                0.11083670012902785,
                0.027176760259008188,
                -0.22225077800256104,
                0.13829152197580036,
                0.15927998266862306,
                -0.31633586310198747,
                0.2051128830933887,
                -0.10824400358114278,
                0.013175244718471257,
                0.2618206191870503,
                0.08355714728918306,
                -0.05696445480153844,
                0.13451150821162797,
                0.0026220491030764835,
                0.19113893725838108
            ],
            [
                -0.3173258116200704,
                0.07952493116999612,
                0.1208732423905083,
                0.2875278911988493,
                -0.04461044779373943,
                -0.2906915972941071,
                -0.43217294317897315,
                0.33370983047045977,
                -0.21919632642051456,
                -0.021378851795050956,
                0.22122437287221736,
                -0.09598385595620033,
                -0.4583834207494546,
                0.13892269749666625,
                0.2865385954172446,
                0.2217825969864397,
                0.3882758430428015,
                -0.08416139982153048,
                -0.10065594090399775,
                0.01001658365300188,
                0.04211603397204589,
                -0.3559035256537819,
                -0.12153334544714152,
                0.375925108510299,
                0.13842272902769276,
                -0.1724538452830485,
                0.37101763433634455,
                -0.24838822113366127,
                -0.1944311889756494,
                -0.07757559945532493,
                0.07083542635839443,
                0.04828221441373343
            ],
            [
                0.14416162871298846,
                0.4597662204392941,
                -0.3427280544720048,
                -0.15825115663190822,
                -0.2516338505389096,
                0.5060593825770588,
                0.4652437608400787,
                -0.6124220517316942,
                -0.011030558485907841,
                -0.07399532367628708,
                -0.4934432292822053,
                -0.05135546968886509,
                0.5786331208359857,
                0.10600608326040853,
                -0.39112631530847997,
                -0.25925980812435523,
                -0.6759217755173913,
                -0.17850957850887697,
                0.06172947255798117,
                -0.10226184276504154,
                -0.535300256497079,
                0.135729557672305,
                -0.05651919854912693,
                -0.3101213931471209,
                0.09879696063806341,
                -0.07180507068405881,
                -0.48074097991758585,
                0.1364879185813349,
                -0.13567863527376972,
                -0.47097208417307795,
                -0.21190084362740724,
                -0.11829716871979805
            ],
            [
                -0.18797362336948867,
                0.14542235862593228,
                0.16637772047819083,
                -0.08636921755548584,
                0.15150747719817687,
                -0.14492881800094834,
                -0.04916006124845879,
                0.07073212473212886,
                0.10308263043504065,
                0.05470065176315342,
                0.0999483293134695,
                -0.041123669449733086,
                -0.3131581995904483,
                -0.3219205414572081,
                -0.2159351620051519,
                0.3125959260168653,
                0.2021096063009894,
                -0.16124500153747026,
                0.194406284230096,
                0.30217955792328205,
                0.2376401732146391,
                0.15603230668199966,
                -0.1931698376537279,
                0.041545704318042775,
                0.13098878643416095,
                0.14330594805369068,
                0.06259375316464427,
                0.08432365277197966,
                -0.10563357555587487,
                0.3210124007599565,
                0.1562873018880009,
                0.09084917565718997
            ],
            [
                -0.20630895307117988,
                -0.019394439190757274,
                -0.19117808833865904,
                0.2645224226239618,
                -0.03550177442834233,
                0.205656763008082,
                0.10574818688334757,
                -0.27769003374915185,
                0.07852212188261523,
                -0.22916184540727788,
                -0.09311531800996842,
                -0.25469272071269966,
                0.34942092661293495,
                -0.2611529850483816,
                -0.1492271633093908,
                -0.15945329317833742,
                0.08203106228689883,
                0.1952170297832791,
                0.2796439749992456,
                0.26298491230237403,
                -0.2482928828765444,
                -0.1674093950425948,
                0.12314417287357203,
                0.08550522898644061,
                -0.11217080906248814,
                0.14571818854648225,
                0.08014836760070353,
                0.21016096853401858,
                -0.1719651926210331,
                -0.34838502814452893,
                -0.030998149635700505,
                -0.1965001972048023
            ],
            [
                -0.058531797502456955,
                -0.2019597353526804,
                0.2711572542245946,
                -0.07278652746621225,
                0.07533007973535433,
                -0.3145931018419557,
                -0.3085729493241191,
                0.2938638883240775,
                -0.19005340249967206,
                -0.11522259826496319,
                -0.1492629410209886,
                0.12600757844850297,
                -0.24190137677609674,
                -0.373632690009272,
                0.31718321668702143,
                0.3645676338065673,
                0.20091985318114164,
                0.0319832838491232,
                0.17742618024128284,
                0.025484643867602564,
                0.12941354793306636,
                -0.29152053911963977,
                0.006536594970923585,
                -0.13329934379705652,
                -0.2698835161043602,
                0.3395305513875,
                -0.03430810147236078,
                -0.30404794298105153,
                0.09757670797052273,
                0.33978699730826195,
                -0.09105580037262452,
                0.26793611220510144
            ],
            [
                -0.15114443472114392,
                -0.019569997289883276,
                -0.40213732756467424,
                0.14841759914300176,
                0.037019420269605224,
                -0.13136978848722347,
                0.05591001294811336,
                -0.5086022738300071,
                -0.21441238919671,
                0.31338012811867666,
                -0.12508132971450803,
                -0.38195811071562163,
                0.5587666649510412,
                -0.09344160434639863,
                -0.29362780513656656,
                -0.2795584704035729,
                -0.501694008358754,
                0.1873391167764611,
                -0.13185372059278397,
                -0.05300040646437152,
                -0.22886394991072867,
                0.3574238696936978,
                0.40800404518342603,
                -0.21516715692195407,
                0.2954196579061459,
                -0.17746221510607,
                -0.5269510783267037,
                0.4226783059271455,
                -0.0629483590613796,
                -0.3246141495448569,
                -0.278004331996074,
                0.10864241638558535
            ],
            [
                -0.30381379273496717,
                0.2857678920154448,
                -0.16883061349409934,
                -0.2520308165872241,
                -0.20916059799739514,
                -0.027689559746351844,
                0.024935587896071948,
                -0.07828053360264939,
                0.13929857040292412,
                0.14108092598805289,
                -0.20351368614098714,
                -0.11509473064767876,
                0.06941411900978207,
                0.2056741238465076,
                0.08779591620909317,
                -0.2283295398813641,
                -0.33852612964782564,
                -0.19597160204807776,
                0.03549811637892504,
                -0.16284982177350482,
                0.031056047156061885,
                0.08645914546069366,
                0.1600947494347332,
                0.003079864043213265,
                -0.2164672206968198,
                0.23816702796800712,
                0.10205692400671458,
                -0.2398349300125547,
                0.1993213803920212,
                -0.2208219643333074,
                0.22641975346483892,
                -0.2077887711970052
            ],
            [
                0.27310472811015785,
                -0.21709434503455008,
                0.214259575192813,
                0.2772803160856838,
                -0.27225202557040257,
                -0.09390145474117398,
                -0.03921149250820965,
                0.35229190579816827,
                0.2183773545403126,
                -0.28712405090554627,
                -0.23881417245309894,
                0.11443848157653023,
                -0.14192121164353,
                0.20107103497182266,
                0.05283110436610367,
                0.023828717496171693,
                0.24200498106184268,
                -0.1402038242474825,
                0.0027906365040244767,
                0.2976009411308276,
                0.009798789677456801,
                0.2559290425292686,
                -0.005896156707391771,
                0.11623531876788684,
                -0.3396792834774731,
                0.29979691596735036,
                0.21442790732881076,
                -0.34104228008271764,
                -0.24883209917175986,
                0.2136611884849938,
                -0.1483112641315382,
                -0.21570673023195994
            ],
            [
                0.15002725006713094,
                0.19671199875449885,
                0.1557528182649752,
                -0.040443719394872915,
                -0.07159160945888146,
                0.059321226003441835,
                0.15868666573729984,
                -0.35248914925488584,
                -0.15503185903457758,
                -0.21610695332442795,
                -0.24170825375565544,
                -0.0480799543327008,
                0.1710530832022079,
                0.06834331237884562,
                -0.3238157425101221,
                -0.2515837381562798,
                0.019282028592191268,
                0.26583510805727273,
                -0.23682884802077436,
                -0.30940495265260587,
                0.10453452328209294,
                -0.1293336521204393,
                -0.24755627762823734,
                0.26168416068965517,
                -0.07858263375910367,
                0.049727152853561,
                0.10298797053816247,
                -0.0453490101850385,
                -0.1522466474135522,
                0.15241755896333803,
                0.010158019093016946,
                0.12674784412754203
            ],
            [
                -0.09874129279372862,
                0.04220877933354049,
                0.1088395750881177,
                -0.13226563718920942,
                -0.02348485149046212,
                -0.13564911586449827,
                0.17874025080421535,
                0.28152662444701465,
                -0.15493629209381565,
                -0.07604197260601962,
                0.13750997723355687,
                -0.04190485536423147,
                -0.3061918883810303,
                -0.2775505912340237,
                -0.13541455517437267,
                -0.05062877938152069,
                0.036570073296393196,
                -0.21287112834235836,
                0.15111898320655384,
                -0.1900500833668594,
                0.1958029744899199,
                -0.3059580939218635,
                -0.24814978250779274,
                0.10178472637864824,
                0.17647553623684561,
                0.1113420777912824,
                -0.15359641476271793,
                0.11523020311345789,
                -0.1843383687044192,
                0.2706227974700158,
                0.34361725719836317,
                0.019847209646921243
            ],
            [
                -0.2293791811238802,
                -0.11283051107023552,
                0.23163260317313478,
                0.04565568708648671,
                -0.18689706402864456,
                -0.08565131950942446,
                -0.13057051112706622,
                0.27414696013670614,
                0.12888270974646507,
                -0.19859062603663502,
                0.12444388542411891,
                0.002070758204686753,
                -0.04374922062895496,
                0.19484234662940192,
                -0.2276698557213904,
                0.016064627699032726,
                0.14416152509730915,
                0.04149499842676032,
                0.2609910041072971,
                -0.0680528113550654,
                0.1069682467852692,
                0.10073412854759418,
                0.1447195213821227,
                0.04035345452039991,
                -0.20365577109872135,
                0.015392710841395159,
                0.20859612829101057,
                0.12213820258375761,
                -0.1226569734760917,
                0.2923568667072151,
                -0.20624015977781315,
                -0.18760555471565316
            ],
            [
                -0.2769437487932526,
                0.3364563479448239,
                -0.049364741421489215,
                0.13256150279855528,
                -0.1113215156355249,
                -0.22093402488792377,
                0.21463188293537416,
                -0.03258378068539602,
                0.20506996571105268,
                -0.2748580703554876,
                0.09074529660275478,
                -0.1712175810484951,
                0.16658142575940219,
                -0.24901666702341074,
                0.19307213503579346,
                0.21308395341437222,
                -0.2521807787060254,
                -0.0749313231466764,
                0.039685946010120404,
                -0.2170417777639978,
                -0.31308004461652383,
                -0.23788257539797145,
                -0.12676698479106654,
                -0.048770297212942605,
                0.09300686606927253,
                0.20929355721012863,
                0.17348314860840144,
                0.08524506147484817,
                0.11685536238075314,
                -0.324770720862496,
                -0.26444738981570687,
                0.3016058520577261
            ],
            [
                0.14460291523774796,
                -0.09062801642320373,
                0.034317951604484045,
                -0.1461813729782421,
                0.12563582103465984,
                0.2471992111752378,
                0.07992886644327796,
                -0.0667403969899856,
                0.12373607370374343,
                -0.1098628659445321,
                -0.17309106326198945,
                -0.18850018846998778,
                0.31186574348050106,
                0.031285065373461075,
                0.21381108417737743,
                -0.03967125390282115,
                0.03426113473042209,
                0.0003986842752541292,
                0.013893594254301773,
                -0.24013202132557632,
                0.23160269034413777,
                -0.03920792881675198,
                0.3067369093437814,
                0.06325162990758113,
                0.21156317241110154,
                -0.2520330618589765,
                -0.036784654759878875,
                0.2625624448879529,
                0.07662250585827231,
                -0.05334398264798593,
                0.05548902096442798,
                0.18228972781884376
            ],
            [
                0.28871343689655377,
                0.3321377518603793,
                -0.19967910189532695,
                -0.19520903105942933,
                0.17507106985980325,
                -0.013276995623103242,
                0.2078446167913308,
                -0.38919732199597473,
                0.08547284672136313,
                -0.2859930542294535,
                -0.18593260918154206,
                0.2129610938875025,
                -0.07461317720123711,
                0.3199224578550163,
                -0.1880525670638903,
                -0.12605739818173975,
                -0.059251312925652756,
                0.1263716623291171,
                0.10958958218002667,
                -0.2907007001363897,
                -0.23948403697304338,
                -0.042843509364062525,
                -0.06046042280110495,
                -0.2130025957279197,
                -0.03152447224885957,
                -0.06711031932517335,
                -0.13359961361438222,
                0.025687327246764445,
                -0.23638136507853436,
                -0.09724935940524775,
                0.05073861837291892,
                -0.2243317322100978
            ],
            [
                0.14937911677583357,
                -0.03721782059946872,
                0.11531304681744492,
                -0.07122079029790501,
                -0.1904390666030605,
                0.13113886442982034,
                -0.1565737875038055,
                0.3629476124393828,
                -0.19803210674627278,
                -0.2332069238438248,
                0.03325786152210427,
                0.376657592254241,
                0.014644940987234917,
                0.24460977889244315,
                -0.026712542993085207,
                0.25534236596766713,
                0.09742756931600817,
                -0.07134975884386943,
                -0.23932305603516366,
                0.017446816821185304,
                0.1936295944864931,
                -0.0887386270735348,
                -0.026873690268688067,
                -0.051126748218351115,
                -0.2015419195786684,
                0.16157365207331734,
                -0.11841591999266884,
                -0.4223985353266177,
                0.21319315588658902,
                0.1969785887796063,
                0.03137392570357653,
                -0.0820664040571874
            ],
            [
                0.11790928202006926,
                -0.31779009176958645,
                0.308663359020204,
                -0.2017740700977369,
                -0.12859677755979274,
                0.15029544177456675,
                0.05010362985048067,
                0.2451401106951074,
                0.2398933193256875,
                -0.0642205784533982,
                -0.04230842086653446,
                0.14548896429687355,
                0.049652892910456395,
                -0.3224691664187056,
                0.06753452071171862,
                -0.061348266951814216,
                0.14123014018634783,
                -0.03570787488618541,
                0.12474527466905035,
                0.10986746260940489,
                0.048906432983377705,
                0.18261416192894564,
                0.12313288418372864,
                0.19635878839805543,
                -0.2818032657141688,
                0.1180594147617796,
                0.4225333467826735,
                0.045514405517968544,
                0.2309834258173904,
                0.2411888415463834,
                -0.07438609598684162,
                0.2583196354010266
            ],
            [
                0.02350569680019531,
                -0.0884841984450339,
                0.05952490931463509,
                -0.14416900773524682,
                0.08070985056427189,
                -0.22036113436817645,
                -0.14421311748210947,
                0.4600150573536163,
                0.08384892025890557,
                0.1254647927541545,
                0.3839654718255276,
                0.07675317792255999,
                -0.4516779777601446,
                -0.26564985196880714,
                0.35804165181706915,
                0.28123375277898455,
                0.4859031050239075,
                0.32254221748493417,
                0.265906601508872,
                0.18346912978307847,
                0.09469400462447601,
                -0.33944221377277783,
                -0.25469394409579155,
                7.456000566526897e-05,
                -0.1562642426773259,
                0.2217761410160606,
                0.4007372480600155,
                -0.2301778687379456,
                0.21849600811015532,
                0.38760794395295145,
                0.21550577847068264,
                -0.22592062726964643
            ],
            [
                0.04450556973623786,
                0.01859668238569285,
                0.008994674908848825,
                0.10558082348560996,
                0.20267036639992567,
                0.34465980464247176,
                0.21381375599812352,
                -0.505974288860798,
                -0.20071357745404117,
                0.03576560931740029,
                -0.17305759489552422,
                0.053564013142441476,
                0.044664396680572246,
                0.21125366296893863,
                0.17109395089298077,
                -0.35148773455755655,
                -0.2544867596642278,
                0.038051021703004236,
                0.005983350684721901,
                -0.2500237545079368,
                0.06133408588807589,
                0.04802893112233682,
                0.17461629213408997,
                -0.3926946468304431,
                0.30901475387252425,
                -0.35071274896158705,
                0.06494287207428524,
                0.206004547902668,
                -0.08913506442979131,
                -0.12372272533337363,
                0.0569381434868787,
                -0.22309677702538883
            ]
        ],
        [
            [
                0.07432241649946644,
                -0.23568459353865556,
                0.15629875613373437,
                -0.024049014897556426,
                0.0006442171446087896,
                -0.11994561041080831,
                0.15187282211336167,
                -0.06595453783986063,
                -0.15655264298232116,
                -0.16869024242204128,
                0.11981797758034965,
                -0.21787290429909192,
                -0.10746947528646783,
                -0.012419807852428298,
                -0.2669410164082259,
                0.15706874195809,
                0.018531702730437406,
                -0.09420237159912402,
                0.0744065041363617,
                0.2537655532146467,
                -0.18235420649525647,
                -0.009640921504656497,
                0.19302470153593998,
                0.11822420041045428,
                -0.1123719268905853,
                0.1787027876326892,
                0.15908758386620114,
                -0.1732075606208622,
                0.31719135044123853,
                -0.16752121737570516,
                -0.2111430449230239,
                0.13238896457564323
            ],
            [
                0.2745145971708607,
                -0.0681552368174936,
                0.018059716139667815,
                -0.38090646069783246,
                -0.1713227665324663,
                0.1440906257010262,
                0.29411508119857527,
                -0.10850478147541609,
                -0.23171797472494127,
                -0.1077244685306117,
                -0.043687676240632974,
                0.11411762008761073,
                0.20874828758769526,
                0.41736979508486305,
                -0.15979501892045078,
                -0.36659140320359784,
                0.3905458579908507,
                -0.10160028468238869,
                0.22456037226352585,
                0.260703436212536,
                0.40769957100020876,
                0.1084465536609937,
                0.15017745385393308,
                0.17619306861286857,
                -0.2606093372985448,
                -0.29538613232932215,
                0.11283536206419846,
                -0.23124869482918667,
                0.09747650580087343,
                0.3026929362293496,
                0.14940361777810027,
                0.11925927221072656
            ],
            [
                -0.1152787248181447,
                -0.26124771840781735,
                0.19066317468873573,
                0.10647214556086351,
                0.38729460939727633,
                0.21178142583946086,
                -0.33792632950367507,
                0.17665189325167735,
                0.2571589833680512,
                0.3034167060460911,
                -0.3030064705425168,
                0.004174546695110113,
                -0.051139131397456655,
                -0.1577620454440126,
                -0.08929192453305908,
                0.12167134396714818,
                -0.12326587697303593,
                0.2505540683328934,
                -0.25258986369612924,
                0.029154545748253224,
                0.05022451594655081,
                -0.2841549332403927,
                0.36524609663778707,
                -0.38932285935698324,
                -0.17816195686349617,
                -0.09684895040624925,
                0.05481956408141503,
                -0.07899772862644314,
                -0.19654581679244623,
                0.05187901877701446,
                0.25924448588755483,
                -0.0818988120269111
            ],
            [
                -0.29706283450443716,
                0.15026775379901283,
                -0.15752871687909745,
                0.0853766209536141,
                0.27114655169630875,
                -0.07314922295391767,
                -0.21028373456633698,
                0.26266913908606654,
                -0.1671696848377011,
                0.34739717085886157,
                -0.23165814711118224,
                -0.16891711485139907,
                0.22963893185196668,
                -0.28701356913386233,
                0.1606483691751009,
                0.07008355132349996,
                -0.09200945471007946,
                0.11224227739008072,
                0.10195424593527874,
                0.023894449703344662,
                0.0015661801735871342,
                -0.16895252818824322,
                -0.12061663576326215,
                -0.15931061281692938,
                0.2593785453722675,
                -0.02561525969087416,
                -0.20488209983794603,
                0.013476068151148709,
                0.1708233100762617,
                -0.272076341615563,
                -0.23900231325431284,
                -0.272421564065726
            ],
            [
                0.2578928888685355,
                -0.19521519452272545,
                0.2713249753011593,
                0.1583201426257618,
                -0.0482097256222298,
                0.17012325330065012,
                0.23565217394030655,
                0.035943130387277276,
                0.269875341086851,
                0.09298235488319764,
                0.1321800503935412,
                -0.12812773593921895,
                0.24857969921498715,
                0.17229613223289847,
                -0.129387837708057,
                0.0786349478327205,
                -0.23689529779568114,
                -0.09661369281279744,
                0.16902362274565375,
                0.21944637327680655,
                0.26786964932440305,
                -0.05130461637787984,
                -0.30147995882472595,
                -0.2821656692464891,
                0.2949996015091777,
                -0.22692616445248928,
                0.0243272069754861,
                0.024887641840564675,
                -0.2804629131105053,
                0.059478564894883235,
                -0.11503813973114799,
                0.2893614178805516
            ],
            [
                0.029816797510663365,
                0.05271934984729003,
                -0.22186983065501265,
                0.016766631079939608,
                -0.33885762771372174,
                -0.018729736248691647,
                -0.17673492560611045,
                -0.39001089929007837,
                -0.1757822466131811,
                0.040297267711234055,
                0.4125522508940778,
                -0.0593299917269514,
                -0.12680079354602755,
                0.18940040692071583,
                -0.09399989541330393,
                -0.4260987950151019,
                0.3813188637970271,
                -0.39123810385655694,
                0.16666846029377977,
                -0.1840202273256079,
                0.013370213596864106,
                0.3733204732384346,
                -0.11215320440078176,
                0.1711788263894019,
                0.24613965440648736,
                -0.16652350773613553,
                -0.12603362012561573,
                -0.3688760951642404,
                0.1901512746877698,
                0.4516037538051044,
                -0.0855223122867821,
                -0.1866850522895692
            ],
            [
                0.3145871412509409,
                0.4426696849518381,
                0.0962555493211537,
                -0.16093741735953318,
                -0.3078875756822912,
                0.0458530199374275,
                -0.17211258250302794,
                -0.23256627219174744,
                0.11963140487616317,
                -0.34550210496869366,
                0.4647848605451799,
                0.1269497976896933,
                0.2552146023395278,
                0.07609830755029932,
                0.29882394002396245,
                -0.12004365341981511,
                0.4273457341682843,
                -0.16008653067913522,
                0.23280219754219414,
                0.24497041447755377,
                0.15658252957945187,
                -0.18082911622716957,
                0.006022465165309421,
                0.24230501914438698,
                -0.28344711933040645,
                -0.29063116066990824,
                -0.04071706759932553,
                -0.38635602232428007,
                0.2535889223465597,
                0.4713944218003873,
                -0.13603931161753802,
                -0.17063261291761397
            ],
            [
                -0.07327311947603411,
                -0.485940908899741,
                -0.15279784748479364,
                0.429226602433326,
                0.11328937723628345,
                0.21167173526168054,
                -0.37017225010282745,
                0.4341240241240994,
                0.2520640665450323,
                0.06530459094866245,
                -0.2582173550756316,
                -0.05507519169279947,
                -0.17075410534892446,
                -0.538311533114516,
                -0.10095233112410423,
                0.5801359087997063,
                -0.5126897997079096,
                0.3738434765223996,
                -0.46911409508513596,
                -0.39844453512506217,
                -0.5131610011628321,
                -0.13506649479879965,
                0.09588497093137847,
                -0.2720819268262125,
                -0.057143056653689274,
                0.21359011492475705,
                -0.24886612563129806,
                0.4427488041205983,
                -0.45729502556196366,
                -0.5399908665239528,
                0.1880665954321096,
                0.14858926119108726
            ],
            [
                0.16458886169066814,
                0.27084298347609015,
                -0.12827060601662094,
                0.17936254477737507,
                -0.2549711159460673,
                0.3055157164028553,
                0.11315002341310706,
                -0.2882735700183963,
                -0.1502153290636448,
                -0.019537990807356298,
                -0.21196557843571864,
                0.08304475104217345,
                0.10067071636155904,
                0.04539209809880208,
                -0.10355023591712319,
                0.1983853802292272,
                0.13507114248108934,
                0.15007879847647893,
                0.19238256820732036,
                -0.22096757375879353,
                0.2029090351973694,
                -0.21026979510311328,
                -0.18281990375624624,
                0.0005578672517727009,
                -0.12995959296358597,
                -0.0658767798936844,
                0.08417421780287007,
                0.2590613723236865,
                -0.13979395831008692,
                0.28726817361120327,
                -0.17512649433485555,
                0.04151026562519708
            ],
            [
                -0.28732161410792734,
                0.1561804855790511,
                -0.05930610535071396,
                0.22329231955997156,
                -0.04445223618289379,
                0.07669737653743809,
                0.28050442080221477,
                0.11213929079675283,
                0.2612943552215273,
                -0.23266347586772956,
                0.07455212913085175,
                -0.06464471262095632,
                0.15091943048676054,
                -0.2476475693177672,
                0.1515877421691466,
                -0.04389961245464436,
                0.16497169696920913,
                -0.2579428055290555,
                -0.23375210728178317,
                0.08571713380657904,
                -0.2522820386597593,
                -0.2591445845758429,
                -0.3272916963947562,
                -0.18398044262941968,
                -0.09310426021976505,
                0.06379130681333879,
                -0.02753354093688995,
                -0.13781824880953328,
                -0.10421322043159928,
                0.31073365270038683,
                0.0754882097053105,
                0.11100093037726198
            ],
            [
                -0.15629911217885434,
                -0.08516434225137261,
                -0.05282515095727207,
                -0.017331252033792845,
                0.34535904883886126,
                -0.19741249941149489,
                -0.2159135244067039,
                -0.05884548177340176,
                -0.0031920133498311606,
                -0.002925027404235596,
                -0.3066249178357688,
                -0.07763017600903936,
                -0.42673547881467705,
                -0.05872430460576166,
                -0.2021727521329075,
                0.35094915410876604,
                -0.04428892059955237,
                0.2622999145944822,
                -0.19305069205531855,
                0.1200881861717904,
                -0.4491965477437951,
                0.15231162145807625,
                0.24367688115044506,
                0.009388157415474323,
                0.14529563241203794,
                -0.14572300185300066,
                0.004203320337145608,
                0.38572578976634514,
                -0.4105099219959925,
                -0.04909267238387292,
                0.32729535697385903,
                -0.25025380742321823
            ],
            [
                -0.07740561742202631,
                0.1105276335443595,
                -0.012041829700979138,
                -0.11299633527405455,
                0.17869145311213613,
                -0.0766552294280685,
                -0.31162041368549254,
                0.3093734127879375,
                0.0036946069358404867,
                0.24818320990105816,
                0.06388801550895018,
                0.2725352769043952,
                -0.10364154954807642,
                -0.21646521600414625,
                -0.152892278625705,
                0.25886624057246277,
                -0.2493644709558995,
                0.00775192883892069,
                0.09712650546740212,
                0.1497947931522756,
                -0.27677647597973787,
                -0.23000359346935245,
                0.18845370425765567,
                0.1822903591911253,
                -0.08847877536505871,
                -0.2652435890083939,
                -0.11896000982999685,
                0.0803172171220506,
                -0.06489251531651263,
                0.17417474701314006,
                0.08017617047179133,
                0.255912093820331
            ],
            [
                0.20435540292185467,
                0.13523017912959223,
                -0.19067985528434123,
                -0.19837107400043597,
                -0.3717972260060298,
                0.06849213896060873,
                0.21682984236885974,
                0.06906207173275662,
                0.006868067680679394,
                -0.35488594557026526,
                0.35822361806365854,
                0.1601280562558961,
                0.3733150054629962,
                0.34685332264263835,
                0.0309782521605825,
                -0.3751517276560086,
                0.5247195059946975,
                -0.5605028055896135,
                0.06340145413968278,
                -0.13517032592269848,
                0.11209769387107676,
                -0.04644041939034978,
                -0.09197116616871538,
                0.1854457796754283,
                -0.16332619718703037,
                -0.11687383406438209,
                -0.3145417782707919,
                -0.3490591865002386,
                0.3874238887688593,
                0.462462547985816,
                -0.33779225398818347,
                0.1422546095896319
            ],
            [
                -0.04541899110653158,
                -0.11783363339127613,
                -0.14827033035767612,
                -0.19651767504036896,
                0.22235899319086264,
                -0.17863771511049206,
                -0.14320140302632728,
                0.20060979712103522,
                -0.26635726146736516,
                -0.08317169406836113,
                0.23859476882098887,
                0.14695176811185293,
                0.2904148408282674,
                -0.1406867005966697,
                -0.15369398021287015,
                -0.2753815686916972,
                0.4429168483794196,
                -0.058813606381280116,
                -0.022747943721297795,
                -0.2100239433540749,
                0.26648614554371947,
                0.19860786194640062,
                0.03614495870617879,
                0.22115315329111263,
                0.15135134464968894,
                0.14592334692163483,
                0.27545606433960707,
                -0.10933899944859364,
                0.340237508956074,
                0.21469083994335242,
                -0.3465713991215601,
                -0.13772649170220777
            ],
            [
                0.07407238574833401,
                0.1708928126541726,
                -0.0254225888358684,
                0.28916261680987915,
                0.15747718518702908,
                0.19861580077933902,
                -0.09431408016249418,
                0.12298867475116255,
                0.10997437080147324,
                0.023577072593174177,
                -0.14973448082001906,
                -0.03520907888515178,
                -0.1572730246594765,
                -0.2524698147937549,
                -0.02576780486428901,
                -0.13062388761035346,
                -0.21907518606097004,
                0.10607633516525965,
                -0.2228937102001242,
                -0.3061711037708143,
                -0.04948345960020413,
                -0.01254629122411068,
                0.2053280029315555,
                -0.0430536780143134,
                -0.14313105620561356,
                0.12024900006854868,
                0.10469244875835187,
                -0.19754152087600665,
                0.21913111077847597,
                -0.25627884293584147,
                0.24196208387376394,
                -0.16121874235228487
            ],
            [
                -0.3804278421896505,
                -0.20202654651850568,
                0.01179533443919514,
                0.2431173897530472,
                0.028044415209857818,
                -0.14853956648018513,
                0.1723090400476953,
                0.2680463760348171,
                -0.04965069116713896,
                0.20513386848444315,
                -0.07818761818413035,
                0.2507859542313851,
                -0.2471574938627208,
                -0.18862132061308112,
                -0.0314035703298799,
                0.3691238437660016,
                -0.3016775535130398,
                0.32522569070926616,
                0.20284221130950716,
                -0.21228783860845984,
                -0.33969403607689586,
                -0.35791130099417356,
                -0.12125580402151274,
                -0.3298747429873437,
                -0.1647024963457332,
                0.04857322330442164,
                -0.27473860236328157,
                0.3063771926652597,
                0.05865150547100431,
                -0.36655454260396214,
                0.34161352013850094,
                0.24853057484871918
            ],
            [
                -0.19672977469870534,
                -0.21730615818760984,
                -0.41248162635718805,
                0.4255841175095299,
                0.3264940286259501,
                0.1937661308918037,
                -0.31428308814422207,
                0.18811697408242314,
                0.3431039205952057,
                0.4588918547835021,
                -0.22273423812666618,
                0.32085503621508416,
                -0.11708878582427482,
                -0.2565008492782906,
                -0.33841278371456457,
                0.456943364808868,
                -0.44431371410393045,
                0.6027263759278292,
                -0.2614153837590755,
                0.028798266317729675,
                -0.47377903210323985,
                -0.13279896925282914,
                0.33505511064588533,
                0.0773518730611318,
                0.3398562266938484,
                0.12941037779053163,
                0.09834577002661009,
                0.5265724298078994,
                -0.1531896823827743,
                -0.5506095108059509,
                0.4772268561180006,
                -0.2188783863616393
            ],
            [
                -0.1899541628794418,
                -0.024648478853739494,
                0.06066257304936803,
                0.07011240172308307,
                0.34345284410729787,
                -0.15738225306887407,
                -0.11810335164695676,
                0.32265698902930473,
                -0.07437455371793276,
                0.04935651714614541,
                -0.26815591073156864,
                -0.024956295723314807,
                -0.30704574806851836,
                -0.18477145463083489,
                -0.2564944944639555,
                -0.1759524032346484,
                -0.22215728992300782,
                -0.19829408981010158,
                0.14334916470460748,
                -0.18517620622828046,
                0.03310209229645258,
                0.03894300519357112,
                0.28494703193027265,
                0.12331395166038574,
                -0.26349305057923667,
                0.005487831205509839,
                0.2788178538207673,
                -0.014830576048820949,
                -0.03079552307217619,
                -0.19085825618342714,
                0.17234527357781623,
                0.06855251166071966
            ],
            [
                -0.09127645367047789,
                -0.3102028069602919,
                -0.21214569343204148,
                0.20011774308858676,
                0.09247627184167567,
                0.035696734024990406,
                0.2171520103737069,
                -0.2602683676000853,
                -0.04935493307742851,
                -0.15536984114104385,
                -0.17651566645554845,
                0.03674055314644103,
                -0.11976898576196794,
                -0.003805880752676296,
                0.22048632110234018,
                -0.2788642547822158,
                -0.2492201884109599,
                -0.24067907815639095,
                -0.17172207708571793,
                -0.10923797953035969,
                -0.0528754901525201,
                -0.14556256972835172,
                0.12119278416765873,
                -0.22652644934573243,
                -0.2752250093553504,
                -0.2379007697193483,
                -0.20660983996478685,
                0.18891378043744095,
                0.22778753220747125,
                -0.001662139427455025,
                -0.1851535943133131,
                0.2580021676461072
            ],
            [
                -0.21893657702570396,
                0.12928557381384348,
                -0.22241549087149698,
                -0.14415378936570536,
                -0.23278659630513446,
                0.030429537322138128,
                0.04697357402854763,
                -0.26848546618800284,
                0.3107853365439171,
                0.18694119152432095,
                -0.3243497786191746,
