{
    "layers": [
        {
            "size": 30,
            "activation": null,
            "initializer": null
        },
        {
            "size": 32,
            "activation": "sigmoid",
            "initializer": "xavierUniform"
        },
        {
            "size": 32,
            "activation": "sigmoid",
            "initializer": "xavierUniform"
        },
        {
            "size": 32,
            "activation": "sigmoid",
            "initializer": "xavierUniform"
        },
        {
            "size": 2,
            "activation": "softmax",
            "initializer": null
        }
    ],
    "weights": [
        [
            [
                0.15772769303371273,
                0.48191919418274975,
                -0.203083267342236,
                0.2321646926235346,
                -0.2503280602392452,
                -0.24964263504490827,
                0.1259090388256894,
                0.2781720299914656,
                0.5051365331518338,
                0.31143866644604806,
                0.2808828934054434,
                -0.11064991223150279,
                -0.17745864519320678,
                0.01280138475940832,
                -0.4421565109922696,
                -0.07995500140921318,
                0.019282020726165215,
                0.26824035538553953,
                0.15926273743432465,
                -0.13726798711133498,
                -0.16433198398964347,
                -0.5575726421627545,
                0.2750338229608949,
                0.2287217172270386,
                -0.24532022943726317,
                0.17377601348285251,
                -0.06490542170484756,
                0.24299804073728,
                -0.12131023222817218,
                0.12194389783521709,
                0.373384754038597,
                0.12929435026830033
            ],
            [
                0.19259560727652142,
                -0.2830953998920903,
                0.3099208151478746,
                0.5022066439553885,
                -0.0492037170558258,
                -0.20608646122894217,
                0.26224344793224563,
                0.06479928555063263,
                -0.10020119147668147,
                0.055415000813063685,
                0.3158488849992873,
                -0.08215277278119133,
                -0.007449099007612398,
                -0.027085978055792836,
                -0.23114488707239192,
                -0.10164018020460859,
                0.11028919756485155,
                0.03713059498364686,
                0.11186146227359976,
                0.013367624942321028,
                -0.1625719892014811,
                0.05975100285991087,
                0.37428529657143533,
                -0.06993115310788753,
                -0.23943471155088406,
                0.005389994332914469,
                0.39207000210261367,
                -0.20537239833987597,
                0.05189459524932567,
                -0.03653141755220828,
                0.23458072877099226,
                -0.3372536561304377
            ],
            [
                0.12054432951165654,
                0.250491463968195,
                -0.1416908404500576,
                0.22317230367185392,
                0.2593641537942888,
                0.27522096498435195,
                0.10476458555821462,
                -0.3231602670700649,
                -0.17243422634060368,
                -0.166760480275999,
                0.2741494769250818,
                -0.10063702907165276,
                0.4322255027822563,
                0.22906126106952132,
                -0.2225553630915259,
                0.12087095326097129,
                -0.2917499290272084,
                -0.36481859205608985,
                0.11044814572815194,
                -0.125445714173027,
                -0.025022143727510625,
                -0.04848132492846346,
                0.40392056500718043,
                0.15205520035303774,
                0.1433439151238534,
                0.3758153143525995,
                0.031847647451063735,
                -0.17273752905821999,
                0.10538331687762532,
                0.1466768128400808,
                0.0036736568825520215,
                -0.14090099075777002
            ],
            [
                0.4783871000175321,
                -0.013301660737356941,
                0.014062847610153266,
                0.11755032653018346,
                0.16340734054600164,
                0.020436565471833475,
                0.2992968344970458,
                -0.2926154416632002,
                -0.3223800982187631,
                -0.23350187742617326,
                0.37559975322068617,
                -0.49344184883814557,
                0.1922252287913286,
                0.15403286812379038,
                0.07339083251309955,
                0.16808023164036906,
                -0.05567508314495429,
                0.4683228187083087,
                -0.14089162437804112,
                -0.11873553983874313,
                -0.07456035080816337,
                -0.15682009373313938,
                0.03559394774541412,
                0.16697822686232422,
                -0.1577003183182924,
                0.19540272986067456,
                -0.11834751555602725,
                0.11091383624028094,
                0.13975972998949382,
                -0.042818601752613136,
                -0.05642611062629947,
                -0.11193632733183208
            ],
            [
                0.1899539905548917,
                0.19841033448634085,
                -0.111891629896697,
                0.33325548639264563,
                -0.20873168726750677,
                -0.143762437458173,
                0.008288424145521505,
                -0.03015247592111581,
                -0.07886892089964445,
                -0.1443485435721797,
                0.18787548186363578,
                -0.11062943742348841,
                0.045059129220257406,
                -0.32429861748941474,
                -0.06272553344486108,
                -0.03273976688182352,
                0.254736521157447,
                -0.023369187187199544,
                0.0017440643936550426,
                0.18168729983230564,
                -0.2846396186946858,
                0.23308598725525928,
                -0.11294482513894094,
                -0.056762721386878066,
                0.3349222087609506,
                0.02163016883939411,
                -0.06926898639018182,
                0.07673706443946664,
                -0.28505701053701227,
                0.19999961060351765,
                -0.12983720186418685,
                -0.08024485658512844
            ],
            [
                -0.26790519288146347,
                0.08912008256155868,
                -0.16091047703544498,
                0.12414083780272682,
                0.05335772485496593,
                -0.06114530961455974,
                -0.29263389438612053,
                -0.05003002200547604,
                0.11436677989128798,
                0.2979789448621272,
                -0.14536543507711827,
                -0.2289898042469421,
                0.14134761621215966,
                -0.0690421463463495,
                0.044857869774910825,
                -0.11150952945937333,
                0.058088333443513565,
                0.18227951967666742,
                -0.09574226718334428,
                0.006954392771734897,
                0.015014150887424369,
                0.09883302719289862,
                0.455222029552794,
                -0.29827785836644216,
                -0.05751211658359241,
                0.2897214727991951,
                -0.2563262297900777,
                -0.21429203858506296,
                0.2985487911978239,
                0.07786380041636895,
                -0.05064183552184816,
                -0.11709222724821669
            ],
            [
                0.4842099858837134,
                0.3483906690504896,
                -0.4502169888287922,
                0.2968542061518794,
                -0.12639629239337316,
                -0.20520377037472443,
                -0.030562715394666283,
                0.17757894132250818,
                -0.2536129600902425,
                -0.24466758020338245,
                0.02150211255985344,
                0.07374876699720366,
                0.07950103750435401,
                0.16362373370022615,
                0.02049649777427868,
                -0.006064847577952202,
                -0.2400415170251154,
                0.18674467043000606,
                0.37509055940593816,
                -0.2867290292409076,
                -0.01782203213704469,
                -0.25663336902483563,
                0.3016022243514258,
                0.5289800255142288,
                -0.06300109310222855,
                0.013960891616946925,
                0.14026885647929685,
                -0.1798515992595529,
                -0.041627598120752805,
                -0.05518216719911063,
                0.23647707078249194,
                0.331199843263062
            ],
            [
                0.3984371158701033,
                0.0049957323749396584,
                0.013465072744429936,
                -0.05037850861456025,
                -0.040481109838769076,
                -0.30718091964813915,
                -0.2834460428842275,
                -0.15204220666469453,
                -0.06878609323974283,
                -0.12091482084492125,
                0.07305924155316916,
                -0.2766262813821154,
                0.263351325089803,
                -0.5348907882826738,
                -0.45510364544810267,
                0.04843830259464561,
                -0.31430037183167314,
                0.20397420074491024,
                0.38737010536938826,
                -0.5183987234797217,
                -0.4538331446415231,
                0.20091119272687125,
                0.11777859087111134,
                0.3915913783129021,
                -0.12686474405460732,
                0.24495037576404624,
                0.2677663850028497,
                0.11268439905872912,
                0.1998681012809171,
                0.2716014088068837,
                0.2884594491565776,
                -0.2635423326711861
            ],
            [
                -0.03817365662646984,
                0.0736821837766039,
                0.18697021401941616,
                0.0008394669427158488,
                -0.15121899253173723,
                0.27099221131176143,
                0.12068462354067827,
                0.2853535146030869,
                0.06558092095696363,
                0.10334395583211921,
                0.23711701495689533,
                -0.1449206490260571,
                0.13807244699147606,
                0.21393650145817492,
                -0.1540094582890066,
                -0.19009605527794995,
                -0.1593428405719618,
                -0.2712900720747968,
                0.19613713198483312,
                0.010111383168573204,
                0.17558824039523926,
                -0.2372394133341024,
                -0.14532176796647434,
                0.15412673354509512,
                -0.0880129961626564,
                0.08866324895672502,
                -0.04500699799050946,
                -0.15362515727600373,
                -0.18626032656744337,
                0.14486230064345426,
                0.09826850381357691,
                0.05911471943568733
            ],
            [
                -0.2696976155175599,
                0.17875398749211954,
                0.07015167881884833,
                0.0858008853487541,
                0.25587301536089024,
                0.2000398105452759,
                -0.05769861936862301,
                0.18702248120833959,
                -0.1526433273743393,
                -0.05599710839512936,
                -0.2205266323133344,
                0.1308341798842628,
                -0.3563040193992311,
                -0.04574425951919116,
                0.29297130553852646,
                0.17145340760421182,
                0.23727854915435184,
                -0.10640443093966032,
                0.19230465157862384,
                0.07237846771405908,
                0.17114358509026464,
                0.21223454653166612,
                -0.16716610968937876,
                -0.20072939171854703,
                0.28950445524139745,
                -0.4409622305387992,
                0.3098145084557519,
                -0.1612531180281299,
                0.12443400745572518,
                -0.29276898649357264,
                -0.05099956640152768,
                -0.25050332252810387
            ],
            [
                0.1684699808293355,
                0.09033955649087769,
                -0.20617255921395367,
                0.32390389219826216,
                0.6215136561285494,
                -0.1032875117685177,
                0.2935273729012503,
                0.10657158955809687,
                -0.06292001467991493,
                0.03464279498413081,
                0.23878804088451358,
                -0.3123222485613592,
                0.3732729887296509,
                -0.15885153442229097,
                -0.4385913094713338,
                0.18602827927853627,
                -0.09450593191481639,
                -0.08642283498320476,
                0.17028762884498952,
                -0.1109698008840099,
                -0.18628465770638267,
                -0.2796757851474991,
                0.13514404440641853,
                -0.2402386209332456,
                -0.10134497244057739,
                0.6129695978399777,
                0.10937643529043521,
                -0.1267946574517351,
                0.09707599025748845,
                0.05499586074496242,
                0.3539519432914421,
                -0.11374974565624617
            ],
            [
                -0.11001064032727696,
                -0.25902002241219485,
                0.1432387219513619,
                -0.13747861887209642,
                -0.1700758436378829,
                -0.11970677722014268,
                0.4128614682373959,
                0.22398509327229957,
                0.11724418144345859,
                0.17605088718228828,
                0.13923875523082188,
                -0.0215732329562114,
                -0.05227883110393273,
                0.34442138308285786,
                0.21083292300890613,
                0.20518618618070542,
                0.09526893834903985,
                0.13568766903282112,
                0.090766030698656,
                0.26573948129853653,
                -0.10957838563757583,
                0.002324533703235338,
                0.1708137510907134,
                -0.09110140034999363,
                0.09844246490760697,
                0.005712556119626355,
                0.15636881669340152,
                -0.22202842345568946,
                -0.08640382234175582,
                -0.24747917246369394,
                -0.42845659350844023,
                0.15167435495882634
            ],
            [
                -0.030016854936193736,
                0.14151886703170913,
                -0.06945597212099712,
                0.5329967966881779,
                0.1134603003457505,
                -0.37816288144478577,
                -0.23901559615023363,
                0.10409554567473023,
                -0.4073239410775061,
                -0.1282220967262917,
                0.19674312972767893,
                -0.16031351249623757,
                0.11103714939410803,
                -0.45444843953270614,
                -0.040768936309570236,
                0.01790269390145002,
                -0.31733444123896776,
                0.08054316767544425,
                0.09917338166664022,
                -0.021231356441456854,
                -0.40410712546661365,
                -0.1306262864089081,
                0.2680052387746698,
                0.20153535501185227,
                0.0908383384817851,
                0.043513133326020005,
                0.1657230146986525,
                -0.16843410418568275,
                -0.006134092778683223,
                0.050561519843580725,
                -0.07618007804845756,
                -0.5331953886282713
            ],
            [
                0.6175283072593402,
                -0.36102570257190886,
                -0.19675047547432642,
                0.17038186894047339,
                -0.035874326609670895,
                -0.17010225693405628,
                -0.11986203764441827,
                -0.16054749308193403,
                0.1354964556624406,
                -0.17992230514766286,
                0.42652888765921887,
                -0.14143987880756598,
                0.09891893618159205,
                -0.0637950089013508,
                -0.42010257619214186,
                0.31507782422401215,
                -0.47118656524225877,
                -0.02561052671554709,
                0.22055727395046149,
                0.3058365405454914,
                -0.30980896619560017,
                -0.18012947701177412,
                0.25643752471187403,
                0.2336354781109513,
                -0.29428779757858137,
                0.15765390382794375,
                -0.007774751494089876,
                -0.06398539643510143,
                -0.33638339005518064,
                -0.17119704515894485,
                0.2444114291930905,
                -0.14633906496098806
            ],
            [
                0.09636786643935787,
                -0.1559040957665775,
                -0.046527454243916924,
                0.028787132924934435,
                -0.21579272678591935,
                0.2171823027273983,
                -0.10180733206287398,
                0.11834795359579064,
                -0.14913395233003843,
                0.1447596615596948,
                0.07797763635536553,
                0.03998634496732483,
                0.07405787297741608,
                0.10442314598584836,
                -0.07581655293533732,
                0.4272213171324866,
                -0.16862114175049836,
                -0.34099799511748813,
                -0.001345159914336299,
                -0.11996506581259925,
                -0.10171076024446446,
                -0.06950890158361779,
                0.004168910125700883,
                0.029874083901133372,
                -0.2511931980514551,
                0.16495062102363836,
                0.02057379951724698,
                -0.04225988733141538,
                -0.21327943644228414,
                0.18692689537156507,
                0.4118796216415736,
                -0.08206265693248757
            ],
            [
                -0.38323070665692943,
                -0.16298639170510038,
                -0.22804828899561586,
                -0.032397605371540815,
                -0.23426109059124942,
                0.4624448906022465,
                -0.16483485227946126,
                -0.0340879145500326,
                -0.09825129018303144,
                0.0284694710663629,
                -0.036901250753002164,
                0.2615985658631734,
                -0.15578413739271524,
                0.2020208252642799,
                0.06754691662455671,
                -0.18615057808807614,
                -0.1711188085519218,
                -0.010714090828675617,
                -0.1631917445539726,
                0.23165517390321425,
                0.18062702808979175,
                0.19788035900295217,
                0.0768789030703047,
                0.10266732325963024,
                0.03563896048165992,
                -0.1955829688120752,
                -0.07969337299372314,
                0.31864556735046967,
                -0.10852300510793972,
                -0.28475428758978505,
                -0.41713755833145794,
                0.23120268851352815
            ],
            [
                -0.08278469684633821,
                -0.07472320343785718,
                0.07717452948270286,
                0.2011860937564703,
                0.14208193207107073,
                -0.17201331881934193,
                -0.10431883439827065,
                0.032492890162602685,
                0.25134449412509224,
                0.606101275614672,
                -0.0029837466088919835,
                -0.07032952021921528,
                -0.21025207415865987,
                -0.1161558006528228,
                0.003112525087732759,
                0.17526595992741884,
                -0.23779432090604485,
                -0.14419133788457653,
                0.032426546931098796,
                -0.22318044231639822,
                0.07383735606277793,
                0.24489100961926438,
                -0.11533259781120628,
                -0.004733523543994941,
                -0.11210118842250527,
                -0.09795882405243281,
                0.10424413389654391,
                -0.15531257901792472,
                -0.09727986714211136,
                0.2751063758116025,
                0.07069908233028577,
                -0.19883453567238632
            ],
            [
                0.25210423134537874,
                0.19676552175845985,
                0.18600448529631594,
                -0.22296623144282954,
                -0.030108488264181773,
                -0.33441546297868247,
                0.41483397773983643,
                0.33318743691386,
                -0.07556575039478032,
                -0.1348453040800871,
                -0.38399734965260246,
                -0.20548773822468916,
                0.1805286075615977,
                0.06558855476290935,
                -0.2367415281790026,
                -0.22542949818763414,
                0.48663596274917814,
                -0.23567841679936413,
                0.03434653122839526,
                0.08038771314402376,
                -0.22096609379712517,
                -0.4197329194048534,
                -0.17596078809780452,
                0.12148276816248987,
                0.07169048460634,
                0.128661189840805,
                0.21020996215524482,
                -0.21969288128795003,
                -0.0708734970805817,
                -0.04056240073528433,
                -0.08167096881234633,
                0.1388442110061044
            ],
            [
                0.01980280537710646,
                0.03169143813493679,
                0.043090771035515764,
                -0.07685230320587076,
                -0.06675733622338624,
                -0.10226787813920249,
                -0.06863814363317909,
                -0.03879866088734171,
                0.08017986743377392,
                0.2362162505501682,
                -0.029524834577007223,
                -0.13206571594772806,
                -0.0886565644125722,
                0.07510642718278536,
                -0.18482611267749666,
                -0.05433665226650998,
                0.209826760280145,
                0.015360061450243054,
                -0.1802241231191562,
                0.009796858574812675,
                0.49787876412455706,
                -0.09623066417154799,
                -0.01828518739635964,
                0.2611019856430096,
                0.5057468375032195,
                -0.056016626560993966,
                0.1333626879509952,
                0.05307546675538435,
                -0.05954760220978119,
                -0.22236621581666255,
                -0.09106614762522092,
                -0.1487247613107009
            ],
            [
                -0.3021260640653057,
                0.14296604849747355,
                -0.04274586526162362,
                -0.19775101734358547,
                -0.31607221973078964,
                0.4250926180052879,
                -0.09746919345892918,
                0.05564244074630439,
                0.3044712136539667,
                -0.0011581235834101312,
                -0.0576090995702198,
                -0.16302680187277505,
                -0.010757890372581487,
                0.3120756423581511,
                0.41397207159625876,
                -0.05108822788598187,
                -0.04887597200369632,
                -0.06104711649792145,
                -0.2341128887356098,
                0.35360978818021954,
                0.3594132578380524,
                0.20820860941915814,
                -0.3102109411636572,
                -0.0959448451139655,
                0.11382680443035022,
                -0.06921394827898729,
                -0.08418620706145673,
                0.04714039786082389,
                0.027282396372159685,
                0.058528728460949975,
                -0.19405706010772286,
                -0.09023608883762439
            ],
            [
                0.1851101145308823,
                0.32217312760223565,
                -0.012198846413868331,
                0.4130546817023574,
                0.2778531222013478,
                -0.31266176158828174,
                0.07148143627668146,
                -0.5057257945479561,
                -0.33522345466295916,
                -0.17401938382645582,
                0.0032832015988372015,
                -0.17849985932689216,
                0.09227050077770325,
                -0.10093936792836321,
                0.19982464847202008,
                0.10307740331358167,
                -0.12461799104799491,
                -0.10508742553161701,
                0.36285559057898203,
                -0.20628182457316233,
                -0.17435213157818927,
                -0.3769730063387457,
                0.20374057310168348,
                0.2887932261089758,
                -0.04485589367199187,
                0.2763868011090804,
                -0.1805935853967277,
                -0.12293093614052027,
                -0.05762656324655696,
                0.10912690838813145,
                0.3546930418883788,
                -0.4537924096630687
            ],
            [
                0.31498091542914786,
                -0.3200365064684096,
                0.05035101820535458,
                0.047928173234252906,
                0.17099554759750069,
                -0.657116051822457,
                0.11439474684059317,
                -0.5446833172312326,
                -0.2798146367645924,
                -0.014889363171609082,
                0.2365609303101189,
                0.13599411326876887,
                0.0851122352296147,
                -0.2539385774443886,
                -0.5901924536874142,
                -0.371610797178554,
                -0.6419787476570499,
                -0.017355499007163645,
                0.424274717882761,
                -0.2992243679124688,
                -0.04848505379856293,
                -0.5180545860764026,
                0.047437333915707404,
                0.3908042440964296,
                -0.08906527585401473,
                -0.03733932951489115,
                0.14418676437457184,
                -0.3406542248396193,
                0.10513897060471229,
                0.26496978043912217,
                0.8062029300295179,
                -0.14928107852768788
            ],
            [
                0.1917740580147096,
                -0.34136841026082093,
                -0.05095549548756486,
                0.16865745291317996,
                0.07615808555546028,
                -0.28551834106259694,
                0.2073868463494307,
                -0.2605867556481674,
                -0.5206300837810749,
                -0.25732771987155084,
                -0.17947900709630507,
                0.27260400087795006,
                -0.16456814559559105,
                -0.23456495870904595,
                0.07687888918656477,
                0.09224816452891846,
                -0.01823780208849135,
                0.12523348298853942,
                0.01290089767673473,
                -0.205418403868553,
                -0.2029615507349836,
                -0.2548409481965408,
                0.19336435103008467,
                0.19376524992040484,
                -0.13652897850755327,
                0.2130469759900809,
                -0.06077014519100069,
                -0.17031139339600387,
                -0.03082660683431461,
                0.2476112141614858,
                0.6544711371468159,
                0.08789225939749895
            ],
            [
                -0.16123160832387465,
                -0.0281521350033791,
                0.30324221660171835,
                0.2859855386880342,
                -0.10988729699858171,
                -0.3286806810833763,
                -0.030286601628781776,
                -0.009364712929196528,
                -0.39762708313062545,
                0.20114025935489807,
                0.3684552258882723,
                -0.2918207492076767,
                0.4489084603263006,
                -0.05178363030217595,
                -0.5155585466504284,
                0.13953183258646593,
                -0.5875467012999595,
                0.11437714413969073,
                0.4517860668465828,
                -0.2745606379635498,
                -0.05087107147778063,
                0.003526037678529717,
                -0.1550139057620006,
                0.0013694866037585083,
                -0.4842694520321975,
                -0.16820382238016646,
                0.00028576434152606143,
                -0.4715893816023366,
                -0.03980353783091155,
                0.038403621149391866,
                0.3361623569297077,
                -0.49170436321174144
            ],
            [
                0.31988682128982293,
                0.0005123021493765224,
                0.30356305782097237,
                0.26008519164880123,
                0.0451538887656617,
                -0.5724574678112291,
                -0.13086220212086058,
                -0.3108064713461135,
                -0.1843384018879624,
                0.008320519922990911,
                0.05976677260100868,
                -0.3765879199065212,
                -0.09337218178357277,
                -0.09321136353957904,
                -0.6258458674707841,
                -0.18155293429407607,
                -0.054280797379303046,
                0.010756659490058893,
                0.2688930942530681,
                -0.3225703569957245,
                -0.19353041218782424,
                -0.35288440320960746,
                -0.4275241959987662,
                0.5113753703494462,
                -0.19821742318533972,
                0.1620087833899032,
                0.1745686892522608,
                -0.28125643049131155,
                0.1069749516309723,
                -0.09603582117765937,
                0.5167961833449479,
                -0.24918581879575974
            ],
            [
                -0.01710848300961299,
                -0.2991041295360565,
                0.28561749936159886,
                -0.11130512495938913,
                0.32882622202227973,
                0.20948582798909177,
                0.3419534713447217,
                -0.15308264014780382,
                -0.23316791721376606,
                -0.2732675911123083,
                -0.3077918774609555,
                0.30031581095831944,
                -0.06962648433965547,
                -0.08846710550809384,
                0.042414656835935295,
                0.0743377444556663,
                0.21317243320235937,
                -0.011659573034197093,
                -0.05808012740493958,
                -0.1664572915769014,
                0.047010330366267054,
                0.06178341658620782,
                0.18225546379063037,
                -0.009253168794963226,
                0.054839732121649706,
                0.07738838649894626,
                0.21863194406890682,
                -0.07856840495006011,
                0.11374435814756713,
                0.03345609459630509,
                0.12528548971757908,
                -0.34549353981504943
            ],
            [
                0.12211961643640828,
                -0.38916451689135667,
                0.34351814871628134,
                0.1526303259090593,
                0.08990386188145494,
                -0.4102308795299923,
                0.39252943293990195,
                -0.21245692348185036,
                0.05548487525095716,
                -0.02215278123412409,
                0.308754696789444,
                -0.26735971606731795,
                0.4167352068083498,
                -0.09568814811075285,
                0.08177732963402895,
                0.20836362253109397,
                -0.1736061871958903,
                -0.05024988129699401,
                0.22773030304777123,
                -0.0910139005809043,
                -0.3097586448220458,
                -0.13361473134784865,
                0.3730133015400862,
                -0.026214715643547652,
                0.25651927483363446,
                0.4004145118155616,
                0.16164605363018317,
                0.01843170455888858,
                -0.023628338303656436,
                -0.3779226306850676,
                0.23594127624852865,
                -0.03186834238419301
            ],
            [
                0.24537366157456258,
                0.02067209792727465,
                0.13805391746008686,
                -0.08552696005026601,
                0.13228059193384775,
                -0.23411674113023018,
                -0.034635936554185134,
                -0.2894651613553678,
                -0.18801501574607266,
                0.11857996029822206,
                0.33535459126211775,
                -0.1387928600452028,
                0.05845254472975631,
                -0.04069776953945563,
                -0.416400937069154,
                -0.22651273983002693,
                -0.33053014559522736,
                -0.11683644915857114,
                0.247150958752331,
                -0.2542232167965878,
                -0.5066644520221725,
                -0.05287565160582341,
                0.27191203689584703,
                0.1510520747130611,
                -0.12512667166572214,
                0.15147255110281493,
                -0.03342514178108932,
                -0.17712371623189982,
                -0.08272349487462076,
                0.24697525702020165,
                0.1556105067612875,
                0.1421333884246694
            ],
            [
                0.3143794055297063,
                -0.3922707456976726,
                0.025818210696462826,
                0.5255580931578342,
                0.10674046288117903,
                -0.40343272329316704,
                -0.13209690221527168,
                -0.6836207583797697,
                -0.17406827241532338,
                -0.05972859166325655,
                0.3692218615832867,
                0.041906485057167424,
                0.2941672178266516,
                -0.4605857809979649,
                -0.08282560221657634,
                -0.10966310243657924,
                -0.13456809757082602,
                0.2018906241830771,
                -0.15254442405859342,
                -0.23571505930303122,
                -0.3454548996127835,
                -0.21433071837681883,
                0.2849483881330229,
                -0.18255657174844,
                -0.14407421547742766,
                0.15957493490694985,
                0.1534257406246131,
                0.04604695600516327,
                0.4062198418446186,
                -0.28659642174348204,
                0.606725157413302,
                0.0851880886294244
            ],
            [
                0.18419784985476237,
                -0.012509919022826077,
                0.28016454816598957,
                0.00523146820456316,
                0.01813367044101851,
                0.4141130212869488,
                0.02899888837018207,
                -0.07652501248098287,
                -0.0015202528911712977,
                -0.19118173486804121,
                0.2551330140231305,
                -0.05870309048186061,
                0.07355554909347954,
                0.19869413572099684,
                -0.04397152135184184,
                -0.07440768647104327,
                -0.05009135657539833,
                0.09531069875460099,
                0.019152991931342844,
                0.014910974677752724,
                0.2828919954766715,
                -0.4553413661862956,
                0.027541310252844963,
                0.19667333890572733,
                -0.09230246291237688,
                0.13925369400698362,
                -0.37404467073675685,
                0.14743715170790225,
                -0.033367329451604866,
                0.02164384424902822,
                -0.20467149344864963,
                0.07916920338851789
            ]
        ],
        [
            [
                -0.37155929185871456,
                -0.4516792187869193,
                -0.4749846099702918,
                -0.1075346185551764,
                -0.15196071533339361,
                0.47116938339184744,
                0.3347371835626736,
                0.07273245887721563,
                0.3104659914013591,
                0.21618416242633695,
                -0.4102966562456725,
                -0.06747390021498383,
                -0.045597196925376685,
                -0.24855686838721922,
                0.42659417286261847,
                -0.4396648674029295,
                0.3302918545613372,
                -0.027057629035625252,
                0.06152244956100563,
                -0.17231402071644436,
                0.12114536068613137,
                -0.16262291629322437,
                -0.40119138945373506,
                0.6029663864696154,
                -0.3778227032061418,
                0.20764797848972594,
                0.27368705354158956,
                0.34110987052928216,
                -0.15606580319960855,
                0.3721691194719267,
                -0.21750035877839266,
                0.15028330408091703
            ],
            [
                -0.0749302407171788,
                0.3218292609644634,
                -0.0816005871563972,
                -0.14461387311154222,
                0.34568069971195703,
                0.1250940928251485,
                0.06583818050331422,
                0.10542414802354055,
                -0.04934122941149903,
                0.10108907686894233,
                -0.021178573814955845,
                -0.14531017815619418,
                0.03131534087922899,
                -0.3103125281591593,
                -0.2088418296309824,
                -0.04471788694353085,
                -0.1925041153075171,
                0.1486250655402839,
                0.15122018121658182,
                0.2341042334035619,
                -0.013643650926533283,
                -0.09277585082141009,
                0.12953023696733518,
                -0.22177617703652816,
                -0.1816440288839261,
                0.17580455997140448,
                0.1473508759950484,
                0.16209600411142985,
                0.02187877295517584,
                0.12565311598505616,
                0.18051685808811743,
                0.05819194764583488
            ],
            [
                -0.3033814448254251,
                -0.13302282940057056,
                0.02108697839839081,
                -0.11360903196405533,
                0.1297486365867314,
                0.31085239100470885,
                -0.2681595573568234,
                0.06162433939763689,
                0.09529370290763338,
                -0.3148428938220031,
                -0.23189299702365454,
                -0.2500669160801598,
                0.22143743499114066,
                0.07892233653008666,
                0.0773928895275138,
                -0.12011665001555755,
                0.013390647714365623,
                0.1316393153888766,
                -0.23901793313338404,
                -0.07396036039863342,
                0.008844047888309609,
                -0.1477710900248372,
                -0.16122147574255963,
                -0.08367128119406025,
                -0.018238278729599555,
                -0.10388439613274883,
                0.22650238159508787,
                0.05775205200425015,
                0.08810967295499375,
                -0.03418895437845504,
                0.18606909945292052,
                0.14047420270955444
            ],
            [
                0.01211460171569677,
                -0.042897247337437806,
                -0.16558343813828164,
                -0.08504122665524354,
                -0.35499637764564373,
                0.3091173196533583,
                0.1567435867704506,
                0.5398649799348894,
                0.07677677254652486,
                0.04998440592722102,
                -0.4945165146011352,
                0.2828723104517863,
                -0.41415832405094627,
                0.2072771064515346,
                0.4042192611883577,
                -0.26170357165673763,
                0.4267667971450204,
                0.15734554542513426,
                0.056279193799357224,
                0.11705755797987438,
                -0.4061113030424963,
                0.08945907054882017,
                -0.015121345654859656,
                0.1743556900657732,
                -0.21719325027247846,
                -0.3285886153790348,
                0.007864364443097339,
                0.5095201484050589,
                0.080480258558957,
                0.3846382570878402,
                -0.36820120257245004,
                -0.22751147865645033
            ],
            [
                -0.11379434173021209,
                -0.2868790463122566,
                0.12068743010338633,
                -0.04500384365224054,
                -0.0107702062036603,
                0.2666478387643374,
                0.2741799381244183,
                -0.052909558158470066,
                0.1360639285483731,
                0.21796844776664456,
                0.2080643738918938,
                0.3289777732551388,
                0.06916362290865385,
                -0.07106200008937341,
                0.21485152495608695,
                0.1364373051225473,
                0.2623830200135797,
                0.16442033482653387,
                0.10255835721875925,
                0.016515982942634403,
                -0.03946607598369689,
                0.19369529295138324,
                -0.1714622800812257,
                0.30176195750528456,
                0.1984688051441887,
                -0.19199322839323676,
                0.10526728158522906,
                -0.17523915351153382,
                0.12792065741653208,
                0.1616724698942066,
                -0.21245562950901617,
                -0.04186837251595883
            ],
            [
                0.1289899938639052,
                0.6119177432596831,
                0.39877352367431745,
                0.19135553427893226,
                -0.0917613092152982,
                -0.17931798238506716,
                -0.017603323935858013,
                -0.49116792602464,
                -0.33759687235378394,
                -0.3150912346987465,
                0.6316821725262294,
                0.03598395676648659,
                0.006135133162779641,
                0.15195871853561924,
                -0.34252754111990874,
                0.4940518233111003,
                -0.6693497984866403,
                0.30699956243646404,
                0.07291853033250302,
                0.2391843621035505,
                0.22023498001732247,
                -0.1738505438108377,
                0.37382015092395854,
                -0.5035950091850845,
                0.01616146657194197,
                0.3139486547920001,
                -0.24855089660357815,
                -0.5245503792254916,
                -0.040633235531127875,
                -0.43341239721662217,
                0.2476128946352102,
                -0.1781243983102192
            ],
            [
                0.22460231080860407,
                -0.21804270585099694,
                -0.018396942907809438,
                -0.2630738457615907,
                -0.1481557592748154,
                0.122472455523649,
                0.14918587398323,
                0.28094588575046353,
                0.2395246396820025,
                -0.10919852980895772,
                0.0882942902899268,
                0.13223697933801676,
                0.2273820898966072,
                0.061326054289007545,
                0.34073215233783766,
                -0.26010181746601324,
                -0.03404866719743814,
                -0.07699424154375051,
                -0.13341264765034846,
                0.11599142669749646,
                0.21549388616695198,
                0.18504983536859626,
                0.22426104064802224,
                0.01983054374152256,
                0.07737139742561142,
                0.1997628925155894,
                0.0039594579559554975,
                0.2702205278233261,
                0.019668799626480438,
                -0.16726122745042635,
                -0.014471886623920746,
                -0.22313706648719994
            ],
            [
                0.19159468467051885,
                0.30361611379117115,
                0.33689144874124394,
                -0.06456117275666703,
                0.2584344587325688,
                -0.1988952574515217,
                0.0015835268798857396,
                -0.34814019730581797,
                -0.31968572356660147,
                -0.02080485745687073,
                0.3304017870406433,
                -0.28755715551619,
                0.38559417659484413,
                0.10529995713362496,
                -0.2052089584237814,
                0.46762280859025707,
                -0.010250521123712029,
                -0.014622008178804508,
                0.07316429127059625,
                0.18350112798471022,
                0.3853013325018482,
                -0.1132371518022238,
                -0.026898035195440078,
                -0.15130958056735455,
                0.01142567308600435,
                -0.18040189273153678,
                -0.36444726907747677,
                0.052822613436162194,
                0.17979032278505436,
                -0.18110701313674626,
                0.12698482490230587,
                0.22288567260018588
            ],
            [
                -0.18435000177410213,
                0.04432494466845188,
                0.2751730672593296,
                0.4030936359057564,
                0.37695884232857746,
                -0.17219421535564033,
                -0.22070398907047212,
                -0.18564738491123195,
                0.21880924129298066,
                -0.2642297995459127,
                0.4801793194995562,
                -0.2957866964097327,
                0.0747765095378536,
                -0.19265751173949086,
                -0.02576414229605164,
                0.46681887107778497,
                -0.48891762013243933,
                0.07917785927132774,
                -0.11652976489731447,
                0.3374690332697776,
                0.13519088649635652,
                -0.2090041931374839,
                0.055496899397830556,
                -0.022399597172548746,
                -0.011837000741858941,
                -0.12287884482284162,
                0.015420591692014223,
                0.10212969279737345,
                0.26673470160451646,
                -0.11057311320146167,
                -0.009422269986601287,
                -0.04387146403579833
            ],
            [
                -0.16700212741326254,
                0.11333442881653741,
                0.04758484990888987,
                -0.20687228083024517,
                -0.07950707019049282,
                -0.16244687810110411,
                0.060810905214787284,
                -0.37588738001666455,
                0.18799368496786217,
                -0.0831676190698291,
                -0.14290387009786776,
                -0.04425074530847305,
                -0.08099115780622816,
                0.13163059057766469,
                -0.14882363747730523,
                -0.11493854935355391,
                0.018534784802820378,
                0.18774315887957702,
                -0.2562172921859655,
                0.015234179056977066,
                0.18838395530633864,
                -0.28641868449317565,
                0.014569600553713003,
                -0.37540752943582006,
                -0.07523336020672351,
                -0.08321284880453289,
                0.16369128664176483,
                -0.2896489283995187,
                -0.2540680213689924,
                0.058078805991057886,
                -0.013022532588446828,
                0.26125838581006017
            ],
            [
                0.1779872350202601,
                -0.18995849712488874,
                -0.2277816647530925,
                -0.33508916212876333,
                -0.36782901924121725,
                0.46341678234409617,
                -0.14819222443448477,
                0.5754071347560133,
                0.28156766832271934,
                0.353475268999472,
                -0.08782234303750491,
                0.34392370046136445,
                -0.045958949457459035,
                0.34333712444543996,
                0.09341538335293996,
                -0.37875267100951565,
                0.07526970458997077,
                -0.11751872930235452,
                0.37186142571984426,
                -0.07970319234475842,
                -0.09430803611125585,
                0.23724711940734886,
                0.10684567431441283,
                0.20148024525215102,
                0.16602902312137938,
                -0.19205837587066274,
                0.21091286924882113,
                0.03215097138187025,
                -0.08761492974823937,
                0.2240546284603675,
                0.08958463021798549,
                -0.10140604905445133
            ],
            [
                0.3330325332621067,
                0.31609686654893726,
                -0.08605784871372818,
                -0.01101020050531383,
                0.23605716011387495,
                -0.17288467314514688,
                -0.10004339809385394,
                -0.2920027688498217,
                -0.19593385055575152,
                0.10564800421537522,
                -0.016249272513018564,
                -0.35497555541187,
                0.10174434124488865,
                0.2681650530510383,
                -0.24908884608409887,
                0.3525329751116409,
                -0.4436793574324068,
                -0.13340903140393354,
                -0.13538926459706793,
                0.09761689112308036,
                -0.051503621063180356,
                0.13373404014189486,
                0.0452359157228588,
                0.022635935596697344,
                0.21092281220043252,
                0.15135337070707833,
                0.05738285594270985,
                -0.14535421834287462,
                0.2774767486091682,
                -0.23414711330768803,
                0.13329947209958126,
                0.08783929338196739
            ],
            [
                0.26134677176165555,
                -0.2439314644193458,
                -0.16803985662626877,
                -0.17599856508584885,
                -0.2864548014029465,
                0.33398248744132875,
                0.18298976184434015,
                0.36579791454319355,
                0.18384116164880723,
                0.2019942061563305,
                -0.31567052034372894,
                0.12599950416072833,
                -0.0914799482212678,
                -0.018650933149676568,
                0.23145083362733954,
                -0.04552279223054412,
                -0.0167329478688512,
                -0.15832402333462545,
                -0.08097815137533461,
                0.20561739028779627,
                -0.21192328318070458,
                0.11469007773284104,
                0.05285398038746364,
                0.34487252613249997,
                -0.13111618194960295,
                0.11586101911662221,
                0.2753879640977357,
                -0.12869876600021155,
                -0.2056345339084702,
                0.24034376799184987,
                -0.18180594164391622,
                0.021286775908018436
            ],
            [
                0.07165968586919952,
                0.4121189393777583,
                0.18217379494456334,
                0.013761900795393646,
                0.3815792641564608,
                -0.111867444531008,
                -0.3523010410365439,
                0.00919837424054144,
                -0.2631592287269256,
                -0.20333132359872425,
                0.0708328454872014,
                -0.34776903889832306,
                -0.018974600493879386,
                -0.2857558680517842,
                -0.0856200684877614,
                0.1693681095758807,
                0.016838316261844687,
                0.22068267348812365,
                -0.003985155586309218,
                0.020239247973574185,
                0.1522417286037284,
                -0.035521262430860075,
                0.15628341140097698,
                -0.004212845570417625,
                0.07150981856622646,
                -0.23799160278146578,
                -0.11479428763523639,
                -0.2418294797781778,
                0.28731360093315733,
                -0.3532893405116161,
                0.045239750328502325,
                0.25458381372692523
            ],
            [
                0.16065222147521058,
                0.40170213785669795,
                0.2961164738213342,
                0.3286804210417405,
                -2.856332849387219e-05,
                -0.5314042718015397,
                -0.18281670264693256,
                -0.39266754115334923,
                -0.0009609553524491702,
                -0.10459481474026708,
                0.12031495886726909,
                -0.3285587261776889,
                0.22422115767632997,
                0.07536773642509617,
                0.06469915777903001,
                0.5378605510632657,
                -0.6330570768345394,
                0.33099106151508373,
                -0.33819525789426846,
                0.09110284154448177,
                0.462308571851571,
                0.05410454596313758,
                0.2189234819613057,
                -0.38521040723199496,
                0.3077246825446875,
                0.13839529539185907,
                -0.32213890755081304,
                -0.32835984620008896,
                -0.2277224761933077,
                -0.43048651113057773,
                0.36962687191791527,
                -0.26654256497841433
            ],
            [
                -0.1316087392124184,
                0.02376870254460938,
                -0.2559619380196018,
                -0.017125105881882676,
                -0.160031134480033,
                -0.034897266937692704,
                -0.2240001743467023,
                0.15294848672648767,
                0.07112246584818953,
                0.14821610413257993,
                -0.208397784267242,
                -0.11258803353086559,
                -0.08067601751502164,
                0.2045809822405733,
                -0.20426305362991562,
                -0.06618661932538332,
                -0.03809393170977585,
                0.274327766062892,
                -0.01610509378643211,
                -0.17584843168269598,
                0.022136347534731662,
                0.03661602193774031,
                0.21153294982458962,
                -0.2893682854838108,
                -0.22084999787575513,
                -0.09975236083309848,
                0.2310348855385289,
                -0.0721273268850622,
                0.1778187173442797,
                -0.3069680812098875,
                -0.0038910609947674763,
                0.10659254734794935
            ],
            [
                -0.21954757088358035,
                0.44130514093696377,
                0.14532564389483243,
                0.26479436988152827,
                0.33464230396211525,
                -0.2668841863848852,
                -0.3533176378678546,
                -0.41587104746859693,
                -0.18282572219613824,
                -0.30223239588055456,
                0.24504751314695736,
                0.09894529275704406,
                0.23731575921384743,
                -0.02289365996305031,
                -0.23409069750127168,
                0.45434578511034757,
                -0.33640152262196016,
                0.2997875475062811,
                -0.26197804924257184,
                -0.1721971132944563,
                0.12923403678319442,
                -0.29538219836449514,
                0.3108217216090494,
                -0.09734158147833503,
                -0.03337266017909481,
                0.1122018908155685,
                0.005989778506572498,
                -0.30290323702752125,
                0.18855737637796677,
                -0.0751823770483677,
                0.29280580580669435,
                -0.13872955335236847
            ],
            [
                -0.274872288287547,
                0.12466412923557318,
                0.07103362804058772,
                0.1638066582111502,
                0.017975688023922208,
                -0.07156075299961771,
                -0.019540706371599468,
                -0.20037119241509488,
                -0.011921294276821913,
                0.27401260862894494,
                0.08940122587379284,
                -0.06639696410463615,
                0.0634981015841718,
                0.27137203935841026,
                0.18424571842510176,
                -0.1766433444453682,
                0.3235681114969921,
                -0.11118551310420997,
                0.16298314062739178,
                0.24945964909571725,
                0.1029114081794555,
                -0.037339241702084205,
                0.25035115808834374,
                0.03971551478929938,
                -0.2799268577146101,
                -0.18649497007251334,
                0.12450275237790692,
                0.2336308600910543,
                -0.14366849420839214,
                -0.13345557822170848,
                -0.3252033647252251,
                -0.26957303067127697
            ],
            [
                -0.08091898014892972,
                -0.49797316119077434,
                -0.2540128074994068,
                -0.015989603383936363,
                -0.02628402061855655,
                0.03867214581597323,
                0.09035545601083372,
                0.3705643360243051,
                0.060181571769742224,
                0.3441085268737997,
                -0.2730383902215163,
                0.3311426265789894,
                0.026684320793331204,
                -0.09388746724085116,
                0.1984935944716624,
                -0.0763103273543573,
                0.19421891508537975,
                0.14480230294665053,
                0.37100445149787453,
                -0.34066908879561,
                -0.25389757094872173,
                -0.2226922552040509,
                -0.3978554545212394,
                0.16628456605555653,
                0.14182908720661305,
                0.25520131623951886,
                -0.13886483118798068,
                0.347095146024319,
                0.209461991964762,
                0.34398405674552135,
                -0.2497881441013114,
                0.16922135684544157
            ],
            [
                -0.11074755898144117,
                0.3069904021253666,
                0.42414328089341047,
                0.04053888962823076,
                0.4162270566233714,
                -0.18834831429185586,
                -0.35317529572222456,
                -0.23752549610324997,
                -0.21429356515800432,
                -0.008245655002206415,
                0.4744045013781231,
                0.019290527854471766,
                0.10373478840189361,
                0.17906475332513455,
                -0.014544993849901223,
                -0.08848023798085777,
                -0.3448811328002687,
                -0.2547802337472647,
                0.19539013553741502,
                0.3760657285748719,
                -0.08769511599754139,
                -0.17638076888885676,
                -0.13242574502105411,
                -0.26146619031811547,
                -0.1242027412770602,
                0.15751773324666393,
                -0.23948480929744012,
                -0.30161283817742734,
                0.03544852849768717,
                -0.3597088729248116,
                0.16856568573487507,
                0.04377949042688983
            ],
            [
                0.11507534275947587,
                0.5526800264905585,
                0.3819807887922785,
                -0.033125630194409034,
                0.13804852300310486,
                -0.4301032348102941,
                0.08103689755576572,
                -0.027790025639508685,
                -0.17988502764510136,
                -0.4835559865962846,
                0.36318449681740983,
                -0.06489385564619614,
                -0.06681818352247174,
                -0.017077653640181104,
                -0.19557765107156128,
                0.26041535925745246,
                -0.33836091014082925,
                0.1018920084447802,
                -0.34515941109617837,
                0.12421749790876932,
                0.25151993318493815,
                0.11636855376160576,
                0.2785361574133857,
                -0.47077861599799403,
                0.0028014095601223495,
                0.20235904569151386,
                -0.42077488676317243,
                -0.4427249554744461,
                -0.08036506506789282,
                -0.0181710781406801,
                0.03319598652696657,
                0.02370537389525065
            ],
            [
                -0.058376593881321215,
                0.2792640473501087,
                0.10847428202085793,
                0.032124012970223756,
                0.2074732696127139,
                -0.4697060005484013,
                0.07282070931382821,
                -0.4380023640735473,
                0.015108798517552681,
                -0.542718083731443,
                0.26165673086637586,
                -0.0871427762345893,
                0.25877564219880045,
                0.24201280128812536,
                -0.31157205508463953,
                0.04141538877546012,
                -0.11486997468717014,
                0.022625326450839096,
                -0.01086961717131608,
                0.024352574064196667,
                0.16429438561624643,
                -0.0763441514459604,
                0.07747170687485658,
                -0.5399757658401381,
                0.365964816119964,
                0.050701008105899156,
                -0.11133802092846866,
                -0.4636492948009273,
                0.1296684004138088,
                -0.30841907531333734,
                0.08709777492478787,
                0.287090345946107
            ],
            [
                0.12092250720572742,
                -0.17333478450998852,
                0.14986541926872568,
                0.0637383983711551,
                0.1296933588924708,
                -0.038724632848736444,
                0.28377797495696616,
                0.1449018862288807,
                -0.15782500941483077,
                0.3120242974694922,
                -0.38443217252455464,
                0.34662841374321834,
                0.14649680520000988,
                0.19374889933057468,
                0.1879406205161748,
                -0.20464456147956422,
                0.15233652547429816,
                -0.3747235640761681,
                -0.03708759652913677,
                -0.02909211196955977,
                0.013330832604848105,
                0.0789290608135518,
                -0.2792395870935277,
                0.4410894622526052,
                -0.34782700823216095,
                0.14579710833812984,
                0.2075792151809603,
                -0.05214928359543046,
                0.09971025982129796,
                0.3632794306689981,
                -0.20131894906804487,
                -0.2767650122691672
            ],
            [
                -0.19608620866035054,
                -0.35094589765424866,
                -0.04990962233425069,
                -0.26647273450907516,
                -0.32082662960496466,
                0.24315122448286122,
                0.3381443287918089,
                0.011443306682139076,
                0.12577724054987602,
                -0.025585126101163102,
                0.10385607465160021,
                -0.06356285295580068,
                -0.17867349829375892,
                0.1974498056492406,
                -0.11677555212048683,
                -0.3300899905026148,
                0.2805141180166279,
                -0.07653508770193972,
                0.02475741464986379,
                -0.36037039140892424,
                -0.3386099230771021,
                0.13501781207875366,
                0.1187339964209909,
                0.4034084043639187,
                -0.055521213225802765,
                0.10833576286656946,
                0.23159926866000619,
                0.05503845573661226,
                0.13971392645637687,
                -0.014110224390626026,
                -0.0679637437407192,
                -0.18974088367260386
            ],
            [
                0.3198706175338662,
                0.3911743391274227,
                -0.004212045580470678,
                -0.09110503314608794,
                -0.1862781267460568,
                -0.1568093641240375,
                -0.11988956927403809,
                -0.21642741072799734,
                0.12188652401829238,
                -0.3703246038879971,
                0.3717059057518979,
                -0.32046648242221515,
                0.20976932860749398,
                -0.1633205353935643,
                -0.2347178435939074,
                -0.10679097341514662,
                -0.09682999447130604,
                -0.08819605303375048,
                0.09146923348172793,
                -0.18658246389136157,
                -0.057972964125765476,
                0.15427090067496682,
                -0.14406165113858216,
                -0.31449965495242793,
                0.046994211787610984,
                -0.08526469761714192,
                -0.27296386470063355,
                -0.02015960728632093,
                -0.10213436618344693,
                -0.29689356947227347,
                0.08813567711536868,
                -0.20334528141247016
            ],
            [
                -0.18183040728085037,
                -0.4113102808723218,
                0.09665979281976257,
                0.06081959288720149,
                -0.27110136821787545,
                0.04985678830980141,
                0.21004352762322553,
                0.24445590393723332,
                0.30829464021413583,
                0.28338934301273694,
                -0.35928505625760276,
                0.3792723262554413,
                -0.3517662771070982,
                -0.1397944230235705,
                0.13234674881886052,
                -0.31924482236919727,
                0.47485780815667233,
                0.16634247267649235,
                -0.07989366312291557,
                -0.38885728818330345,
                -0.32579674358957966,
                0.170908682377846,
                -0.38674112461168764,
                0.052701515107979886,
                0.01752253174181808,
                0.23239300221725467,
                0.04989706851113647,
                -0.09529331410506563,
                0.08661354289173392,
                -0.004438364172544571,
                0.07056885217334284,
                0.011606411216967387
            ],
            [
                -0.32312964842598374,
                -0.2201578615047669,
                -0.20015464060168967,
                -0.1338870932703235,
                -0.2940926225459105,
                0.008672836547260155,
                -0.19904127056069337,
                -0.043288358061887154,
                -0.09693272991073942,
                0.2928298708686159,
                0.09003569412333477,
                0.1537946590649095,
                -0.10360968327165528,
                0.11774385115398427,
                -0.14003302694234876,
                -0.04090845184479775,
                -0.03469440378343432,
                -0.2447566625771599,
                -0.25503959184464015,
                0.13961691948685814,
                -0.05056504929392789,
                -0.1750433584898432,
                0.20872851420641778,
                0.25516586998904434,
                -0.08742188287484148,
                -0.22048363070247481,
                -0.006233380292809786,
                -0.07196548553403748,
                -0.14747983373033277,
                0.15839194146539226,
                -0.16785370655563575,
                -0.02068946108361512
            ],
            [
                0.01571025788472213,
                -0.09784978878291554,
                0.267094857729409,
                0.23296669942676626,
                0.14684963203110432,
                -0.26613949318193264,
                -0.081541325584984,
                -0.30320415323808086,
                -0.012449084934415966,
                -0.033528813974972246,
                -0.0815275967630301,
                0.010774704054444775,
                -0.13889192719503896,
                0.18114151984785629,
                -0.23512501262017685,
                0.18617826759639156,
                -0.3620804415189307,
                0.12825100272472467,
                -0.09945847369320494,
                0.10381595926735343,
                0.026107671990895674,
                0.1911922296396229,
                0.06724768539151206,
                -0.3874246932863103,
                0.002099683477245368,
                0.04170639175506605,
                -0.17261114571982322,
                -0.14478010244397088,
                0.17235595826188488,
                -0.04321512221364284,
                0.28117247142027296,
                -0.2957440874167174
            ],
            [
                0.2689990270217118,
                0.0820424135116815,
                -0.20963866164185926,
                0.19385622727129975,
                0.19031907231551687,
                0.09368996226212592,
                0.22963743255770785,
                0.05838147877334326,
                -0.23880153029388082,
                -0.08387728436954833,
                0.04581129101118221,
                -0.05129921542169767,
                -0.08075119391282364,
                -0.017850722993625986,
                0.2012909998076353,
                0.26651432067270014,
                0.24520193381715727,
                0.24462808301946337,
                0.1882997004480085,
                0.11774637343483554,
                -0.13417643649636157,
                -0.24376570926830546,
                -0.013380658959578691,
                -0.16897103409909414,
                -0.1747828715577864,
                -0.019599696105339477,
                -0.23374100265878314,
                0.15691613976977792,
                -0.18773878189489954,
                0.25875343791079897,
                -0.04987582504451275,
                0.26144873489952764
            ],
            [
                -0.08553074360156528,
                0.0862134662494061,
                -0.1277246036833828,
                -0.06569251810576146,
                0.1327399076191088,
                0.05407459458307648,
                -0.19196929231838447,
                0.07723882452631887,
                -0.02191469223849346,
                -0.015132597212667694,
                -0.1335294249557412,
                0.011207011316235811,
                -0.3350034157607017,
                0.1890672413493924,
                0.09418157185255546,
                -0.23309119357968952,
                -0.1253210111881491,
                -0.07936156837226627,
                0.16736230056733917,
                -0.09828290431227109,
                -0.13837665318202386,
                -0.02700948805001845,
                0.1556686279297051,
                -0.23526781165413813,
                0.10885991229494535,
                0.10993816251237336,
                0.19237386865862435,
                0.36056875733124955,
                0.24450648997790983,
                0.2735481079143283,
                0.17849110321495754,
                0.12876828979895766
            ],
            [
                -0.3665874391594286,
                -0.636204955514838,
                -0.5992083780433599,
                -0.38310723600196545,
                -0.45130409182431613,
                0.2388622047281056,
                0.3550294528335046,
                0.15461558555897886,
                -0.17642825333771786,
                0.5038460631858204,
                -0.4334918249144672,
                0.16997709841547462,
                -0.057020674404286674,
                0.1950994826813629,
                0.21119360029415774,
                -0.25376299993058304,
                0.47658589624396164,
                -0.3867696662365663,
                0.48437111729928223,
                -0.23974224531266253,
                -0.34967877062967745,
                0.24748657812967015,
                -0.3603397748273896,
                0.7524564891859263,
                -0.027231940519499384,
                -0.1256426834539058,
                0.473216642038946,
                0.467313162976787,
                0.021307125326864556,
                0.3576231820464212,
                0.07500045468667461,
                0.24794895699568661
            ],
            [
                0.31520887212940707,
                0.2572274400733101,
                0.10615898184076497,
                0.13172722250878127,
                -0.034254345995254724,
                -0.42348547852286367,
                0.028580069077615816,
                -0.012860174590773515,
                0.1342238749235423,
                -0.37906626912047353,
                0.2624115339252131,
                -0.22950854582993524,
                -0.16027384544995965,
                -0.023233203108891938,
                -0.10782459520163565,
                0.27871763097877444,
                -0.04408196250886572,
                -0.1384329050846111,
                -0.2725316059287867,
                0.03662606954965778,
                -0.1498857958679026,
                -0.23663522365596906,
                0.003344721583980206,
                -0.21008289803504515,
                -0.11469004474202861,
                0.2715786177126504,
                -0.28002030122666854,
                -0.07803591383764223,
                -0.12906704462038285,
                -0.3613326352963618,
                0.033278892165657686,
                0.08403286325845062
            ]
        ],
        [
            [
                0.30381252604586356,
                -0.13776172501321943,
                0.33207044869927976,
                -0.058420342608591996,
                -0.13205839857208052,
                0.32785147894844546,
                -0.29308578431563603,
                0.12020322055400498,
                0.04255430688421837,
                0.030998343044406743,
                0.12429574056008726,
                -0.1444079328933837,
                -0.17850098283099272,
                -0.1841245520532447,
                0.26733662151587995,
                -0.14827721858244738,
                -0.1731493793078543,
                0.026560690850639397,
                -0.15009854269508677,
                0.11574293465736633,
                0.2761851489111506,
                0.3379037372183914,
                -0.20235537998860126,
                -0.24805054833945028,
                -0.06633490450008671,
                -0.00977212942130267,
                -0.32305295868770934,
                -0.3280335061592521,
                -0.052602954694380415,
                -0.038963405204118354,
                -0.22759566251491117,
                -0.21421580075945462
            ],
            [
                0.3748363912144226,
                0.2128452587735986,
                0.6066575260926919,
                -0.10240897146164445,
                0.09562542990755946,
                0.10060379990448391,
                -0.09976798964228996,
                -0.18735113606555098,
                0.8619663531638612,
                0.017185848769472753,
                -0.2257731918470114,
                0.19109344397690675,
                -0.03364761215756624,
                -0.45618404096619686,
                -0.10578634127112349,
                0.8114129188409474,
                -0.20447196398306802,
                -0.5599349029474521,
                0.5177963527183129,
                -0.2727976043965929,
                0.5814115446591316,
                0.15507985229796167,
                -0.3744950698332081,
                -0.12629306877766294,
                0.10696324033022807,
                0.40265603847843756,
                -0.23137878313411248,
                -0.20995515787310662,
                -0.4853627875209035,
                -0.038441037090991934,
                -0.22696522398977542,
                -0.2904198494748154
            ],
            [
                0.16662860001253646,
                0.3272268821242181,
                0.5004410176417995,
                -0.24151352230766612,
                -0.25783147075260904,
                0.3134021919675421,
                0.17881440651117822,
                -0.29561319851325496,
                0.14228548017051193,
                0.2070737276200705,
                -0.2764186974606453,
                -0.2174164793131349,
                0.0719479413350163,
                -0.6023214126037552,
                -0.31444578545389495,
                0.27542456718462194,
                0.23544574547405164,
                -0.025088001178750395,
                -0.08387147420411432,
                0.06353288568970517,
                0.18925629388411302,
                0.41679920719888974,
                -0.0025236776396328313,
                -0.06437555191215329,
                0.192651328303709,
                0.19973123239968768,
                -0.19329046006747216,
                -0.41968090430307126,
                -0.3940111970023503,
                0.11859074400121797,
                -0.14963391249316949,
                0.18716012404420984
            ],
            [
                0.336820932759211,
                0.19953344040634555,
                0.016708023230681764,
                0.2497567124118837,
                0.03714368971581587,
                0.22951160491575087,
                0.06247660948970207,
                -0.2663561717202841,
                0.23831585138567724,
                0.12640524873504916,
                0.20788566366182887,
                0.07447659263848554,
                0.20899046169990196,
                0.12457098392442624,
                0.2152432089447617,
                0.2889099835705138,
                -0.09076533804770343,
                -0.058886696721817545,
                -0.15347077886505767,
                0.016125747721713116,
                0.3430554631621388,
                0.19377286620451,
                -0.12882159095265389,
                -0.1092463549985116,
                0.3069654897054905,
                0.03652640627163015,
                -0.18691705637532594,
                -0.29406756415902896,
                -0.1928637069024076,
                -0.18467388819221123,
                -0.058548109507493964,
                -0.24552015526569967
            ],
            [
                -0.13917277820107804,
                0.019910920973263222,
                0.38308380274230336,
                0.30537336447994445,
                0.24955460850481498,
                0.3670097876190465,
                0.05871518808624141,
                -0.3088908694377678,
                0.35641299160078344,
                0.24700476690678322,
                -0.2561558778446266,
                0.11068321917482611,
                0.3305732747231291,
                -0.16153407231254724,
                0.12214930268023157,
                0.11603724875550224,
                -0.20869643387268455,
                -0.4317244559645707,
                0.06205672908242113,
                0.16350115925500472,
                0.36969262376192635,
                0.30206100862951724,
                -0.2415257860275509,
                0.2750459021556861,
                0.36880171195919764,
                0.36942465335248775,
                -0.11332068468386168,
                -0.2659233933671119,
                0.06755917373594673,
                -0.3015715740364305,
                0.23735772575235098,
                0.19076051700953278
            ],
            [
                -0.1718129166526785,
                -0.5469648434782004,
                -0.22014541202674998,
                0.03735415307870644,
                -0.12051142983147958,
                -0.013383112553507739,
                -0.10324412447723647,
                0.22025327118706814,
                -0.6431683681711428,
                -0.08802504684975748,
                0.32790856744718355,
                0.043695196125409584,
                -0.2565219216607439,
                0.7169042062120686,
                0.25608923142982976,
                -0.20846013032094857,
                -0.15264913777335334,
                0.42244609701017766,
                -0.09063255756730966,
                0.19785484783579524,
                -0.06493993419260731,
                -0.21607074264839293,
                0.17507045509836183,
                -0.35733052217518907,
                -0.5123676702067466,
                -0.21769308770782364,
                0.09751911671248817,
                0.2957243387890531,
                0.5779009686743299,
                0.14063670074035906,
                0.02306284467262389,
                0.011534333110387544
            ],
            [
                -0.16511411813010043,
                -0.23648560824099077,
                -0.3587543930774713,
                0.15246225552879616,
                -0.30158458852902015,
                -0.00774646804223884,
                -0.07076937485279462,
                -0.17724366608145833,
                -0.22809683088038016,
                -0.20621740791333779,
                -0.22515848400944666,
                0.23933541274516285,
                -0.20592849167603783,
                0.347517758015295,
                -0.17380074218883468,
                -0.4841623782551997,
                0.25214529054549484,
                0.2944036831193354,
                0.09927353625800682,
                0.12008305501735167,
                0.11459572863769332,
                -0.13120127943131218,
                0.32869572784256,
                -0.193856688110789,
                -0.4420188862277323,
                -0.1173398776566851,
                -0.2010871768992315,
                0.0187935118411472,
                0.07106654541246694,
                0.3638926811223812,
                0.20477133752174867,
                0.0014897832586626871
            ],
            [
                -0.45546957111464975,
                -0.2824049844092367,
                -0.04492850341570866,
                0.03562847842480211,
                -0.1854269945736632,
                -0.2525364200863234,
                -0.005190551538578624,
                0.11603828088372267,
                -0.5311244398164481,
                -0.33735521675702546,
                -0.21765302925341679,
                -0.13641761711747377,
                -0.22127350847470503,
                0.4590806907852181,
                0.25249839485212744,
                -0.4459567303099382,
                0.2891685018713885,
                0.3179812024162512,
                -0.49522255783704444,
                0.4024395097566745,
                -0.22621064375171834,
                -0.3764344822171268,
                -0.10051782690543198,
                -0.17322599981025338,
                -0.48911819650074106,
                -0.46793641582626216,
                0.4025317369538556,
                0.42358089433482404,
                0.27797949369395913,
                0.42551267765415146,
                -0.04093660236372378,
                -0.001034110582061377
            ],
            [
                -0.09548786267499794,
                -0.010512286530569397,
                -0.28928843116178843,
                0.01939861689476592,
                0.1026598758461941,
                -0.2420707010006773,
                0.2632645360192194,
                -0.031072200939189026,
                -0.042743279760589635,
                -0.226729199309923,
                -0.2554892019497314,
                0.24346409847397382,
                -0.12156351158888778,
                0.44838405635231676,
                0.028018899639080237,
                0.06726213681777549,
                0.24511838025000274,
                -0.05222435130099168,
                0.1632293022081807,
                0.18264741349145053,
                0.06116813945358157,
                -0.3135113322805083,
                -0.14720825916176455,
                0.03692928518639793,
                0.14605287821513982,
                -0.34285727427612567,
                0.3634824120669812,
                0.20457226041097515,
                0.09102908642305538,
                0.3451207637132022,
                0.24709495706496712,
                0.06764267670129191
            ],
            [
                -0.007917278490850884,
                -0.6263406925426543,
                -0.48488942476308056,
                0.009288572241998552,
                -0.2914515304838253,
                -0.18388289002749128,
                -0.24575679339412462,
                -0.10136042874203424,
                -0.4000775736226014,
                -0.05382041220209664,
                -0.12215572616808183,
                -0.0086732217294984,
                -0.16782919316026804,
                0.604762811150038,
                -0.08999122544068144,
                -0.23564252304096633,
                0.22639744978274537,
                0.19347258945351756,
                -0.41728891379326205,
                0.2794365493204854,
                -0.31998376435096426,
                -0.3637968604149846,
                0.14807577094217717,
                -0.07431624499303324,
                -0.5039305797281797,
                -0.38190019759773214,
                0.38897901864990864,
                0.023678947064946988,
                0.164878171901437,
                0.02601782708409996,
                -0.043368805200843984,
                0.3451259538775134
            ],
            [
                0.38405234903150476,
                0.3611069417286219,
                0.08216987497585844,
                -0.17088051341482263,
                -0.15297371921734537,
                -0.11262674311267548,
                -0.3456175752995987,
                -0.2888637645690242,
                0.33463298717093193,
                -0.0865852099045524,
                0.002528820205483308,
                -0.35031166572144934,
                -0.06645971056725018,
                -0.6060031850034353,
                -0.3157695708338737,
                0.6151798105442517,
                0.12140213671194232,
                -0.19644277672339766,
                0.45831925996272976,
                -0.3295231417929667,
                0.5254647859705998,
                0.12642181343318187,
                -0.3490541172783911,
                0.31077322102751237,
                0.31792555564409475,
                0.5067984877209616,
                -0.4190842821265436,
                -0.051695774531273844,
                -0.18139012274081484,
                -0.04412580860573641,
                -0.25004047886899666,
                0.07788335224518611
            ],
            [
                0.11747413160736157,
                -0.2503574781658688,
                -0.2056734594812447,
                -0.13308111584916998,
                -0.015481620973234987,
                -0.31715732511745875,
                -0.12404140805002145,
                0.11498724200106517,
                -0.415634247707549,
                -0.09715295805662748,
                -0.23243662199967158,
                -0.1588219303903603,
                -0.10350396821732326,
                0.3431525125816714,
                0.28581468749365047,
                0.016663385091608657,
                0.2808778597577009,
                -0.05254935972525873,
                -0.28363527033621244,
                0.25089575602332737,
                -0.4368088060542096,
                -0.2316901002107017,
                0.12642287704758878,
                0.12650074997824756,
                -0.09515684629229308,
                -0.3619038112601442,
                -0.20603501694628665,
                0.2023931407551868,
                0.42362072912404924,
                0.2986630276603068,
                0.26109679778925915,
                0.16255767376247884
            ],
            [
                0.08539295083875925,
                0.20511030955826043,
                0.24130892971430967,
                0.09157856562173607,
                -0.15288936548516818,
                0.08217155801573532,
                0.2230846621985069,
                0.19974833594406594,
                -0.07517484743185678,
                -0.26926549390675625,
                -0.010301436028919062,
                -0.1318231260817738,
                -0.04831039978799809,
                0.17717805727536642,
                -0.16690540966372833,
                0.25517094137726914,
                0.2538874735931377,
                -0.03487456573883766,
                -0.05528530256843325,
                -0.14255169667392864,
                0.2165131804282797,
                0.20701846982730596,
                -0.10756983822039104,
                0.003117059057710246,
                0.3082246064193854,
                0.30319119924185234,
                -0.04393119329942622,
                -0.21177230872261257,
                -0.22826463595488655,
                0.161523777734861,
                0.02212830927475633,
                -0.062350043395883126
            ],
            [
                -0.12299578958284371,
                -0.2903607239140223,
                -0.0892448999272792,
                0.15620274498148082,
                -0.20675668458854068,
                0.2066565496846212,
                0.2724153806552367,
                -0.23349113686017406,
                0.20926438250369833,
                0.12217015296338561,
                -0.09912779518756318,
                0.11350568303051894,
                -0.29158980812218516,
                0.23215089387927226,
                0.05075794132382593,
                -0.13088657042297328,
                0.05791995624667534,
                -0.21856738972493467,
                0.11848728149072602,
                -0.04036335713101527,
                0.0919320750167646,
                -0.19665597731096798,
                0.09523790371139695,
                0.26998458652100976,
                0.06647468945088138,
                -0.24979932095920976,
                0.2745889040630308,
                -0.03069334173311543,
                0.09434766471068458,
                0.2672274973238398,
                -0.2858920717656477,
                -0.18970633441604126
            ],
            [
                -0.16817314042279077,
                -0.07878113828748978,
                0.0847736391651516,
                -0.06254494043358412,
                -0.10283242185722154,
                -0.35970792643029187,
                0.00711219996388253,
                -0.17054258988326734,
                -0.6461015295981034,
                0.21815242645818256,
                0.34275910129138487,
                -0.05783607757250662,
                -0.2264899462331281,
                0.49622438857567464,
                -0.08376656158464287,
                -0.41583264486994864,
                -0.18603078070089865,
                0.15271125714528327,
                -0.4067697487058741,
                0.421587647534369,
                -0.022648060845576357,
                0.03552490271327677,
                -0.05776281046965501,
                -0.3383288825176377,
                -0.02461808729296313,
                -0.020699001446013516,
                -0.14107237930006977,
                0.2949463639125613,
                0.5208108923077565,
                0.11950822364381107,
                -0.08238415615595564,
                0.3301372391824851
            ],
            [
                0.4649037984433832,
                0.6013497815707385,
                0.04223601721825831,
                0.03430878437819235,
                0.20485627598663267,
                0.16512679649010406,
                0.08807542315016749,
                0.2250161938671947,
                0.42740922943236215,
                0.32439781284822483,
                -0.1004760393257432,
                -0.1336932087193156,
                0.3036456259482013,
                -0.2224132888662756,
                0.03166188302530985,
                0.3248093033618883,
                0.27128340997888895,
                -0.1849909314436669,
                0.3799485367830974,
                -0.3758779326527456,
                0.5519007917516365,
                0.18203303140017948,
                0.10373897747442286,
                0.10860797995602837,
                0.5181864130974707,
                0.17219728608786505,
                -0.23037850172578997,
                -0.013269734638293016,
                -0.28316405566848896,
                -0.3579174685727574,
                -0.1962386985193548,
                0.07206353478234766
            ],
            [
                -0.34755261861928216,
                -0.6355567537676415,
                -0.4341481800567619,
                -0.08770024797921705,
                0.05649127979935443,
                -0.03903768297416231,
                0.22969690044472485,
                0.34799907364663074,
                -0.7732111806536444,
                -0.20399908010833592,
                0.22729554220070908,
                0.32730805173313154,
                -0.247834567466604,
                0.7499596945957864,
                0.39876939560423336,
                -0.4533376462784919,
                0.0924342347170398,
                0.0302227357341616,
                -0.14201657428750333,
                0.31090779308881916,
                -0.14999061980890754,
                -0.4223547196606655,
                0.27987464953489366,
                -0.1895339398405033,
                -0.4798685051740523,
                -0.4179159734038761,
                -0.13810398250785827,
                0.010743883321006493,
                0.5307312283234749,
                0.05024234935210007,
                -0.1323005757135559,
                0.07555395575089392
            ],
            [
                -0.25481163343599594,
                0.08922914626096347,
                0.35432720223312825,
                0.05594705870608828,
                0.14587071028853588,
                -0.12579609824382157,
                -0.03854317181660459,
                0.015148902529998731,
                0.06706275415218166,
                0.16193261377431664,
                0.06863979867573784,
                0.04373170171921388,
                -0.04305346370873143,
                -0.3296026631091523,
                0.2011232133476517,
                -0.0026970482718047997,
                -0.02914038260861631,
                -0.15394040002583143,
                0.12775052497276246,
                -0.26801406687763246,
                -0.2189721322453876,
                0.27853024458649683,
                -0.0798598032692923,
                0.05217599400065476,
                -0.20275183317952636,
                0.04028222794602451,
                0.03839049307549983,
                -0.20705132866894257,
                -0.1854097536485931,
                0.06074951058303984,
                -0.2529360486329408,
                0.1101969855860691
            ],
            [
                -0.1381899897708429,
                -0.2084141083033105,
                -0.12466371188629118,
                -0.23238937915654703,
                -0.014458761745061558,
                -0.284269672949753,
                0.10168494778831305,
                0.30962783055990034,
                -0.41471192036297094,
                0.08867010854538085,
                -0.15033244509335728,
                0.295938849229755,
                -0.07234786571928002,
                -0.009300480650264911,
                0.05355020398896349,
                0.01675392757474483,
                0.19715215917042056,
                0.22979888408218752,
                0.024293731964826364,
                0.37390575690224054,
                -0.33665313885482084,
                0.16207548940597405,
                -0.08466380710289907,
                0.1398128274737493,
                -0.16728373553032236,
                -0.41023781257311365,
                0.05540333116212474,
                0.12458365621117741,
                0.3263810095477088,
                -0.21616874513637238,
                -0.10002937357778034,
                -0.1634436933053357
            ],
            [
                -0.20692853128281147,
                0.10040982144535149,
                0.04396093630727231,
                -0.22831231511674244,
                0.13313767032092438,
                -0.15841492418048944,
                -0.04657666797980364,
                0.24739148728588395,
                0.41850103843756575,
                -0.16123120479883424,
