{
    "layers": [
        {
            "size": 30,
            "activation": null,
            "initializer": null
        },
        {
            "size": 32,
            "activation": "sigmoid",
            "initializer": "heUniform"
        },
        {
            "size": 32,
            "activation": "tanh",
            "initializer": "heUniform"
        },
        {
            "size": 32,
            "activation": "tanh",
            "initializer": "heUniform"
        },
        {
            "size": 2,
            "activation": "softmax",
            "initializer": null
        }
    ],
    "weights": [
        [
            [
                -0.09399956875910967,
                -0.316015568484035,
                0.12749921145643597,
                -0.02017239093989008,
                -0.08843219337930436,
                -0.45268833582829643,
                -0.26653342923757306,
                -0.17497354783766123,
                -0.3533680230694333,
                0.11933652073642764,
                -0.1928643603017143,
                -0.13184385599382156,
                -0.2621383523466714,
                0.2112360002179171,
                0.011177776719163701,
                0.005877199858188996,
                -0.14960745635237394,
                -0.16251424997658542,
                0.4760437441499412,
                0.2398611348205959,
                0.3440234479440967,
                -0.050193470532312275,
                0.05092441075648619,
                0.2682918662927273,
                0.04830138497951588,
                -0.14636599254546115,
                -0.20675935335663145,
                0.09955242921470367,
                0.30651391801633365,
                -0.12496738929637471,
                -0.4313648394208873,
                -0.009819729410089698
            ],
            [
                0.09267876009652386,
                -0.23097841912176298,
                -0.09416400312144267,
                0.3474638035165782,
                -0.30118455289113566,
                -0.11540161246106151,
                -0.09770055028676036,
                -0.05578966906529608,
                -0.03248491594195768,
                -0.4769050041136442,
                0.23801861823411685,
                0.5213638979397099,
                0.010997597607455127,
                0.0071410234073554036,
                0.12162348479309512,
                -0.21390329417210183,
                -0.20024784563497122,
                -0.10285923880368432,
                -0.020901164379356275,
                -0.44108223338367114,
                0.2587859490445164,
                0.1214009311310776,
                0.4083379377517878,
                -0.10007473340119347,
                -0.26696307337017555,
                -0.3359916800613779,
                0.026481574034484555,
                0.3760049500964177,
                -0.15692654131288072,
                0.18439881507693523,
                -0.10418841388768141,
                0.26950568713002443
            ],
            [
                -0.013362632301303658,
                -0.09276851640958682,
                0.11232765497940503,
                0.01348426284120929,
                -0.13998977832231121,
                -0.15645790809575888,
                0.03424123958205642,
                -0.12783584374197673,
                -0.2875985503416421,
                0.2599171626095138,
                0.07210838577262395,
                -0.18711690379019835,
                0.013055342727521594,
                0.3466483147977092,
                -0.1846018775021126,
                0.04310472052628812,
                0.09704749577762586,
                -0.3056803761873913,
                0.26966351080952733,
                -0.6010754247584813,
                0.2225523468978572,
                -0.1253017933340635,
                0.2759928660650704,
                -0.013537015875848544,
                -0.22134030703037572,
                0.19056128678848483,
                0.13503133718913954,
                -0.18337447229001536,
                -0.32196165187644965,
                -0.24174390647645091,
                0.10930005871972857,
                0.02290141868136592
            ],
            [
                -0.5519700922393092,
                0.19164100759635191,
                0.04500377137178423,
                0.16029349173396706,
                0.1659214298283905,
                -0.32674682029394764,
                0.2080466578836101,
                -0.5351921420860675,
                0.36146830098565613,
                -0.30656770440318204,
                0.04216672409061827,
                -0.1383111394931921,
                -0.28871844969755667,
                0.2727427606565205,
                -0.14818393576187705,
                -0.23399667377730718,
                0.30852302707195745,
                -0.5038829412146922,
                0.3141015508730133,
                -0.2764031927641814,
                0.27834105180840135,
                -0.034363652401082107,
                0.14378208358917005,
                0.045579083415363465,
                0.018811813242309294,
                -0.2135866443149942,
                0.0004753314074581898,
                0.5594873400088513,
                -0.3573057976717318,
                -0.17725265896247575,
                -0.2197561562304698,
                -0.012017379625312569
            ],
            [
                -0.41415940265570883,
                0.08056141449599528,
                -0.24335667273432937,
                -0.07972684855098028,
                -0.003818876544682613,
                -0.13639030012329825,
                -0.31432783911675954,
                0.11330585775196357,
                0.07922985789359,
                -0.35429619200190965,
                0.5169659417993867,
                -0.05642001717131017,
                -0.2265781311424598,
                0.08117652182801476,
                -0.11257801303191295,
                0.06088861912147754,
                -0.06147582589297869,
                0.2578262480201479,
                0.1156197617773146,
                0.07435070059178099,
                0.010312016660466114,
                -0.2741505836512667,
                0.04333881951832202,
                -0.030725774902388356,
                0.25880637095194065,
                -0.070418967200898,
                -0.4126933167165374,
                -0.22847094932788647,
                -0.4994619562119695,
                -0.10002756823439095,
                -0.09277892772675322,
                -0.30069898053599575
            ],
            [
                -0.0776368431281053,
                -0.12402412976029237,
                0.38405206800912123,
                -0.17299621784572958,
                0.3167138283757425,
                -0.37825383893587256,
                0.007518278656472423,
                0.4278154870376105,
                0.14990682080623718,
                -0.048796992192976264,
                -0.38998174364376526,
                -0.24330482011398155,
                0.19000845593502438,
                -0.5138896160839221,
                0.14326454133362276,
                -0.1819267662303154,
                -0.3067126769365035,
                0.28589065790532314,
                0.17591414897165492,
                0.038070696825070895,
                -0.048686038156921026,
                0.2249413792331484,
                0.06591696669760168,
                -0.3232495132993914,
                -0.042736200257986925,
                0.3366084319442296,
                0.02650889747458752,
                -0.003811069334981104,
                0.06389254269540616,
                0.071265797281274,
                -0.026046770083836487,
                -0.08742848125369078
            ],
            [
                -0.17652080022951191,
                -0.23500544584534216,
                -0.03633420666307394,
                -0.03225207224099338,
                0.016241425056931994,
                -0.2880326534791665,
                0.20198386188940645,
                -0.19676788335358564,
                0.05692115536554352,
                0.163806374983756,
                0.08880523450456795,
                -0.05021206896716446,
                0.22601795077980957,
                -0.04481907313219819,
                -0.3024427815138566,
                0.07196926638534426,
                0.05747514066031487,
                -0.5276730765855128,
                -0.22260876059371937,
                0.17013041188881867,
                -0.1624073582542245,
                0.21225596529553453,
                -0.27643019219017867,
                0.1078978800971657,
                0.23420767661959122,
                -0.0434447028773352,
                -0.22832484430695862,
                0.047176314780438815,
                0.03371738354486817,
                0.1183579247220056,
                -0.056711708511692216,
                0.019289135741693428
            ],
            [
                -0.10196679295885804,
                0.10702520332711996,
                -0.18698802849334162,
                0.21911060026770315,
                -0.0048025523202786385,
                -0.17090616734006836,
                -0.15416404105677325,
                -0.28040781446706364,
                -0.20214725585479462,
                -0.46432832878319585,
                0.4718530328180034,
                -0.10752446446007427,
                -0.14658560457054212,
                0.593331203878343,
                -0.000571147148005774,
                -0.2048975661885003,
                0.05418577241991252,
                -0.16177364998072324,
                0.12453846958418764,
                0.04880109857783175,
                0.035324656039901564,
                -0.26398590254348997,
                0.20665764440349163,
                0.038922231376638236,
                -0.4474525312948765,
                -0.09837741993200293,
                -0.06730405416611002,
                0.23901441292914782,
                0.15920712486682212,
                0.454379131477139,
                -0.136584181489267,
                -0.21367505135789014
            ],
            [
                -0.3184455828342839,
                -0.10521741552981094,
                -0.09030985403090347,
                -0.005138171113542535,
                -0.12481974846106335,
                0.0013967969972500595,
                0.39551731618200875,
                -0.043319866466956986,
                0.018825441832391595,
                0.028235925230387243,
                0.1717110545685271,
                0.17803352207945836,
                -0.22217172857721135,
                0.23258560749778723,
                -0.027026737679735287,
                0.20504096418672518,
                -0.2701066991687295,
                -0.12491032361479873,
                0.010127735687319254,
                0.1727641739168632,
                0.11125984795861298,
                0.20019793475086398,
                -0.10729812674678323,
                0.1915151017082543,
                -0.18661051580875035,
                -0.013638326924797805,
                -0.010606319742163193,
                0.14103559425350773,
                -0.3475460761300867,
                0.1790138236860927,
                -0.0690420931090063,
                0.04948778924228676
            ],
            [
                -0.04071584599039823,
                -0.07336795090535879,
                -0.037046211233378444,
                0.005954142644084131,
                0.03897900659896693,
                -0.20961669685037662,
                0.07249057057289866,
                0.46390020175972635,
                0.05861413409618331,
                0.29206128540931336,
                -0.4256889340405781,
                0.3030091112190059,
                -0.008353964048173516,
                -0.3441599460269285,
                -0.008433378883018932,
                0.14010826912070434,
                0.007056847322854947,
                0.05159777313514963,
                -0.1024032495867687,
                -0.04774913803501612,
                0.36893330965123167,
                0.06794543034480759,
                0.06206817108886146,
                0.030957743404668885,
                -0.3487698253884296,
                0.6840358470100114,
                0.38029094116477186,
                -0.1347739759204983,
                -0.25253017264106187,
                -0.3548131617609425,
                0.37960419095589104,
                0.33745357096114476
            ],
            [
                0.02740377480200366,
                -0.03589793210587382,
                -0.014227545517114477,
                -0.0627127817414498,
                0.01273873635472666,
                -0.5093881918192615,
                0.3051799497265508,
                -0.23603597927988224,
                0.0012965441155389473,
                -0.1692229307550636,
                -0.02380007619491771,
                0.09722180994794517,
                0.06697157416792904,
                0.24777670368421223,
                -0.0934205006525436,
                -0.19081100121387073,
                -0.17036879926563914,
                0.005680268391550737,
                0.2571999009614073,
                0.10647998847856929,
                0.24126759927587801,
                0.2751051980219161,
                -0.03203577414358106,
                0.07397108561289736,
                -0.017858653775177657,
                -0.3960756665595232,
                -0.3627051659852117,
                -0.10906979377908708,
                -0.13046523005776214,
                0.2093760466543301,
                0.20808363265427,
                -0.09740035479475807
            ],
            [
                0.3481770045202189,
                -0.13349854452144172,
                -0.09109978966089854,
                -0.011913780594712892,
                -0.07063017121156497,
                0.241227521611483,
                0.03537842862341416,
                0.2820845025398022,
                -0.03259866012766424,
                -0.26756278113572773,
                -0.0539088788744942,
                -0.21135489726381618,
                -0.17611437976320385,
                -0.34764179962657893,
                -0.012018409378300536,
                -0.14212397508470068,
                -0.0698662536457391,
                0.18431031278283264,
                0.013563519826541146,
                0.07137712766826407,
                -0.4112310538845909,
                -0.21529722633284665,
                0.5911763589020559,
                -0.11819055611524731,
                -0.11781919636840962,
                0.1626766409790657,
                0.14473247481164594,
                0.16999123754188594,
                0.033591434344698114,
                -0.14417434198466403,
                0.12351299096844369,
                -0.26730577522640875
            ],
            [
                -0.3396375580531069,
                -0.40408246379662677,
                -0.3100774052730612,
                0.009365377636986753,
                -0.22908303528677657,
                0.1497039142808225,
                -0.1345217561865288,
                0.05236820061616048,
                -0.10083757462868144,
                0.22294508271289973,
                -0.03229190524341428,
                0.46730597381163186,
                0.14677370026443937,
                0.0991858822014652,
                -0.058372395243003555,
                -0.43551466787524495,
                -0.17526287934436477,
                -0.15541477816016716,
                0.16902141931596676,
                -0.08428639740500292,
                -0.16083307918295905,
                -0.5211055575764897,
                -0.09108996434471202,
                -0.025030401634596553,
                -0.235263371150514,
                0.11923148034126907,
                0.1021757814950573,
                0.6368428384640523,
                -0.27690738924926844,
                -0.031749305310441935,
                -0.4972311323013441,
                -0.0028169212308021218
            ],
            [
                0.0408285446333084,
                0.0034517701652402753,
                -0.33205006325353464,
                0.07710211661998535,
                -0.11210661877373605,
                -0.2820496023098491,
                -0.01266002175147265,
                -0.1239223246661231,
                -0.19922062410538802,
                -0.3119116801397289,
                0.012542869499719339,
                0.026552227516290383,
                0.00877690517742279,
                0.10143113560619368,
                -0.0370653565483825,
                0.017493649533117914,
                -0.020817227687559614,
                0.4941921135332776,
                0.06898750192134369,
                -0.035390887297492075,
                0.06764714401247651,
                0.0050698085104012944,
                -0.11292180741094655,
                0.24370543957263419,
                -0.37313598626548355,
                0.22811087751848774,
                0.03169972027297641,
                -0.1271353255143412,
                0.21026503302506583,
                0.3046791595706045,
                -0.42124341024949746,
                -0.05991289599145665
            ],
            [
                -0.03475805321465181,
                0.04951921471689106,
                0.3540828040816259,
                -0.3219785716939245,
                -0.30083576181796273,
                0.01785633220846124,
                -0.1435972941362777,
                0.2296178290244957,
                -0.2579452803030802,
                -0.16434665902692405,
                -0.14877114297612143,
                0.13952151135278862,
                -0.10847711396522906,
                0.4122125628582829,
                -0.1898692834594845,
                0.017833556061466006,
                0.030983383984657917,
                0.3069245986408793,
                0.07588265634031012,
                -0.02681124126083482,
                0.29787065292112513,
                0.14998985530205639,
                -0.2762629905460693,
                -0.24096919154548427,
                -0.1229832064266369,
                0.11709937090172778,
                0.29542987240429536,
                -0.08359672206918618,
                0.05191098139278913,
                0.0488502828910811,
                0.14732074105267318,
                -0.3367900088735826
            ],
            [
                0.20739102480070495,
                -0.2886907434161212,
                -0.1162737681018053,
                -0.2582083655957127,
                0.13617063374754887,
                0.2284726461502218,
                0.16886371591471366,
                0.07277398148024157,
                0.018235574369648504,
                -0.31656848539180743,
                0.23871234000174757,
                -0.14335308823977927,
                -0.23251555194993273,
                -0.09230191553883067,
                -0.28314676074708794,
                0.2598163983634862,
                0.0804246275760193,
                0.24295627008828147,
                -0.027014003054613225,
                0.1392535152828035,
                -0.08220181069726688,
                0.269850259227849,
                -0.3350153264837341,
                -0.5098344567132943,
                0.06079981376799785,
                0.32547393856578055,
                0.33153781504515134,
                -0.017488170164699796,
                0.3452907014934272,
                0.04456568191059059,
                -0.16544645545417255,
                -0.04553187623527735
            ],
            [
                0.13213697505103614,
                0.027232303538428402,
                -0.16319237025249161,
                0.2665508341688145,
                0.3203700613678294,
                -0.2352405972280273,
                0.43806542869944043,
                0.276436383363117,
                0.06842796144585776,
                0.06953756422679219,
                -0.05491693719196761,
                -0.20560576106216807,
                -0.09949760928158993,
                0.5450948103129655,
                -0.3178008581948658,
                -0.09826074396013014,
                0.10072330966309523,
                -0.006452263137423241,
                -0.11709781228759744,
                0.19719670674552733,
                0.2493962312677791,
                -0.13593571115373418,
                0.02044462190429124,
                -0.17724176343547504,
                0.05801939503238325,
                0.3406385741031747,
                -0.06356200977086156,
                0.08894956215620779,
                0.1671285207779626,
                -0.07453345944252333,
                0.10437493998702947,
                0.15267222533355168
            ],
            [
                -0.32765484845204773,
                -0.03531752700590401,
                0.3153488093312875,
                -0.03334092721412525,
                0.22642640072741518,
                0.3753470444086473,
                -0.25603831321579695,
                -0.012933018491206238,
                0.1442458507189666,
                0.022905546042563906,
                0.07018335745210826,
                0.10721920362229932,
                -0.21994689839585652,
                0.317990013249435,
                -0.25162468704557805,
                -0.008577547593928763,
                0.4327220975458344,
                0.08185841392318381,
                0.0892093861964147,
                -0.10803713727713234,
                -0.07278895468155205,
                -0.5563170807531944,
                -0.04109390870708196,
                0.5461733217394933,
                -0.07755097270618906,
                0.21913481568256157,
                0.02902538193659364,
                0.18199793144876952,
                -0.09726260268662183,
                0.16723782774053822,
                -0.07817346299557798,
                0.31147991634205285
            ],
            [
                0.08623083260704914,
                0.008608889152071269,
                -0.13393355417574251,
                0.1525215441911818,
                -0.03997574562244107,
                0.2507627762395069,
                0.18251788705320512,
                -0.014297304833607645,
                0.29700863531086175,
                -0.00372672594826004,
                0.20181362161163569,
                -0.12095671169848496,
                0.04394244966025501,
                0.08551216036291345,
                0.1982769412857661,
                -0.07108556865753334,
                0.15971480086184428,
                0.41183170439351324,
                -0.007867872923083103,
                0.08020740518875866,
                0.30638737002985067,
                -0.011008979859452317,
                -0.17793614659355822,
                -0.005012037796165371,
                -0.3322697686312489,
                0.02689536504299515,
                -0.13628468147548645,
                -0.08131619411557861,
                -0.20674233508700554,
                -0.1406366307949718,
                0.3568201072423598,
                0.31846175138667493
            ],
            [
                0.002709682249038459,
                -0.016537725560234924,
                -0.16834282038301054,
                0.3393030832658073,
                0.45038974639958823,
                0.18790232417247812,
                -0.19772557632699636,
                -0.19902854491092148,
                0.3155183337692798,
                0.25356496588983013,
                0.23183675599873646,
                0.17049035152731884,
                0.3856008712137711,
                -0.10800688432213683,
                -0.2052387993235625,
                -0.06112081140119471,
                -0.19950776186239202,
                0.11028882188643659,
                -0.060608109788556415,
                -0.3423288379879565,
                -0.1061734167319073,
                -0.18358428179676353,
                -0.5400224071156734,
                0.38859753365210187,
                0.0012314296188949301,
                0.019020417257673956,
                0.016959278195910584,
                -0.41380484538977125,
                0.2434354259751691,
                0.11637898486408575,
                -0.08489596295333214,
                0.14842039101076082
            ],
            [
                -0.0163654478755825,
                -0.1307918104929099,
                0.05103582981327071,
                0.1348309927364072,
                -0.12278242911271028,
                -0.19852873114202188,
                0.049435607085552474,
                0.3433264206872382,
                -0.12065231088007485,
                -0.17540150006236882,
                -0.04095903316786748,
                -0.08225636690859063,
                -0.48439636080831533,
                0.0658922729271036,
                0.1007622039770035,
                -0.36776901057251365,
                0.24609721817823832,
                -0.05396991746977325,
                -0.05925882358003122,
                -0.39270787357303844,
                0.12107887881598932,
                0.08889655416326923,
                0.47993360668876434,
                -0.20045603836075404,
                0.0739428339851196,
                -0.1753029929574794,
                -0.3557869504863855,
                0.7458750051130231,
                -0.1006006789326827,
                0.2594447870133636,
                -0.2776866355796196,
                0.006025863652104647
            ],
            [
                -0.3726217758895551,
                -0.2057175306539016,
                -0.06313392057125561,
                0.2563447730042459,
                -0.15136802513672895,
                -0.11079048211167947,
                0.24091101561292574,
                -0.1382179353234611,
                -0.16021272337995868,
                0.15161726696943942,
                0.1299078840781864,
                0.23195856406191084,
                0.16265741012720591,
                0.07452720285388077,
                -0.04253919624593994,
                -0.24062726151001532,
                0.18141038412001922,
                0.03691980512097907,
                0.16335299276207668,
                -0.1562525422782411,
                0.2345039268608566,
                0.48789719850718666,
                0.2901240094086627,
                0.06303638910190858,
                -0.2461159583384564,
                0.24233599852506768,
                -0.47670138901570736,
                0.5327677363715624,
                0.003742592351511934,
                0.31803787859700505,
                -0.2672880122712675,
                -0.07501942903237774
            ],
            [
                0.05149222878302386,
                -0.33498307080917433,
                -0.1396929107220839,
                0.5804550604175017,
                -0.2286831576600034,
                -0.14863301007051186,
                0.023924000735280233,
                0.1745462495192931,
                -0.28265160984191506,
                -0.5798787473596189,
                -0.12320222251472226,
                0.18499462567775446,
                -0.05224264684476228,
                0.2859134406285237,
                0.13223746459882196,
                -0.19717727435563048,
                0.1095450263152474,
                -0.6591815685258064,
                0.24768088400081886,
                -0.014536614272773498,
                -0.06357593043743723,
                0.256341698827285,
                0.30272085887025807,
                -0.2615135505332881,
                0.08523982858145192,
                -0.396270924048747,
                -0.27196235543323044,
                0.35697129508143244,
                -0.1815698633162993,
                0.21561838453541987,
                -0.47582262223816935,
                -0.15685877817009053
            ],
            [
                -0.03810683765467619,
                0.1341252694218786,
                -0.06521793647159883,
                -0.1480734309433494,
                0.030931477985186646,
                -0.48218759923908694,
                0.03875840009651999,
                -0.26755310958147943,
                -0.1901590458548651,
                0.32948168615235646,
                -0.08499883094743678,
                0.2184496020643603,
                0.025129725349592142,
                -0.01874592686828515,
                0.021294785120958407,
                -0.11443006010000982,
                0.00432166904915755,
                0.24529951284238402,
                0.15871524867867806,
                -0.03928323826958198,
                -0.09363363994807022,
                -0.48670449994148834,
                0.6636266172490726,
                0.09202620091651119,
                -0.001169050522373713,
                0.21662692921018933,
                -0.19363567964262599,
                0.3371952419608916,
                -0.3997861901013379,
                0.4046265959506464,
                0.010359569538369712,
                0.07856667790293313
            ],
            [
                -0.10468303472326114,
                0.15985410209945422,
                0.1304139221202047,
                0.22742544712728996,
                0.07490058831778014,
                -0.29669486056902633,
                -0.15728769219211808,
                0.058412937461861825,
                -0.6754124734850283,
                0.039251476094717457,
                0.015690576343342654,
                -0.17937839027356992,
                0.08771063941503948,
                -0.008747468820351191,
                0.06407645928678052,
                -0.20406566310699262,
                0.18537701782958554,
                -0.3198460682279148,
                0.22130070290102818,
                -0.49583438851920875,
                0.12703459250823396,
                -0.09069836818931558,
                0.14919042566810523,
                -0.32312831788761875,
                0.02267982935887032,
                -0.1574734667307356,
                -0.021927016547838817,
                0.24952981960191611,
                -0.08743775505123837,
                0.111498604498511,
                0.1268844657423674,
                -0.018215916839450213
            ],
            [
                -0.06413236735880441,
                -0.1022817319608195,
                -0.18043636799031132,
                0.014390570079388659,
                -0.13925251838266609,
                -0.1696189788575881,
                -0.4051224111643144,
                0.03181790429746356,
                0.0074978531109747325,
                0.22159071820471135,
                -0.04769270713856108,
                0.04272488840349374,
                -0.04762737878894796,
                -0.20407047900487635,
                -0.46550025273321455,
                0.182229459261223,
                0.1583096791478747,
                -0.14515291716240356,
                -0.18733835370091614,
                -0.07564446503497975,
                0.039083738691629656,
                -0.28018683867615785,
                0.01466471235830769,
                0.06955876445356254,
                -0.17509371158889633,
                0.10513334497152133,
                0.27492482512614874,
                -0.12143239160167374,
                -0.16315905179743467,
                0.41607616994949115,
                -0.19638480862729102,
                0.13578917465058563
            ],
            [
                0.10901651585722366,
                -0.13605794913304123,
                0.08970213712787856,
                0.03192139116553341,
                -0.3958234944993204,
                0.044625550199556135,
                -0.08116288888408836,
                0.3011437496248562,
                0.4745568055484317,
                0.15117676526360369,
                0.5800536036465916,
                0.3155309184590048,
                -0.22237356200961858,
                0.3365857945883077,
                -0.034987702294071964,
                -0.2506838217456942,
                0.15836694302396628,
                -0.07727312661554316,
                0.3735954513750797,
                -0.14866004917622638,
                0.294414695383351,
                0.20454853997452188,
                0.03506365216221153,
                0.4406249744082086,
                0.04827445707807739,
                0.270497901839235,
                -0.20583711320923967,
                0.3029066347576653,
                0.00564940913090653,
                0.5052771934888046,
                -0.2508796777806048,
                0.3210152325092777
            ],
            [
                -0.45487551161970347,
                -0.160956940256342,
                -0.28554945042268115,
                -0.1850837578016732,
                -0.10753456504791917,
                -0.2729854029109543,
                0.17686102549862548,
                -0.05843851074600589,
                -0.06593655040729639,
                0.10421829438131826,
                0.16628549559250527,
                0.06054672318981229,
                -0.4373845172452688,
                0.04701800528027592,
                -0.35845099408458253,
                -0.22686340521662238,
                -0.24678130938091747,
                -0.045202730233901395,
                -0.02582075468335289,
                0.1633976147088513,
                0.1321874344672763,
                0.07913012202315636,
                0.14645832680955342,
                -0.06888875171800743,
                -0.1826249460271308,
                0.3381489317588959,
                -0.1077313128457571,
                -0.2809577594949655,
                -0.25936189924753744,
                0.37895297687563473,
                -0.2970480111055585,
                0.20166381380780882
            ],
            [
                -0.08422675667417527,
                -0.11938440204409084,
                0.17370242754928447,
                0.044362163182374174,
                -0.42757839180340856,
                0.1899244249389081,
                0.32218490835115465,
                0.1777601340365493,
                0.06818994296494782,
                -0.12434270520028165,
                0.19600238820206892,
                -0.02058995700136438,
                -0.21825529391072662,
                -0.2569819041365568,
                -0.14874514792233032,
                -0.47064289773987855,
                -0.1467862316968422,
                -0.013444886421208856,
                0.10792596922792463,
                0.08998233720427075,
                0.19332813342895536,
                0.013734518531459827,
                0.15232226124443932,
                -0.25508721591416544,
                0.00024311348304141423,
                0.29731916997982805,
                -0.24824678941989206,
                0.1856224447769108,
                -0.0678814426198989,
                0.22029163613944944,
                0.013218363319418443,
                -0.4024489782927126
            ],
            [
                -0.15723489329193205,
                0.15970372579186068,
                -0.31606443157157693,
                0.29729376520769174,
                -0.11641053553200323,
                -0.021949154401046396,
                0.11733538739525577,
                0.0750065341368252,
                0.023039558993724785,
                -0.1032103081901868,
                0.20731549066269192,
                -0.013107564871254147,
                -0.15105197347388194,
                0.005938242953873283,
                -0.24115210705257575,
                0.073467604309757,
                -0.259266828546614,
                -0.11596216095592746,
                0.17193883067224622,
                -0.2003305583629595,
                0.39794174646221087,
                0.003077611357711106,
                0.2087904316901385,
                -0.04240158169582142,
                0.12856878504008035,
                0.08375954236882457,
                -0.2899170475355543,
                0.07992329575177644,
                -0.06074300486701343,
                0.2079522488496153,
                0.23385220411247154,
                0.03081702982609508
            ]
        ],
        [
            [
                -0.26954928248465193,
                0.24570941232222693,
                0.45713217463080846,
                -0.10672559494676093,
                -0.01567059647375795,
                -0.3724794703663666,
                0.14315415284118568,
                0.10647125843991233,
                0.054863690672226705,
                -0.04966541512378438,
                -0.25224802552370434,
                -0.3364502289745643,
                0.2921977227195748,
                0.30489866023264,
                -0.3601444533975246,
                -0.28238095683537373,
                -0.052387248772625364,
                0.17878590001279576,
                -0.035014068926018,
                0.15260640841106374,
                0.01349338579091403,
                0.15581392193369825,
                -0.014049161023860463,
                0.1904281357497962,
                0.2616164272872165,
                -0.3548244594477446,
                0.2952921114645612,
                -0.29681674106961886,
                -0.028602270224742165,
                0.3244027905015963,
                0.09384772959833175,
                -0.18291478751461765
            ],
            [
                -0.13992640870154915,
                0.012909596875347977,
                -0.3040146802774516,
                0.10040503050054063,
                -0.0956519177932428,
                0.19613290761294236,
                -0.2949907477207319,
                -0.10796540074409762,
                0.28436249157671495,
                -0.04786477579710189,
                0.40334489522315703,
                -0.338062467731948,
                -0.3044318418074076,
                0.15101211479339194,
                0.2597351851187989,
                -0.168035073637065,
                -0.10171373700258038,
                0.26046021234767397,
                -0.12483279572088023,
                -0.07933509028129222,
                -0.39886787301872306,
                0.37940733129767823,
                -0.2902201934204491,
                0.3295047208502886,
                0.3898010129798907,
                0.3008175398910922,
                0.40581953835714574,
                0.3566045721024159,
                0.13997327401973741,
                -0.15042468230383718,
                0.016126475370773056,
                -0.24522267293133598
            ],
            [
                0.07022070880018874,
                -0.2618562940837991,
                0.21226224286166426,
                0.19236163938945924,
                0.03284665791235006,
                -0.16137421792143555,
                0.0669712796138237,
                -0.19553626490357448,
                0.019009040873871265,
                -0.3427098997748272,
                0.2099046293816664,
                0.15477164851082179,
                0.25827697025896623,
                0.06551802585100946,
                0.3993203127993407,
                0.1151052555384824,
                0.10562101275142624,
                0.3816943727079553,
                0.2562521501040596,
                0.27292251383914196,
                0.4039667491230954,
                0.012947124058574656,
                0.40072419165483275,
                0.394999147979592,
                -0.1897598199309223,
                0.09334684060463927,
                0.3645235355833484,
                0.07855985031207625,
                0.3054203008833583,
                -0.26172415515188646,
                -0.22610586316223527,
                -0.05855500824629636
            ],
            [
                -0.4051744842472581,
                -0.15326239218558882,
                -0.07229996619628296,
                0.24766267145178023,
                0.09900037108697424,
                -0.3450260635819596,
                0.08572969015518575,
                -0.06206825303467973,
                0.41306054100327366,
                -0.3866542130668375,
                0.2817538518863533,
                0.23490423185452527,
                -0.32968288434518145,
                -0.13393625218285776,
                -0.17810548705942822,
                0.30746415931090515,
                0.35232910785354304,
                -0.39621479180301494,
                0.16212262227156832,
                0.002662380780379048,
                -0.23237035499201036,
                -0.1534266915326451,
                -0.197456258202926,
                0.12133009937643506,
                0.1256091653680916,
                0.22266964515779752,
                0.1634896184642834,
                0.26655482982070006,
                -0.40760918017165554,
                -0.20474603458119953,
                0.11609928872827131,
                0.12324022356674462
            ],
            [
                -0.32299293541084734,
                -0.2096577579588384,
                -0.27107227042927456,
                -0.1353739822596377,
                -0.38178876543060414,
                -0.02746049522370519,
                -0.005729328858932304,
                0.08335504380126164,
                0.20190337575872744,
                -0.12481391630361204,
                0.05351617030207022,
                -0.35233394823567893,
                -0.36211952477687903,
                -0.35579027596993007,
                -0.3099203113608728,
                -0.3428557858382362,
                0.014708762468278739,
                0.10772774702777613,
                -0.3915830291814038,
                -0.11142857427226549,
                0.16294600293304237,
                0.06811613060447058,
                -0.36043429775667213,
                0.3800132584107523,
                0.2395745084138701,
                0.10011143175001204,
                0.25692301557656644,
                -0.3316910123210611,
                0.3059393668717521,
                -0.27190134454568876,
                -0.032026574003338616,
                -0.4980744615520695
            ],
            [
                0.21555288805964062,
                -0.14740364967826972,
                0.37912154925969266,
                0.2396921706410405,
                -0.43415053191413294,
                0.20484700420789217,
                0.3426859201872301,
                -0.22012848346766212,
                0.2670509632109239,
                -0.002301052605212019,
                0.25530081877622246,
                0.010556355094856334,
                0.1912216130599872,
                -0.004419889290128253,
                -0.07947939623117012,
                -0.3695479246858154,
                -0.0545807976050018,
                -0.22752056735721024,
                0.43021553973914023,
                -0.04339488399849418,
                -0.35591478490009887,
                0.18518628604061116,
                -0.1151204836309967,
                0.2358996177776288,
                0.081364164036827,
                -0.20746823195265157,
                0.3844571478296865,
                0.2024096603513895,
                -0.3060491916649053,
                -0.4010488302708542,
                -0.4077293729593614,
                -0.45001335195787184
            ],
            [
                0.20015117526273404,
                -0.4189147415467143,
                -0.21917239784622852,
                0.2928285245893101,
                -0.3275921294799064,
                -0.24025612087099216,
                0.2343182463393729,
                0.15205110697594904,
                0.17658847198848968,
                0.07916136377228372,
                -0.4307032349576635,
                -0.4210317050056809,
                -0.10123164592629494,
                0.4095138261806931,
                0.1207944510087516,
                0.2281933638838355,
                0.22366347512307097,
                -0.24163892962449254,
                -0.3079233883701564,
                0.2741071057596734,
                -0.43104239133905153,
                0.09802208497825825,
                -0.194367877231451,
                -0.18524059702585183,
                -0.026511080462635728,
                0.4109890620143662,
                -0.3599062566272753,
                -0.05208730133029011,
                -0.08062058062166387,
                -0.14428732540468564,
                0.41704848801157535,
                0.1696670112457031
            ],
            [
                -0.05411874502440946,
                -0.13185040743687565,
                -0.38217702338964393,
                0.09459600478370488,
                -0.36384769166375325,
                -0.11833216939279805,
                0.22015077741847394,
                -0.07845838382016374,
                -0.3466326788043339,
                0.030199226979613684,
                -0.4233012393136441,
                -0.03204292484912275,
                0.008400800531014947,
                0.4181955137975056,
                -0.0016839919402553375,
                0.029956794880060235,
                -0.04444776890381061,
                0.16955887231963263,
                0.10705436605276904,
                -0.16213362913529622,
                -0.041869573094282526,
                0.37880198937216675,
                0.33770650463460733,
                -0.24155291983646826,
                -0.233432509500624,
                0.23373988977465338,
                0.2578220577928197,
                -0.3248782897157407,
                0.1040337527930436,
                0.07503621100579413,
                0.3496943701677234,
                -0.04511218100985451
            ],
            [
                0.35727333542936063,
                0.40636694653895356,
                -0.22304995246798118,
                -0.15616283239036363,
                0.19787912163517157,
                -0.15997434651672607,
                -0.050517156723966415,
                0.09050173677964171,
                0.2813270127490862,
                0.3400993219203539,
                -0.06678490723273842,
                0.2530307539768454,
                -0.11107647471873512,
                -0.3117889281412264,
                -0.045036763408040734,
                0.14458445991045998,
                -0.31324225154198093,
                -0.3752992933965602,
                0.05119461747035902,
                0.21790222721564564,
                -0.23327092804466362,
                -0.023661879590574954,
                -0.08510410876669801,
                -0.21078407646960745,
                0.034957078357242315,
                -0.2907870206417296,
                0.3917093873355154,
                0.07509992980708131,
                -0.16022712930283156,
                -0.19440883790462588,
                0.024229718536579688,
                -0.261753479191487
            ],
            [
                -0.10720969034474107,
                0.37623582866056676,
                0.02910756577478435,
                -0.4090963441310306,
                -0.37678977157211035,
                -0.16317856595070324,
                -0.11605636939021319,
                0.3848689285652833,
                -0.18872022282263948,
                -0.09468075461496343,
                -0.02611772998782966,
                0.02935847226602409,
                -0.2034345647193472,
                -0.4343942201432079,
                0.4238430549673535,
                -0.2538220489129534,
                -0.370555037278209,
                0.012465135774952132,
                -0.11777650088878053,
                -0.1508324836954381,
                0.22857806000064612,
                0.2201499165517998,
                0.12925604849820221,
                0.03757174811201779,
                0.4146079262790994,
                0.23910551663527832,
                0.02786966806142743,
                -0.4280489561896798,
                -0.045727238254660296,
                0.15461031976020984,
                -0.23895361946719146,
                0.08511409606468029
            ],
            [
                -0.2676296935710104,
                0.3172728872362422,
                0.1922339459248334,
                0.11667164033326431,
                0.1326570616636648,
                -0.3959642851041127,
                0.3987161916182639,
                0.1996056355254322,
                0.24220228638045532,
                0.28409808325576835,
                0.20957414177160782,
                0.20277479602387471,
                -0.4018887451435367,
                -0.021792337485220234,
                0.29159693216794463,
                0.14549813145645013,
                -0.16035180750960853,
                -0.40057543201346035,
                -0.3964288558343463,
                -0.28971962170784665,
                -0.17945344954738704,
                -0.4470611343528974,
                -0.04998084543285588,
                -0.03543887732605886,
                0.2490359193042415,
                -0.16417686827851372,
                0.40054047557972977,
                0.24914837028999542,
                -0.03884376275373345,
                0.2024186795619373,
                0.3724146749135729,
                0.26348992850455516
            ],
            [
                -0.27388256566573943,
                0.1171145599097096,
                0.2860834330689535,
                -0.07885235018153891,
                -0.11577895707095241,
                0.19843950433524582,
                0.25345306944600693,
                -0.0732743407440554,
                0.2643999691675197,
                0.20703063545297362,
                -0.10076302027283773,
                0.4106563547628551,
                0.3092326961414013,
                0.24102007143412335,
                0.34552426547538384,
                -0.1887732400056521,
                -0.10615036329258361,
                0.25422563898014944,
                0.06548527353698533,
                0.23758367319081802,
                0.13908101849958218,
                -0.2718768333224201,
                -0.2730441134050226,
                0.03122135716981629,
                0.01789535397098464,
                0.3018314164688861,
                -0.13835512509965003,
                -0.0222381483369529,
                0.32998809810805035,
                0.26460115682895924,
                -0.28518902759093756,
                -0.006108269609489836
            ],
            [
                -0.2523234461444994,
                -0.18685307202898896,
                -0.13084744858033165,
                -0.17295433681600458,
                -0.33190754859735516,
                -0.295458135494739,
                0.27122845573778903,
                0.17068763042902393,
                -0.036058485676180356,
                0.0031192770139420014,
                0.03499674913959147,
                -0.11648483446148916,
                -0.3937706044102161,
                -0.16511251419537715,
                -0.1635263919748859,
                0.2588388573235572,
                0.03024218740589381,
                0.25566124941849333,
                0.2405498643645703,
                0.137264640941151,
                0.2891236353226693,
                -0.08949873582810346,
                -0.17596052721642247,
                -0.1672156075080887,
                0.0433081658817474,
                -0.39292138417900146,
                -0.34036981931505095,
                0.30277455499281325,
                0.3209420456085036,
                -0.24120342609633347,
                0.20085767031477242,
                -0.11207648544895918
            ],
            [
                0.165033551343066,
                -0.20782693921252782,
                -0.20095943509154282,
                -0.3875207119226233,
                -0.42813353621175254,
                -0.36586223731716466,
                -0.2451409835817765,
                0.05051661903816997,
                0.3167490210729367,
                -0.34484468117216943,
                -0.01792268379728584,
                -0.10436167300134212,
                -0.295059661387956,
                0.16706925361389124,
                -0.17777504568850697,
                0.12883228675072525,
                0.0038945400253508,
                0.41154786082465983,
                0.34061602785605916,
                -0.29010687725897294,
                0.249732732315612,
                0.18975059156208102,
                -0.3492218629470032,
                0.337799099879027,
                -0.3579038764285377,
                0.30204732069803475,
                0.3436723868592859,
                0.3005846204717829,
                0.15160646770387443,
                -0.2435459966344017,
                -0.2127182054233576,
                0.4306653834325549
            ],
            [
                0.048000766187538804,
                0.035402802423724025,
                -0.2516619425342495,
                0.16370493538813158,
                0.35171886264716773,
                -0.20643096352907495,
                0.2371838357693152,
                -0.2570506773854524,
                -0.0796389751304085,
                0.30006616890328963,
                0.3599005307320578,
                -0.1324107567915165,
                0.22453902199148795,
                -0.2470970352880365,
                -0.351946651643741,
                0.04533627236847489,
                0.40496310814135783,
                0.19955614276508776,
                -0.37558234023396564,
                -0.37078451432725285,
                -0.11069476445065814,
                0.3478749778896225,
                0.4164458493146632,
                0.4213558285272439,
                -0.4014583696471764,
                0.279266183071552,
                0.4264462301508117,
                -0.4195634939160589,
                -0.1675359133819357,
                0.04081867252540447,
                -0.009793844696181329,
                0.34072623264011864
            ],
            [
                -0.2564265681888041,
                -0.19780182758628198,
                -0.20417341687246213,
                -0.21075580869690724,
                -0.30901358730890643,
                -0.3304652489959754,
                0.26690620261437936,
                -0.3656863230135528,
                0.13752886916281548,
                -0.03765833690809684,
                -0.3926516249688132,
                -0.30024680034015044,
                0.013409650210482106,
                -0.27910738822438413,
                0.411268554045745,
                -0.10283316772726668,
                0.15989429499613053,
                -0.12401290328632508,
                -0.08050229206768734,
                0.40051689959783854,
                0.16013302927086087,
                0.44740875120172824,
                -0.29888462774056146,
                -0.305642747028608,
                -0.07209959111128182,
                -0.003336606426058152,
                -0.4012135949287701,
                -0.12478693598817853,
                0.2627743201148443,
                -0.09348415508016227,
                0.2400794045925809,
                -0.47699990990157604
            ],
            [
                -0.11882811868978946,
                0.0254825842202567,
                0.24371964978440921,
                0.28392427464852565,
                -0.030923023761934794,
                0.13816530557873277,
                -0.3675779406812311,
                -0.3097171026894899,
                0.4136923827073016,
                -0.29632681541797273,
                -0.4415538088911682,
                0.3022696877061085,
                0.276792444986315,
                0.10011044429159892,
                0.39933862250853513,
                -0.1201300473191986,
                0.025932456555985403,
                0.23510156911265948,
                0.41607350985447394,
                0.06229172670980296,
                -0.008635093149652244,
                -0.08369717782774919,
                -0.3965629222407042,
                0.040939315147948886,
                0.21666906101814143,
                0.4166060553549391,
                -0.0015096905597584698,
                -0.38761356164322947,
                0.39361598150064364,
                0.06502327583287104,
                -0.1004598866431401,
                0.35206261713229636
            ],
            [
                0.24359737843053603,
                0.43625177502278756,
                0.2547600655538993,
                -0.23288915627467024,
                0.0840114845518243,
                0.09136923639876082,
                0.27601002466814734,
                -0.22036855510805534,
                0.28560387148439614,
                -0.3574097429033986,
                0.3300734404919705,
                0.2607817865850737,
                0.15956811041137262,
                -0.013994744725123999,
                0.2685862810785307,
                -0.30068609586089934,
                0.20431813113552544,
                -0.09780323906730327,
                -0.19757122843469926,
                0.47344768749162214,
                0.41613094840309356,
                0.37536248116956855,
                -0.2808111904514774,
                -0.28801775551212305,
                -0.37627896965526336,
                0.2739960132137966,
                0.08146929418363802,
                0.2142129900263763,
                -0.06104364925560329,
                -0.019913251537090775,
                -0.2535391744737992,
                -0.14137308514042476
            ],
            [
                0.0955641620158699,
                -0.14045975541377784,
                -0.33965738193804756,
                0.09935108655859956,
                -0.05007595394313651,
                -0.17168259543645184,
                -0.38533246078102,
                0.09405503051306151,
                -0.11080057933937539,
                0.42528946277769264,
                -0.09407789690725381,
                -0.3782225077686036,
                0.34362918726946734,
                -0.2768808735872591,
                -0.22407926776734746,
                -0.07514241253229652,
                -0.16705299329180293,
                0.29192000816330205,
                -0.16647403908032102,
                -0.27592413031696406,
                0.37351522761104294,
                -0.28735711458353164,
                0.08190383777204097,
                0.1409982512684024,
                -0.12576199710123465,
                -0.11732261751864279,
                0.17711317728024545,
                0.056814920961851756,
                -0.06616770215212166,
                0.15271743844509342,
                -0.4030359324840507,
                0.46139334227631584
            ],
            [
                -0.1646504719177246,
                -0.18462738168526588,
                -0.03670624126074086,
                -0.26915175830451127,
                0.1465819978286988,
                -0.4131167513963602,
                -0.1662734533683628,
                0.3399984785593437,
                0.11712506780229827,
                0.21316528297459106,
                0.20848722884504403,
                0.4188830352350568,
                0.08066943019696259,
                -0.3193520588105459,
                -0.23590588882613037,
                -0.13529274953166212,
                -0.1841363719930318,
                0.06365008059061383,
                0.28618918982528224,
                0.4258748508172901,
                -0.30253331144243356,
                -0.06180485136593375,
                -0.2833968577973097,
                0.33166523169145146,
                0.09658926164674075,
                -0.05937996941582395,
                0.14955937182877782,
                0.09042954646860063,
                0.19650370356974345,
                0.27799093105852046,
                0.13373687893716427,
                -0.0006404130612743185
            ],
            [
                -0.3691793148360886,
                0.08075256886698835,
                -0.16776669364910143,
                -0.33652736975988606,
                0.12001319881534679,
                -0.13386171557263107,
                -0.34361794146395436,
                -0.28818005144400966,
                0.18729363876850963,
                0.17061851970989236,
                -0.0034528443866932977,
                -0.099550045098327,
                -0.24409554596345628,
                -0.3319776856547477,
                0.34632879319382226,
                -0.3095950834358523,
                -0.41739516993997566,
                0.1452886095101823,
                -0.0998385102488747,
                -0.25894164923889895,
                0.2369307037194245,
                -0.13994563304912874,
                -0.2117344769580649,
                0.3308223403800781,
                -0.42310467832483634,
                0.007479748906765141,
                0.4252355786670823,
                0.17067236322832885,
                0.1837832240239137,
                -0.14972101848398373,
                -0.3697200836914359,
                0.24139140724441163
            ],
            [
                -0.2755640765195822,
                -0.4087876128435227,
                -0.10905261648289033,
                -0.34228018757291107,
                -0.3786305447086969,
                0.34419738017445156,
                0.07900050288241751,
                0.030211109864248246,
                0.1075047122641233,
                0.011270131845034842,
                -0.02168542735281831,
                0.2791029286778558,
                -0.30591013842291176,
                0.005718983613747519,
                0.40412768467116306,
                0.016791065280041782,
                0.38640760812634384,
                0.10732221727372564,
                -0.08072727533920195,
                -0.3524157369445828,
                0.03147931639866033,
                -0.4402858740209624,
                -0.2681754097778153,
                -0.04941511891861101,
                0.14604473749350433,
                0.26214236636781796,
                -0.3928068158647109,
                0.14370451522870129,
                -0.2934381641515252,
                -0.2478611720292614,
                0.14098548006238834,
                -0.18235272278725187
            ],
            [
                -0.22677297042668132,
                -0.24020556416856287,
                0.04658533065300891,
                0.20447272273795838,
                0.21966550185259295,
                -0.2782013125485072,
                -0.2986045256099,
                -0.0818246632754828,
                0.16275712032402342,
                -0.17697646182050622,
                0.008903200470821687,
                -0.0337179363129515,
                0.35775803668899314,
                -0.32228660564867984,
                0.19243291822299055,
                -0.31235112233513657,
                -0.1857942171414286,
                0.019345542847822368,
                0.3553989804501814,
                -0.0673594401912156,
                0.08309749043974986,
                -0.35389553367492427,
                0.214135523699755,
                0.21357637774431507,
                -0.07424206323392953,
                0.3339857710270469,
                -0.32226987020867304,
                0.23674856287502288,
                -0.3720317235520722,
                0.410292711573126,
                0.1918351552163685,
                0.5059698991726193
            ],
            [
                -0.31412506049817024,
                -0.39810568270742636,
                -0.40904980284460435,
                -0.045212384905429816,
                -0.015033690836085141,
                0.22374329692410772,
                0.28659093259929896,
                -0.052359459891107095,
                0.3979956469598697,
                0.34990581570448787,
                0.23232300865627192,
                0.1566396530433,
                0.4022178290154069,
                0.3145696638023563,
                -0.4113526331912409,
                -0.028730482632146614,
                0.28255003264841805,
                -0.04894675621399117,
                0.09160986448752792,
                -0.35432867026822273,
                0.33466197481603543,
                -0.08776186780599604,
                -0.09811237576420209,
                -0.09362043376228148,
                0.15184902637996067,
                -0.045793360826353824,
                -0.1169276545497895,
                -0.25688858640275075,
                -0.03428975450593499,
                0.2739794702392284,
                -0.38697306428900996,
                -0.34329925395494415
            ],
            [
                0.3927958249980462,
                -0.007424265397742962,
                0.40359513897032745,
                0.2993691537090061,
                -0.1775449745175928,
                0.3828960570312812,
                -0.11020982909872182,
                -0.2436285781545812,
                -0.3500764506600501,
                -0.12413647152213066,
                0.33283585043605246,
                -0.3771912131082316,
                -0.1636225309129235,
                -0.2684891513826551,
                -0.23316862871702912,
                -0.408673923069214,
                -0.4169455239361096,
                0.0331782684283685,
                -0.006957676516644125,
                -0.16471378596861533,
                0.003935761850757002,
                0.40140046898668946,
                -0.312049835840516,
                0.04358484720213008,
                -0.3623016942568223,
                -0.032452299588306914,
                -0.17861098428697175,
                0.12908673693511816,
                -0.3372974049956153,
                -0.22178310490742192,
                -0.06761724349288281,
                0.2416445588401764
            ],
            [
                -0.002669561806897238,
                0.19046095475336447,
                0.13734917618994122,
                0.33429903586270776,
                -0.43099634398475,
                0.15681263069764015,
                -0.039205794944230994,
                0.23190033224873458,
                -0.14678859742347336,
                -0.2747980035161912,
                -0.014421311579687698,
                -0.2572485252883835,
                0.30892538854178503,
                -0.051204924953005396,
                -0.327932651569109,
                0.158191965342463,
                -0.04233723367617009,
                0.4069429026018838,
                -0.13233487164785615,
                0.33275740897702766,
                0.38477757493161063,
                -0.29310087888357134,
                -0.17319564128547432,
                0.1878557377842031,
                0.4014347176775723,
                0.055277683480961556,
                -0.1112989660337565,
                -0.050778460990829465,
                0.02037430089013913,
                0.3258788146680501,
                0.03785487384028914,
                -0.27828226261413486
            ],
            [
                0.14529712626455218,
                0.3751455866894021,
                0.09764122910947859,
                -0.15672702905100291,
                -0.06075840030261109,
                0.08006129116657416,
                -0.055663454836280525,
                -0.4189520867186801,
                0.408802127859292,
                -0.2850048638404397,
                0.1809033050602164,
                -0.32580898201153685,
                -0.14178323546084068,
                -0.4314828414277048,
                -0.27592738998933564,
                -0.33365611959557767,
                0.17795630276061797,
                0.34305428200060045,
                -0.27303662567108755,
                0.27044081771673,
                0.3878686693679571,
                0.37334329546057815,
                -0.1721717448670239,
                0.04638867084006399,
                -0.13263887889827994,
                0.3160281215149456,
                0.3355291890243019,
                -0.2920594956337963,
                -0.06491553514509635,
                -0.36396262902233173,
                -0.217961418345529,
                -0.22142985450244823
            ],
            [
                0.36966410691956,
                -0.1535986191900556,
                -0.11125662138219237,
                0.16215830616824906,
                -0.18584664825444133,
                -0.18623624160709223,
                0.14713272842416364,
                -0.11667093159750064,
                -0.0513472178647419,
                -0.21391520473678294,
                -0.33128644309153565,
                -0.017557390010982863,
                -0.277733647900707,
                0.04847740170180862,
                0.08901979098449206,
                -0.2658780445658694,
                -0.06802018866281259,
                -0.4414470583017235,
                0.13336438061179973,
                -0.25166357531164923,
                0.21178608389697218,
                -0.3984624267623811,
                -0.12046002574287203,
                -0.2735386143289908,
                0.00851871380753279,
                -0.4223986744706699,
                -0.31156840285520787,
                0.4430298164083888,
                -0.379185508884795,
                -0.21763254089069684,
                -0.2748072782417174,
                0.1751307183106498
            ],
            [
                -0.06472460762204815,
                0.2075225461488538,
                0.14516936227990165,
                0.07339638474614432,
                0.25498787482645907,
                0.07424514675611964,
                0.020121389645527926,
                -0.008037933879183192,
                -0.05476147593366117,
                0.06810852147818848,
                0.30775559237766875,
                -0.3378283290666839,
                -0.18405621401124167,
                -0.1903765420545859,
                0.23946815102688665,
                -0.2552079679353005,
                -0.3908923899965522,
                0.2062862601007682,
                -0.3998418482777348,
                -0.1708823747780903,
                0.41938273279760585,
                0.1508061563002829,
                -0.3761528986128643,
                -0.33976666651282894,
                0.4256474397346616,
                0.08304816618459816,
                0.3696709049807061,
                -0.3370997366086498,
                0.42533413743597587,
                -0.11886848323825264,
                0.41046771454684994,
                -0.1357235056027149
            ],
            [
                0.3669151472320868,
                0.12782045244109597,
                -0.44503696996412667,
                0.3761860163612505,
                -0.36827305082591155,
                0.24063850951747867,
                -0.45482404675010113,
                0.38288681119820783,
                0.03210629286935305,
                0.27083647014935236,
                -0.19188012502008664,
                0.4260755621316511,
                0.0895338362590421,
                -0.25495657910741565,
                -0.30413473030939525,
                0.16528386937248032,
                -0.3360261954612917,
                0.12596427903783336,
                -0.3967924293560028,
                -0.3037780470350288,
                0.27666404174914516,
                0.2559615768606318,
                0.017788434609275955,
                0.3359678898006238,
                -0.1781686852593324,
                0.2054876530663938,
                -0.20021865615561119,
                0.3763422645075976,
                -0.37680021194466395,
                0.37680293122447717,
                -0.016044518660542243,
                0.16776216215224332
            ],
            [
                0.011262754475024549,
                0.38242667282684595,
                0.43456383621966876,
                0.23916751489944285,
                -0.034458612842362527,
                -0.13819224241361608,
                -0.08988814591523751,
                -0.2214434155207482,
                0.11746978168065415,
                0.1561557914011741,
                0.3186090049819848,
                -0.12600704073287203,
                0.038909741937625066,
                0.42643668304531074,
                -0.0697418346921155,
                0.3705044339356104,
                -0.27721322304727336,
                0.19314364587242824,
                0.25187783757398674,
                0.4556499687251162,
                0.03947426785957654,
                -0.16950438930531378,
                0.15574875720272666,
                -0.17024771475503112,
                -0.31471602414812483,
                -0.28545383346954734,
                0.25458813721436846,
                -0.22579501186474715,
                -0.34049522490896145,
                0.13481072574013347,
                0.3605156572681821,
                0.04321256140664913
            ],
            [
                -0.09529675055408353,
                0.1170418375574599,
                -0.1028421102972946,
                0.12747889913477098,
                0.39263931459903906,
                -0.17368034862567322,
                -0.09987283086332302,
                0.2045114219694049,
                0.42760119215662445,
                0.30292816637492104,
                0.04033570250958282,
                -0.1581570703258797,
                0.31272251413497576,
                0.363732638122317,
                -0.3358143710736111,
                0.024406095374177813,
                0.046032948203956536,
                -0.09848927607032816,
                0.24805954748259088,
                -0.15531706967748335,
                0.39122023645844606,
                0.2350396263860324,
                -0.1431178048436777,
                -0.08011363407768175,
                0.04071634608178155,
                0.0006895347642125068,
                0.2897921134173529,
                -0.16422881103123266,
                0.09134169321657773,
                -0.2040628267679103,
                -0.17400005018407838,
                -0.062310574591287686
            ]
        ],
        [
            [
                0.05409330911637779,
                -0.06134218694111762,
                0.4113250436803447,
                -0.13625100492484388,
                0.17951426841108167,
                0.38944584894121453,
                -0.08537125663402824,
                0.29207444121701037,
                0.07465337230051668,
                0.23096242038301049,
                0.2800288855017244,
                0.1955105368104165,
                -0.2674229746522123,
                -0.3327435158314397,
                -0.04417165313291908,
                -0.002501181956285326,
                -0.019167564432515185,
                0.009593755079188112,
                0.3572976656718097,
                0.4298957567845493,
                -0.1544865276792346,
                -0.229776516498525,
                -0.11424104988314064,
                -0.2862033870185377,
                0.12815195770643942,
                0.39596098031570215,
                0.2790505802029471,
                -0.14810293317468198,
                -0.08342463946302306,
                0.2993016569496899,
                0.37202564624414636,
                -0.21500437517890525
            ],
            [
                0.318836179659599,
                -0.24659730600258686,
                0.2447740497933756,
                0.14652394251921538,
                0.05537909460308768,
                0.2798632715143962,
                -0.24373159816643994,
                0.23842309220601998,
                -0.25985177452325203,
                0.237352487198464,
                -0.28523463209158545,
                -0.3741732618171633,
                0.10416093256693935,
                0.36651636616683625,
                0.028706774491196043,
                -0.030542523286528126,
                0.02652336241874317,
                0.36231000734695645,
                0.22285251570851808,
                0.2052619554353865,
                -0.406891839337924,
                0.10521488631812013,
                -0.10193127624002933,
                -0.3033188226188108,
                -0.0007607329173586514,
                -0.10029577352340203,
                0.2081786400384664,
                -0.25861316196295253,
                0.10683450388756528,
                -0.24664748390584873,
                0.08896390698416058,
                0.4121522869558384
            ],
            [
                0.205977080430462,
                0.19969031791915887,
                -0.06485746380207746,
                -0.21907313951896182,
                -0.30229086253956505,
                -0.22966461438545746,
                -0.43698350779910017,
                0.1300188264637761,
                0.3890308872901426,
                -0.2146879916833386,
                -0.432161846259878,
                0.16884545039420343,
                -0.0810104258420112,
                0.0024395272873132465,
                -0.2571360381310029,
                0.18370297902655083,
                -0.20008132548077476,
                0.14061458586069803,
                0.22495787310246682,
                -0.33169965190936196,
                -0.3892911220450987,
                0.3747267491118262,
                0.21564613917822395,
                -0.2512834760710769,
                0.27573909622126613,
                0.17560371689640591,
                -0.32142209779061537,
                -0.2858153686422727,
                -0.06390433667902551,
                0.17646616680351943,
                -0.259470279043846,
                0.34634177937562827
            ],
            [
                0.3755189896101955,
                0.23616563456423892,
                -0.4379718347520059,
                0.3455747099450312,
                0.1562075800345268,
                -0.07610214790757537,
                -0.3568125619763273,
                -0.4313480212489955,
                0.1565630994326436,
                -0.3402883842540737,
                0.43803873099565405,
                -0.03258738465086962,
                -0.3789204087071407,
                -0.13017091078185206,
                0.0956196415593661,
                -0.0282352208376306,
                0.10513691196804954,
                -0.3769843281263526,
                -0.39820830343802893,
                -0.21687406929103753,
                0.16781570643957044,
                0.23920093765242365,
                0.22395057327221438,
                -0.3419221227728772,
                0.3422007841708751,
                -0.07386891225882432,
                0.17732519959214585,
                0.39469880264483287,
                -0.06428797731136694,
                0.39257908728229124,
                0.12079752781058278,
                -0.05277927139352445
            ],
            [
                -0.11945981024531449,
                -0.41031505671593577,
                -0.27902716160923124,
                0.2782401766448771,
                -0.3493557505989567,
                0.2853842664330155,
                -0.014935974600948473,
                0.09224105105272928,
                -0.009308657770147017,
                0.03671053378925307,
                -0.03420906947703219,
                0.1852207081734707,
                0.012071550325304261,
                -0.326490569364934,
                0.015708570812305252,
                -0.05656232710107156,
                -0.007648885115549936,
                -0.17571610542219496,
                -0.4183741672868375,
                0.28969837152188654,
                -0.15111968170176393,
                0.14430169519532948,
                -0.04761335899814261,
                -0.1874251150575818,
                0.12588373785833723,
                0.0014612161834919404,
                -0.42100677815720744,
                0.3445643602108108,
                -0.394377145807389,
                -0.0428933429498413,
                0.39545330170295495,
                0.06658682261088285
            ],
            [
                -0.25763759086541244,
                -0.3777607862927736,
                0.3419379871379982,
                -0.052861949656359514,
                0.2574251737117368,
                0.057232453684230675,
                -0.27172388705083655,
                0.32316904208355296,
                -0.10509088299856993,
                -0.020615026020228105,
                0.04247378087686589,
                0.038426024124013074,
                0.25932007088595344,
                0.023187452516638424,
                -0.020118710571548112,
                -0.20756840068477492,
                0.40392134505541055,
                -0.12280238662564089,
                0.15314348234604983,
                -0.43138954191782597,
                0.03164175838438677,
                -0.39404672339728464,
                0.2350829538573095,
                0.3024351267180629,
                -0.10793296465940119,
                0.18827407440394195,
                0.19839354274845514,
                -0.39581096690989737,
                0.06865426730451284,
                -0.04187548868768785,
                0.24702728975362304,
                -0.12659530057874263
            ],
            [
                0.17228858577061598,
                -0.24335157067245666,
                -0.169833214839167,
                0.39582674213065977,
                -0.4409711563448236,
                0.21282126917590946,
                -0.19853297097090153,
                -0.21107632106393873,
                0.14253679885793966,
                0.22198377235621503,
                -0.4395046403490436,
                0.12941113766214635,
                -0.17789880533207433,
                0.05738320952209172,
                -0.21945147830385692,
                0.3746804069099558,
                -0.2178580007575626,
                0.08482241865550212,
                0.31987091015462205,
                0.22283571634852015,
                0.1545995207922627,
                0.40933673407396687,
                -0.41423911422688064,
                0.02123416412256519,
                -0.24077105633085502,
                -0.41252489080191124,
                0.2617839567720486,
                -0.4364956247295586,
                -0.3451565124472378,
                0.15472609998234302,
                0.08080681381615798,
                -0.02135194252153908
            ],
            [
                0.09228954973701552,
                0.2884846115391825,
                -0.16059321931059492,
                0.31825309154365333,
                -0.1373929052190398,
                -0.03168373221077607,
                0.28145179248238916,
                -0.20215721794289065,
                0.30277235354283083,
                0.31433959196619743,
                -0.29580039930959107,
                -0.1940411360048595,
                0.37190355921579626,
                -0.3673947278519498,
                -0.22494436457430092,
                0.39850393604027845,
                0.11824737892660848,
                -0.025444358691239812,
                0.15021681674782758,
                -0.08947682910928212,
                -0.26456813005732904,
                -0.07915499254085244,
                0.2306440397227661,
                0.00990579736298038,
                0.019617107892977406,
                0.14115334217997552,
                -0.18510671004147514,
                -0.28952164061929636,
                -0.1714243279869763,
                -0.1631286737321648,
                0.2476035178090066,
                -0.4417815483034923
            ],
            [
                0.1525152907488195,
                0.3447650699673894,
                0.11650541791742228,
                -0.08327041862922782,
                0.4082803126208706,
                -0.21257372503950087,
                0.0859138600071002,
                0.2136980262968511,
                -0.2696902161959371,
                -0.12935451387855307,
                -0.2252695455687822,
                0.23657145916025404,
                0.17008414798513258,
                0.26731343809213987,
                0.28174892239159904,
                -0.39798240169745086,
                -0.07981446505767818,
                -0.12390010483778009,
                -0.29654458346685514,
                0.023818935855087525,
                -0.28755957270968086,
                -0.228608268846006,
                -0.20259378628762978,
                -0.031183468733061263,
                -0.2761114001108639,
                -0.22536387609968292,
                -0.4154423111786452,
                -0.39478620467031594,
                0.010996883606258997,
                0.30745828890040683,
                0.04711190324249422,
                -0.06303910902362946
            ],
            [
                0.27284004104138204,
                0.23044354548473756,
                0.21134070537351146,
                0.316750452793034,
                -0.09450742324760024,
                0.03316325492202914,
                -0.35915521617068397,
                -0.1551251637630849,
                0.38879357564986317,
                0.27795137630857425,
                -0.26250467571608266,
                0.26585256022348425,
                0.1685160021034869,
                0.22865784846077616,
                0.3914395326052929,
                -0.3441525397868897,
                -0.16049732049673865,
                -0.4091979147585783,
                0.20840199176956695,
                0.01110091030324597,
                -0.3750047967603344,
                0.22665325896884725,
                0.06803256568329119,
                0.09543642624335978,
                0.4324125086863291,
                0.3385901963202222,
                0.2447194120551952,
                -0.43185064461356576,
                0.11439959434036713,
                -0.05553676929382345,
                -0.04253182497284599,
                -0.05671734799854835
            ],
            [
                0.002257116951821026,
                -0.4071725014756848,
                0.35534732458067625,
                0.34702314628154224,
                -0.24703230556691716,
                0.37377337383998493,
                -0.10094672232974002,
                -0.14162079557310966,
                -0.1875909339133946,
                0.17481027172441044,
                -0.3003644081350115,
                0.30070979842599915,
                -0.014555921176255947,
                0.29429468608390436,
                0.21022612681017241,
                0.03153911114103702,
                -0.008833874751047318,
                -0.3527847432026671,
                0.16721513117148515,
                -0.27244471096083767,
                -0.053593916138446496,
                -0.18211947610621534,
                0.039459221468945316,
                -0.1573622882076007,
                0.40523125442021163,
                -0.3032628267723154,
                0.26828502939589843,
                0.3999105865832437,
                0.4585608670684992,
                -0.37870589540097976,
                -0.21890167198479177,
                0.11075186895595922
            ],
            [
                0.08676367730785914,
                0.034135396458335306,
                0.3783138449204365,
                0.30978734758505916,
                0.30538652352263934,
                0.00787419555963674,
                -0.0915159357860948,
                0.20503307087211028,
                0.07708493912829574,
                0.4121253020444092,
                0.07571372589846663,
                0.02730935392377472,
                0.27686435228555173,
                -0.3518796968913248,
                -0.2756105937544917,
                0.3740447955089187,
                0.07120524861859905,
                -0.255039724366456,
                0.11719469292258382,
                0.29014402864919187,
                0.14735289790949746,
                0.38405562959520834,
                0.2257762041672337,
                0.4369372819188395,
                -0.246086514844143,
                0.3709145384835898,
                -0.021626347466799905,
                0.054817946807794005,
                -0.09533953065775799,
                -0.2927167929319133,
                0.16127468961649138,
                -0.16277875310889667
            ],
            [
                -0.015158584719358555,
                -0.34170106597958655,
                0.05652593763197887,
                -0.36237542587371047,
                0.27814911186539937,
                -0.135494889403703,
                -0.24489129817763308,
                0.0552030651467274,
                -0.051342522964073746,
                0.15299734305256907,
                -0.29202913014470977,
                -0.27289670362161556,
                -0.26515226348883897,
                0.2216004936447536,
                0.2430370728065127,
                -0.24207218635411934,
                0.11427475113093584,
                -0.1024775408919332,
                0.3741818912475792,
                0.42624207571575984,
                0.09642402944769231,
                -0.3883403858387322,
                -0.09824197424368672,
                0.06663328529263661,
                0.0016601045793085654,
                -0.020941770649993495,
                0.21885509571123052,
                -0.2672443927713416,
                -0.05352631303241827,
                0.16682411250290727,
                -0.04921249466594355,
                -0.019462530681257556
            ],
            [
                -0.24774720746646803,
                0.05344494283689256,
                -0.21760194123133828,
                0.04427552781394285,
                0.12189335642964326,
                0.2781198672287148,
                -0.016817944174068858,
                0.236989077095428,
                0.12474408182142831,
                0.11721169579257452,
                -0.05176000224845035,
                -0.1250974107668417,
                0.2734509011105934,
                -0.3665169927728638,
                -0.2589992011893219,
                0.40870624244966924,
                -0.3865185899397889,
                -0.10439792225611501,
                0.39107577486833306,
                0.21804917138588265,
                -0.08785618223096829,
                -0.40337052070864554,
                0.12055142817437821,
                0.03507531213709057,
                0.05406550047088909,
                0.4256169148612943,
                -0.08818116317005939,
                -0.354375011519909,
                -0.3561531332313971,
                -0.14176093819167873,
                0.16746403898372883,
                -0.13162270834796283
            ],
            [
                -0.07166467261242837,
                -0.023344217536243914,
                -0.028772749179853417,
                0.14834462944891974,
                -0.020056202275979106,
                0.25086423555792475,
                0.3564965593777502,
                0.19038375187921838,
                -0.0051242390893605615,
                0.009002144493936987,
                0.07761049636606406,
                0.18109335767018525,
                -0.09456080254203621,
                -0.2871232514406517,
                -0.3200171872693298,
                -0.2018783364982448,
                0.1081398706614215,
                -0.18242228465952018,
                -0.3159489364343344,
                0.3086903719910856,
                -0.013493621086784412,
                0.3327435207397537,
                -0.3404387054717679,
                0.4407249415386501,
                0.13045603942029926,
                0.18464561878643052,
                -0.019154345805525122,
                -0.16878264015451874,
                0.12240467259776033,
                0.32053916764253054,
                -0.08226494713463917,
                -0.008535139602006343
            ],
            [
                0.0173061151452874,
                -0.0440302118805607,
                0.03979357362049991,
                -0.2132417647598725,
                0.05832196129618366,
                -0.33115866003809624,
                0.29919790737540586,
                -0.08398172748980424,
                -0.004844102596426311,
                0.25106977770199507,
                -0.0779192430172517,
                0.10980697070401123,
                -0.10342171691385953,
                0.1530462508478018,
                -0.1673616418688413,
                -0.1455483039830516,
                0.3578303190057388,
                0.023894634859449527,
                0.3729813428856951,
                -0.41365235805295586,
                0.3777108870297083,
                -0.18922842587388028,
                -0.40874242874011946,
                -0.10381546212251065,
                -0.15786647584316846,
                -0.07479102992957568,
                -0.184617119454669,
                -0.1794657419519479,
                -0.2446757944986018,
                -0.22074716248287765,
                -0.13349853256600816,
                0.18322646359960484
            ],
            [
                -0.43216995020243865,
                0.03301637026938293,
                -0.20080861749819032,
                -0.3739248308438297,
                -0.1989342527659397,
                -0.3620436469855896,
                -0.20121963619363256,
                -0.07945118459885955,
                0.17229589493241246,
                0.3053997153388357,
                -0.08655134622481514,
                0.3173810772186752,
                0.3378356265860437,
                -0.21790912309487775,
                -0.35657107134063787,
                -0.329647225687714,
                -0.19528903305566706,
                -0.31693543900530063,
                -0.34264729307120934,
                0.35461431412713235,
                0.08132466804852242,
                0.4125949855543801,
                0.16921124960463874,
                0.26163720726335965,
                0.20815405127152645,
                -0.28152753887138565,
                -0.24166380680090774,
                0.049038509421021746,
                0.01144097751990343,
                -0.34146679792366397,
                -0.24472045237926418,
                0.1184443914119556
            ],
            [
                -0.2850432871193199,
                -0.37426275304372786,
                -0.2921744120422487,
                -0.02493985322747898,
                -0.2791365442439724,
                0.3328621417035334,
                0.04352078835329366,
                0.26281254391139464,
                0.12684016168218584,
                0.2951055088708881,
                -0.3094468119585589,
                -0.08985803208727425,
                -0.24728118449333103,
                -0.18970590681595717,
                0.12876195397176002,
                -0.39779781252061897,
                0.05694621440887745,
                -0.07921903234081845,
                -0.37996338379994044,
                0.18123669033524561,
                0.018791589096865315,
                -0.2703029787141139,
                -0.3784196977612395,
                -0.26575753860236906,
                -0.226756088971491,
                -0.3689867811871987,
                -0.3602757497738866,
                0.3867441399161848,
                -0.1415152694094509,
                -0.24639595543351928,
                -0.2643682228818758,
                0.1105475689156181
            ],
            [
                0.19241298723939387,
                -0.1668117630808971,
                0.033039926996205164,
                -0.022569547979001035,
                0.2533602677352458,
                -0.006710355691707976,
                -0.09201417387432949,
                -0.293616843765424,
                0.2229209821758835,
                0.30710845553689303,
                -0.12893983696201938,
                -0.27318508632260624,
                0.33457489602673046,
                -0.3115496508519195,
                0.012466241424133967,
                0.3087920325049073,
                0.3842651758421515,
                0.24071071488376486,
                -0.057994632532575904,
                0.25156911471676563,
                -0.23996215253807848,
                -0.007570142584940187,
                0.012780489006123143,
                0.147530095734284,
                0.03297755303420037,
                -0.1069705128590953,
                0.30791223929829853,
                0.06271035955764417,
                -0.30406807048399703,
                -0.2599633500533377,
                -0.34275752462969544,
                -0.40683500107518755
            ],
            [
                0.44821441307788884,
                0.03328427915254303,
                -0.16428854374722487,
                -0.25526314387465726,
                0.1855978373087362,
                -0.40997505345827806,
                0.3689882162446428,
                0.16213609026653333,
                0.2102191191571062,
                0.4216097313807683,
                -0.10359337221186313,
                0.29368883723407324,
