{
    "layers": [
        {
            "size": 30,
            "activation": null,
            "initializer": null
        },
        {
            "size": 32,
            "activation": "sigmoid",
            "initializer": "xavierUniform"
        },
        {
            "size": 32,
            "activation": "sigmoid",
            "initializer": "xavierUniform"
        },
        {
            "size": 32,
            "activation": "sigmoid",
            "initializer": "xavierUniform"
        },
        {
            "size": 2,
            "activation": "softmax",
            "initializer": null
        }
    ],
    "weights": [
        [
            [
                0.06820065614049074,
                -0.15453328049383183,
                0.09122929600436816,
                0.26709730912617713,
                -0.1280199924861857,
                0.14092995001951733,
                -0.19614303376939216,
                -0.07539410173700234,
                -0.045313555525647635,
                0.14700565281520186,
                0.05615688049194772,
                0.043455750737735686,
                -0.08976832432484814,
                0.23515948477001444,
                -0.21105502815988153,
                -0.22835927400110853,
                0.3223755404042967,
                0.011425828387688738,
                -0.09813236320650452,
                -0.23623879088097158,
                0.03746858744504881,
                -0.19208870856659307,
                0.2163930117572736,
                -0.019810367280259884,
                -0.09841121664584751,
                -0.24564933425857688,
                0.008481757977234229,
                0.04640892867355745,
                0.03815264307978131,
                0.15565306034141746,
                0.16534105973954524,
                0.13989461072838968
            ],
            [
                0.03177380255045153,
                -0.010741595817043512,
                0.3071016043450251,
                -0.12330686987393999,
                0.024815780979136667,
                -0.13378965585417912,
                -0.1190066418262952,
                0.17523869050028826,
                0.29435921072291904,
                -0.13515720178855323,
                0.11478718476295861,
                -0.16732971504214122,
                -0.12517877514733483,
                0.0776233205538571,
                -0.3406268079656106,
                0.2454614236079812,
                0.014146945734024186,
                -0.012856133419910779,
                0.33225844623565914,
                -0.031081511258513772,
                -0.17996087530349572,
                -0.1749133742169988,
                -0.05815806146322303,
                -0.01246625334775796,
                0.4264480478925987,
                0.3108440881833131,
                -0.1647060901971366,
                0.1256988099771825,
                0.2613701336002024,
                -0.0494763714643246,
                0.05214881072372056,
                0.14807972234128025
            ],
            [
                0.17019133938078154,
                0.31933018848954037,
                -0.14959291647603576,
                0.12236937560813713,
                0.027726212960423473,
                0.06817573270304843,
                -0.010583531445890441,
                0.2733186170776077,
                0.4306336242532297,
                -0.5842637904093486,
                0.009756918906961336,
                -0.01215105887647653,
                0.20756876639182945,
                0.12801649181962116,
                -0.5515488594153195,
                0.17371433932099875,
                0.07694921131226136,
                -0.23903812178342934,
                0.0355722700683073,
                -0.01548114692294277,
                0.1806293542921007,
                0.14894939060660528,
                0.24181322806724734,
                0.38650109736444976,
                0.4655577165709679,
                -0.003160756712498586,
                0.040221306072963016,
                -0.08916245651954055,
                0.021216780820296367,
                0.06826802686415312,
                -0.03009576893456654,
                -0.07124121378653268
            ],
            [
                0.028686559108663145,
                -0.053440858284389096,
                0.04630393368514269,
                -0.03246312041724848,
                -0.2264396062522651,
                -0.1419882043846145,
                -0.14497141107825331,
                -0.1569231411181958,
                -0.05333878706928573,
                -0.29504502660674725,
                0.20112241891973645,
                0.32241550049476136,
                -0.05076368755883374,
                0.291292734273569,
                -0.0460636215740556,
                0.25010692970695314,
                0.20755541199297486,
                -0.15178573657794558,
                -0.38440744723445486,
                0.11255420414528493,
                0.3662786261980729,
                -0.07046940963357387,
                0.137468014456535,
                -0.12586347837797554,
                0.13857627193106833,
                0.10275299184737263,
                0.0012365657358809634,
                -0.31309569354164685,
                0.2590273488061981,
                -0.1768681658965365,
                0.057473079138717485,
                -0.0958444697369848
            ],
            [
                -0.02931391621200083,
                0.19272083478210889,
                -0.034825191018944594,
                -0.10571783034319383,
                0.10678129625973945,
                -0.19255087561004766,
                -0.010191707406361404,
                0.11262379221094194,
                -0.20563695843813748,
                0.0029193385275631026,
                -0.3177519762976187,
                0.18841410577663018,
                -0.4197147030281946,
                0.12155118450284838,
                -0.1787535471164738,
                -0.24747025525471908,
                0.026054916234109986,
                0.18940859685932676,
                -0.31625968509834185,
                -0.4357345319666185,
                0.14861393172398968,
                0.27480952982738593,
                0.0861016101770056,
                0.0908029839941054,
                0.20516649768402198,
                -0.050924363469784406,
                -0.06547430597725308,
                -0.016086899208664875,
                -0.12047053458905674,
                0.13591043856193866,
                0.0647755368674322,
                -0.19203291105449044
            ],
            [
                -0.2541576993435809,
                0.07054724604613227,
                -0.08418278594076613,
                -0.4440050816717354,
                0.19543460695910342,
                0.3045460292659718,
                0.24675253316988385,
                0.146129821002506,
                0.05080047138589933,
                0.0012906410677247277,
                0.12586045867709159,
                -0.24761826500639286,
                0.03267363263954874,
                0.23372980517179287,
                0.18433780414146475,
                -0.07147681270268759,
                0.0035872994766563823,
                0.03613648992535876,
                0.19186497537958067,
                -0.11642473992509748,
                7.573848523944572e-05,
                0.20690678888196187,
                0.1194282005194759,
                0.29120986789856773,
                -0.49459458843291726,
                0.03735348456235018,
                0.09350748598579973,
                0.20194387179412185,
                0.0994965327975041,
                -0.06786770624989352,
                0.1436788118207936,
                -0.18067300587646257
            ],
            [
                0.2421517646045973,
                0.06143777659020503,
                0.09465119071120928,
                0.19301267230327104,
                -0.2662342326435995,
                -0.13486769993155556,
                -0.5765397996576823,
                -0.13592341436576433,
                0.3652415016909013,
                0.03778688825075861,
                0.21726531068652624,
                0.6726840646202448,
                -0.05136935288601715,
                0.32232335666671585,
                -0.4402782307591181,
                -0.18799262071161754,
                -0.10677308112185217,
                0.1637023306962584,
                0.17234527952757978,
                -0.12287212310908653,
                -0.3025722578684148,
                -0.09212945366797093,
                0.01597845025590753,
                -0.28032804995396243,
                0.00972007667280502,
                -0.05921465700757787,
                -0.14518564743966164,
                0.15613694272159181,
                0.24830846430880982,
                -0.19787093875578296,
                0.1882790543461669,
                0.34457240849530063
            ],
            [
                0.1732617665482521,
                0.061782773625057644,
                0.20068870556628457,
                -0.013240488832763585,
                -0.2644649557417483,
                -0.209316959553866,
                -0.30972089259486074,
                -0.1373974188017511,
                0.31613795019320984,
                -0.015341951196900449,
                0.16727870448475246,
                -0.020597106070445757,
                -0.13219718361753272,
                0.07292476505178876,
                -0.4955002054006533,
                0.18761464445508103,
                0.13923178869793207,
                0.23140568223499974,
                0.4279404717366297,
                -0.2819589171517237,
                0.014409827346402294,
                0.11811243337930695,
                -0.13138940489056805,
                -0.03414245705013432,
                0.519003978308014,
                0.4175587253977816,
                -0.24946153080436645,
                -0.19832828720213275,
                -0.029952184550655674,
                -0.33344180018162484,
                -0.03805017432893294,
                0.24811427167735411
            ],
            [
                0.12958095701641437,
                0.022686772131055147,
                0.004077106721314789,
                0.012390948904738746,
                -0.07488335654288651,
                0.266018566007244,
                -0.15823960935197665,
                -0.01349122965054768,
                0.13866251308562158,
                -0.12525229120095593,
                0.030753682154256046,
                -0.22918863526071526,
                0.019542924329767102,
                -0.083427366892453,
                0.2055139669816934,
                -0.4562808857998727,
                -0.021892561265219893,
                0.3678491540923179,
                0.05013886245670662,
                -0.3930009307637701,
                0.16921160641337094,
                -0.03931683838866914,
                -0.16706466877694226,
                0.09089774839358053,
                -0.23357752364775153,
                0.269079544142974,
                -0.019970266246536347,
                0.14959722647932056,
                0.12926468730063692,
                0.07264427867790424,
                -0.1323361936921926,
                -0.09088389429261033
            ],
            [
                -0.22748967620683574,
                -0.23261063973792478,
                -0.20878856193706224,
                0.038276119246522126,
                -0.1408144702610598,
                0.09161140870885623,
                0.15325512987372886,
                0.006746230535465893,
                0.1585511486083477,
                -0.05152421683600082,
                -0.34935009895963276,
                -0.09445866136243405,
                0.13122117650907134,
                0.06210486800119973,
                0.3051457390453277,
                -0.32982999505595884,
                -0.07226520403554097,
                -0.022052102459565598,
                -0.528209134279276,
                -0.4935665117102967,
                0.007124661342790574,
                0.1964652355129389,
                -0.17328799341476356,
                0.37148852753004513,
                0.2936686427797703,
                0.12926259381950705,
                0.08906888942869048,
                -0.11912297968088961,
                0.0351290892033208,
                0.05706735164437448,
                0.008600343483370323,
                -0.15528706560774072
            ],
            [
                0.585853943847029,
                0.28496292627667463,
                -0.1670520764145966,
                0.14149554568479356,
                -0.1607336566806898,
                -0.3292512865406833,
                -0.24412268978566132,
                0.04078822307462751,
                0.18001900484628156,
                0.17049480787343108,
                0.5538601678697785,
                0.26460791827390534,
                -0.003758994408463968,
                0.08286465848535704,
                -0.33675805567129813,
                0.13772491637513357,
                0.17652803501053863,
                -0.1867926932024387,
                0.02065369611171039,
                -0.7639631832406277,
                -0.2417888255254079,
                -0.26625442874028543,
                0.013977052902199305,
                -0.5356996155727327,
                0.322394289583638,
                -0.06151998916253293,
                -0.32443963845746765,
                -0.22354697470184293,
                -0.2012533591185737,
                -0.199784174808707,
                0.25113968538084364,
                -0.007674645570562803
            ],
            [
                -0.3041572169307021,
                0.03389096557427128,
                -0.023222927694252733,
                -0.03793384090509744,
                -0.10793880983368745,
                0.3824892430599908,
                -0.1051477237642075,
                -0.031677625959329825,
                -0.14512042114567908,
                0.12674063230785795,
                -0.24236291112615946,
                -0.3568254169116459,
                0.4469794216596182,
                -0.266492346513088,
                -0.08883767055089756,
                -0.3002417693836528,
                -0.01008166654449769,
                0.36425218306840035,
                0.11282994658575117,
                -0.06128315960764163,
                0.5889771593809895,
                -0.014502630128279676,
                0.10994574360934385,
                0.014220003494523925,
                -0.04526735255110094,
                0.10075901346622151,
                0.3369724202536664,
                -0.14253433855005962,
                -0.24236109717699653,
                0.156865873044907,
                -0.04385445323943937,
                -0.011174272935527531
            ],
            [
                0.25092387613568445,
                0.015533963141044684,
                0.002188095474972967,
                -0.006613534313883186,
                0.0609706256254179,
                -0.4771877368544279,
                -0.6170643216551751,
                -0.0998865010980181,
                0.2958397718517694,
                0.012495361755935007,
                0.31155274806292943,
                0.218927635428573,
                -0.491148711493016,
                0.11267553727641066,
                -0.09271594737876852,
                0.1311337669004006,
                0.033999249633770684,
                -0.10477333726477216,
                0.10691112351005293,
                -0.27930117409925814,
                -0.24542366273307176,
                0.28449701188588045,
                -0.24252627200428328,
                -0.14400480649976818,
                -0.15433341480468044,
                0.46323867853589545,
                -0.008297520266058851,
                0.0376545791388288,
                -0.21026707629263888,
                -0.15227998519371722,
                -0.33117124506680345,
                0.2964514223759338
            ],
            [
                0.09482262787641696,
                0.030214781918374508,
                0.2098013078103029,
                0.4872930362052429,
                -0.25790949830495036,
                -0.13174840672859336,
                -0.2766830857799871,
                0.001960499827807984,
                0.15017841106619076,
                0.34726066212915974,
                0.20444560419271074,
                0.2669972126173016,
                -0.09617799966252043,
                0.0769561063398935,
                -0.023588516433602276,
                0.22774226366051842,
                0.37902258176415826,
                0.17815853344463478,
                0.06668026189505666,
                -0.15058590346228967,
                -0.11806845206445227,
                -0.12953858956387043,
                -0.04446765961915054,
                -0.18741858335589806,
                0.010786208585087406,
                -0.17574539833818817,
                -0.011754620685283499,
                0.06190721409793611,
                0.16264681544840445,
                0.007593836709641707,
                0.46660659347924704,
                0.05544435311335875
            ],
            [
                0.23612901399485425,
                0.023497519282388208,
                -0.1612389105956984,
                0.011100966764579114,
                -0.038403572722533474,
                0.221734937622539,
                -0.3582017575167874,
                -0.08597661583293359,
                0.04549054306479128,
                0.28482158328982504,
                0.13419459005785425,
                -0.12453992777852643,
                0.08079656811350956,
                0.14284169147904902,
                -0.05576383531243248,
                0.08232986929992074,
                0.14525838574174188,
                -0.19726106017629436,
                0.2767039194584399,
                -0.1655377899087645,
                0.1539361257386929,
                -0.06690877314281944,
                0.04871430835796103,
                -0.08342945470424167,
                -0.20236243677528368,
                -0.20718762910510893,
                0.10183762731291451,
                -0.33301632892325095,
                -0.3275849934362469,
                0.0035316875322035325,
                0.06392079570919781,
                -0.001617903994102761
            ],
            [
                -0.08406112950059472,
                -0.06123743606892652,
                -0.03900127004222053,
                -0.14637246330078368,
                0.04766447485683465,
                0.4723910685090791,
                -0.14949983960089513,
                0.041901875162802714,
                0.3593757480542397,
                0.015363163173775294,
                -0.2689660157512091,
                -0.1184606132868719,
                0.10598407538214774,
                0.26059696701189583,
                0.3078477382417673,
                0.21362023330418253,
                -0.2460871134206772,
                -0.18386715262795858,
                -0.2261169892929564,
                -0.015720390860272403,
                0.07271100302274196,
                0.41390750075538313,
                0.048734632969217165,
                0.6693523988637354,
                0.2653108608940955,
                -0.05959595108505585,
                -0.20699649240946066,
                0.050414873065392544,
                -0.14282728479536183,
                0.0005661879865536987,
                0.16084274437563648,
                0.3457186675864667
            ],
            [
                -0.12308559683450497,
                0.03872983253383419,
                0.0957900799665523,
                -0.1945333725896858,
                0.01977553683272821,
                -0.1173297071754073,
                0.061003601580144305,
                0.006651154068198297,
                -0.19399816199963318,
                -0.012834280804299008,
                -0.13900606504336205,
                0.07597844627339256,
                -0.31167231342782803,
                0.13850787005922013,
                -0.22885490306998285,
                -0.17954294541897936,
                -0.10137671919471317,
                0.2618032846671707,
                -0.20112248589801596,
                0.024395712769228507,
                -0.2142413920705756,
                0.4470996966390492,
                0.23114553836781648,
                0.17505148880610155,
                -0.07698968095802224,
                0.08177611190433695,
                0.24943943574756458,
                0.13212444768791012,
                -0.12289959123792031,
                0.07629209445903172,
                -0.3310738323147939,
                0.31601127441268295
            ],
            [
                -0.13148029285594823,
                -0.4675783548849767,
                0.4113453963528127,
                0.18348432611694387,
                0.04569230686771519,
                0.08761853432737902,
                0.2665401773928469,
                0.021825636498264845,
                -0.13022859420189717,
                -0.11899211505422284,
                0.09996951679266788,
                0.2972081941348014,
                0.14262522032205682,
                0.33853137510363485,
                -0.10263431428234358,
                -0.0008867613822437291,
                0.3988104427497128,
                0.21647836785921398,
                -0.0763812446508932,
                0.14939937458721136,
                -0.0598332017777328,
                0.24172959824967616,
                0.1367193265224128,
                -0.2582358859317758,
                0.1426251042118951,
                0.09030626262508759,
                0.11883360079239778,
                -0.3004854737736387,
                -0.05207614648029962,
                0.48558187723498814,
                -0.14919507496636106,
                0.059950536312370906
            ],
            [
                -0.19222216642592244,
                -0.1793357652723502,
                -0.138287081938839,
                0.09955260284770275,
                0.09904476844818576,
                0.22999236707208207,
                -0.022063518762751203,
                0.14096666117162068,
                -0.0070435825273097675,
                -0.22167263290366032,
                0.05470915443939586,
                0.07454402414078272,
                0.5985088476196821,
                0.052739068109266235,
                -0.20078869443812353,
                0.031160820821111664,
                0.07078099187041359,
                0.4400991167573491,
                -0.4530713742603768,
                -0.01279725679759961,
                -0.14566783222700574,
                -0.18456679856946762,
                0.014756595868694515,
                0.03831721719935263,
                0.09079665272566363,
                -0.17795850829551063,
                0.04948269099617036,
                -0.07163216537731261,
                -0.019786475738861584,
                -0.017875391499585436,
                0.03797433758049917,
                0.07233827326473301
            ],
            [
                -0.17201466257016707,
                0.10486509740276076,
                0.12669921219210104,
                -0.3883008090647144,
                0.39176695946980106,
                0.49824409894030514,
                0.1481690755083506,
                0.17823969241788154,
                -0.14900079906773608,
                -0.34636777978884115,
                -0.32130443156851535,
                -0.089420653331707,
                0.10603361115097508,
                -0.20499708168483632,
                0.24928376262149873,
                -0.29276919070544216,
                -0.31867981639586074,
                -0.02623499262068937,
                0.017463063122458114,
                0.04273911420424446,
                0.10411376860730534,
                0.1817614374955906,
                0.23436723501787218,
                0.16115923892954112,
                -0.19201952167945452,
                -0.09967635447375112,
                -0.13265049849531343,
                0.20399083776874702,
                -0.07869525044556647,
                0.015688128650054964,
                -0.44745256072497713,
                -0.4094780801384925
            ],
            [
                0.33773146888523886,
                0.1414901592733498,
                0.6110735501946403,
                0.8383660325972159,
                -0.5835364881989469,
                -0.20510096406518782,
                -0.14351341287556987,
                -0.2525333843954314,
                0.17805224922865195,
                0.10038479785367375,
                0.02202565581575717,
                0.4486258327714655,
                -0.22301198543481224,
                0.35958744537496745,
                -0.21317848038662476,
                0.12844996442416487,
                0.09891763076034246,
                -0.08760063711015917,
                0.37016697992165626,
                -0.19594536956852904,
                -0.3330948573652013,
                -0.19901173330942595,
                -0.026485052158264223,
                -0.6382733457454971,
                0.03524802643850422,
                0.13233488376584615,
                -0.40620726920928446,
                -0.4343338509421315,
                0.5030963619888528,
                0.09923343424723981,
                -0.05403373304435042,
                0.22869197531611749
            ],
            [
                0.5601489493422295,
                -0.059895306272051155,
                -0.010997103371684218,
                0.8163229486995517,
                -0.2710982791423643,
                -0.07873701286776269,
                -0.15383802505164426,
                -0.15191839186992678,
                0.07296836958099209,
                0.28841054353749646,
                0.3555446702856383,
                0.579807810264339,
                -0.044882869065359425,
                0.2101039525780936,
                -0.19417379299046358,
                -0.020181664141861306,
                0.20368070946520062,
                0.30104635679668895,
                0.1570175533720469,
                0.023508606177938693,
                -0.19733560987456994,
                0.2830616467931981,
                0.08179950224536606,
                -0.3750092314898019,
                0.1674276619319674,
                0.0853539498546504,
                0.033296753363269864,
                -0.19481590465742377,
                0.2936000414740928,
                -0.11206681987853404,
                0.037179808218955404,
                0.32869607323824357
            ],
            [
                0.3104591236860968,
                0.1872446816821282,
                -0.14875477028852624,
                0.25764845896125,
                -0.2229398036795589,
                0.11067912058242277,
                0.038913527381560384,
                0.023373718295092095,
                0.009014467738393981,
                0.20665040405685786,
                0.20798228407281702,
                -0.3281078800822154,
                0.1090770972680784,
                0.12611851711459934,
                -0.1874562775059726,
                0.014144581344167422,
                0.03790861563697382,
                -0.023983224082847324,
                0.1471792845845474,
                -0.45123252834443955,
                -0.018136352402986694,
                0.13271044574680144,
                0.04476767166016123,
                -0.418988497754199,
                0.1332241122801733,
                -0.011662023004889756,
                0.010479884574832829,
                0.16226061961345178,
                0.24656143163605676,
                0.022974425786202745,
                -0.014767734068792268,
                -0.0030195720908078546
            ],
            [
                0.4474937991838071,
                -0.047551739387607705,
                0.08245451587373719,
                0.16815028469508475,
                -0.16624374890721325,
                -0.06777957331122468,
                -0.3674750084221751,
                0.263297486326593,
                0.18276372725192555,
                0.07168678568981723,
                0.15149714754022428,
                0.12495343077629734,
                0.02354400581632165,
                0.2442382040838384,
                -0.21837331710490476,
                0.20474865785936075,
                0.012281666175235757,
                0.011686604158992402,
                0.41656946049256566,
                0.18232000819572133,
                -0.29598808208300764,
                0.2940784733989817,
                -0.488486089680178,
                -0.332556840599293,
                0.31600372040559543,
                0.3810884654238028,
                -0.08026550916430195,
                -0.17943470273496523,
                0.4572347025002631,
                -0.27236713989741923,
                -0.16499828409640077,
                0.13408272982364328
            ],
            [
                0.14478432016080509,
                0.5892835682167737,
                0.2590156287019484,
                0.39492821677455353,
                -0.16390637792747756,
                -0.21217144181047493,
                -0.15016013111444998,
                -0.08910403076449909,
                -0.06443593819933709,
                0.33123083342276477,
                0.46832555532582837,
                0.22213643823002874,
                -0.01980060047938036,
                0.3005360622125242,
                -0.3674477309867738,
                0.158760955165533,
                0.17364687565570236,
                0.3065120153297153,
                0.304627516435234,
                -0.38864372277126547,
                -0.07429093143216622,
                -0.09122525035105027,
                0.028625461728489822,
                -0.41222652645531266,
                0.42758814202845535,
                -0.08366117997817425,
                -0.14822006701814658,
                -0.08763594328238145,
                0.2349594479066151,
                -0.2546702243776739,
                -0.04500856494611498,
                0.12381059900157013
            ],
            [
                0.05963053019632935,
                -0.05067885243250445,
                -0.05119388578699542,
                0.19800871938068199,
                -0.23847166845180368,
                0.04199402668754403,
                0.15731177433832763,
                -0.0624437911983344,
                -0.3789742158233822,
                -0.17284898204519505,
                -0.007654021430236317,
                -0.1435993856209365,
                -0.16822983200163288,
                -0.11843139106890767,
                0.2497549120034727,
                -0.013140488265444013,
                0.2197908085053652,
                -0.1872765364148124,
                -0.3020793926591852,
                0.11861705266767382,
                0.13191850671953292,
                -0.10075677815585661,
                -0.0943451814642994,
                -0.09977818561296542,
                -0.32256675865320295,
                -0.11334271143648635,
                0.042976903564212174,
                -0.12265583004997865,
                -0.1002975086882028,
                -0.09977636739633633,
                -0.224311883139641,
                -0.10506858506606367
            ],
            [
                0.11704038949132271,
                -0.2787700825012562,
                0.17692375582548117,
                0.42117989118555216,
                0.05226770641964244,
                -0.39061638600677623,
                -0.19789027789873231,
                0.09451560245640997,
                -0.07712996803582109,
                0.13070784999162016,
                0.257414333539761,
                0.546132554524159,
                0.14642164847129474,
                0.08248464355165976,
                -0.24385957232201136,
                0.0017739783928305678,
                0.14983737090797783,
                0.11313690302812868,
                0.0039004578245856853,
                -0.23544940422492872,
                -0.3118993794271652,
                -0.05640296790517398,
                -0.48440615795646824,
                -0.12222484803041467,
                0.011759235688160563,
                -0.3037783153994335,
                0.2416763289670175,
                -0.01069299096581807,
                0.1813283027069754,
                0.008044972142456239,
                0.24232200219604122,
                0.15319874937501748
            ],
            [
                0.14290685696342123,
                0.06222069247960824,
                -0.21160373220285555,
                0.1951483510200866,
                -0.09158871645576264,
                -0.25736739512839785,
                -0.43965833329139414,
                -0.13374416476705928,
                0.08706238812667136,
                0.04984234545666853,
                0.17373390930198038,
                0.2680729121201819,
                0.13954829595435875,
                -0.1542804598075011,
                -0.028765341937247786,
                -0.12664164453514,
                -0.02778320680444375,
                0.20121306702801967,
                -0.023426818993065902,
                -0.22668359906131366,
                0.062121060705892704,
                -0.05044665975457581,
                -0.10037666012121091,
                -0.5438064536533852,
                0.46494541396210093,
                0.27706975488339064,
                0.23071780368976225,
                -0.5287955412530059,
                0.08037786068464452,
                -0.145051975653878,
                -0.05258341980009004,
                -0.0738304126627815
            ],
            [
                0.18162162216359906,
                -0.40862146726953846,
                0.2541702543895079,
                -0.01962399204521308,
                -0.189236606852986,
                -0.32305463915493104,
                -0.31349207911425714,
                0.3513944248599248,
                0.19078573656701475,
                -0.12104975058303631,
                0.3076255841296028,
                0.22308490566727204,
                0.06108988671217801,
                0.18615805107710434,
                -0.4554753936372214,
                -0.12414847714242981,
                0.24014297481959077,
                0.31260901655303497,
                0.07099660319853314,
                0.27281056803784764,
                -0.13959782059236725,
                0.18848266950248516,
                0.0543702566410242,
                -0.323446048140687,
                0.0030151516935817777,
                0.3200520492586792,
                0.014986393381559358,
                -0.24275411968707372,
                0.11635621036783556,
                -0.22332216599645527,
                0.15909809061889416,
                0.1506809365667665
            ],
            [
                0.36748405090837405,
                0.19244305845710574,
                -0.06370903023495347,
                0.007494808269513931,
                -0.13078077081748285,
                -0.05321660123342362,
                0.20522995404202019,
                0.1262020460863756,
                -0.012897439136946114,
                0.6048301219466722,
                0.16483073378798177,
                -0.23066306580206092,
                0.2677107369800613,
                -0.09795255556507033,
                -0.19891215822955008,
                -0.12265191241288542,
                0.17667650653869985,
                -0.3165648179929934,
                0.0034275868241326135,
                0.06823773455632234,
                -0.19574808546746122,
                -0.1155425196136345,
                0.16666658229269884,
                -0.030927777196006128,
                -0.14051248105105707,
                -0.03339401664061019,
                -0.4148748820395524,
                -0.07888901379268332,
                0.3043766291719706,
                0.04329038059889732,
                0.21219219947611598,
                -0.09315854339578235
            ]
        ],
        [
            [
                -0.11772614713468446,
                0.3011715336815518,
                0.222888215033364,
                -0.5006615159845191,
                -0.06006574512344084,
                0.15820646931485377,
                0.07216642623823628,
                0.1274279603754866,
                0.018409038879288412,
                0.34046097866799446,
                0.2940548012263549,
                -0.16113569596765542,
                -0.322742137640008,
                0.12533393072285892,
                0.131688460091688,
                -0.3500903774047508,
                0.38367626982861214,
                0.0070712697502619175,
                0.3950731436012738,
                0.14797121039496977,
                0.17221325903572185,
                0.03974756666769761,
                -0.15786275620966486,
                -0.2734439097122982,
                -0.2481717700766994,
                -0.26272466798401334,
                0.12946390088385115,
                -0.38701421362835137,
                -0.2610138682273163,
                -0.03170785723092157,
                -0.22515857619108973,
                -0.206430892203842
            ],
            [
                -0.13968099346753976,
                0.26032946926219974,
                0.0013316992559217024,
                -0.36592057033684844,
                0.05747964415440189,
                0.36758758193527685,
                0.1277845009889685,
                0.1302195229764531,
                -0.16546041292047672,
                -0.02567539276413857,
                -0.2550068221367911,
                0.05505311584837681,
                -0.1806462914594765,
                -0.05561076962263663,
                -0.10614751674787395,
                0.0029309341497964652,
                0.08709357807272096,
                0.14048465133981458,
                0.3283832169397487,
                0.13478533607573712,
                0.18991654326140428,
                -0.18263388050693227,
                0.06714875467845972,
                0.15484560744662426,
                0.043396610808089334,
                -0.22658086854946516,
                -0.12411978253637145,
                0.06771180475498749,
                0.1816803513737968,
                -0.04912514437241103,
                0.13770462270349967,
                -0.19317931977233196
            ],
            [
                0.16305263656648827,
                -0.18455983991745592,
                0.11650913897245795,
                0.06363252304105381,
                0.03418315158198324,
                0.37034765259519264,
                -0.35169922110211627,
                0.14584464894602703,
                -0.15629476570522763,
                0.32051139350548014,
                0.2000209724083722,
                -0.13910243147115073,
                -0.3819432407749925,
                0.006475680385824075,
                -0.11458290702111765,
                -0.0844977979233481,
                0.32952126966406065,
                0.13368703487190492,
                0.0666734722972942,
                0.08784950819256222,
                0.04729145449482868,
                -0.19320028782372112,
                0.14220423649896485,
                0.05654788830328913,
                0.1735280525791209,
                -0.12041448759829072,
                0.06095630270267871,
                -0.3370679388294399,
                0.1153328583859098,
                -0.05736752726294303,
                -0.11114207391364281,
                -0.2782905737203546
            ],
            [
                -0.4035678063024055,
                0.1447535145693311,
                0.3141656079474267,
                -0.6461061865990161,
                0.2655939295595599,
                0.21048619323409237,
                -0.0841810157518034,
                -0.29539916499856395,
                0.41012869175067856,
                -0.13957006525472698,
                0.16405623521602014,
                0.0444377198451479,
                -0.2682590749681477,
                0.4180550448988167,
                0.07340934342322723,
                -0.11926932334338604,
                0.5032446409034694,
                -0.058820755165939195,
                0.312071940667451,
                -0.0030375509118090145,
                -0.03531206563837102,
                0.26028365512575585,
                -0.024753365207473302,
                0.05797898196368554,
                -0.5037768046541095,
                0.23239333399307363,
                -0.1624037765799373,
                -0.1429629321859972,
                -0.5104454274017372,
                0.1335025850431052,
                -0.2191649101614139,
                -0.33631306106226816
            ],
            [
                -0.07306327838171392,
                -0.3412210462249171,
                -0.3613801929664358,
                0.24627280819738517,
                0.0031380417323734395,
                -0.35588933157298974,
                0.0184449543575684,
                -0.02994561302945606,
                -0.35301468763894844,
                0.11465472536072249,
                -0.20610899132636396,
                0.29326522032830765,
                0.328789531516588,
                -0.4414478651648981,
                -0.12749660196114068,
                -0.009384981431410002,
                -0.4726869395942698,
                0.06228116644147823,
                0.12740764237426275,
                0.02129682324758834,
                0.17326880911347228,
                -0.1000963586212379,
                0.020539462613551697,
                0.30115089691868113,
                0.15529470999285575,
                0.2268359343385736,
                -0.25855652021773506,
                0.31655130604129444,
                0.21264975539903674,
                0.04402141321303502,
                -0.23778130244108492,
                -0.2141164353775676
            ],
            [
                -0.045501468203412714,
                0.06968149168280693,
                -0.16658877097151448,
                0.11317516942516534,
                0.10583555496215,
                -0.38275110912375826,
                0.15291331608916964,
                -0.15420088772725488,
                -0.2700179035522967,
                -0.2620473615833584,
                -0.20757466073344802,
                -0.15716055978805096,
                0.45026092409108537,
                0.04230169012266037,
                -0.22870967743552056,
                0.3610835054928814,
                -0.5014522469382888,
                -0.0005684509968508643,
                -0.399675841096718,
                -0.037500406328462826,
                -0.1360659522090253,
                -0.09352949102211643,
                -0.27091933169722066,
                0.1904963577858504,
                0.33549355205120834,
                0.2527003914260506,
                -0.062191360316593024,
                0.24672166371276733,
                0.47111692185268855,
                -0.3779344648830009,
                -0.0691803837200362,
                0.09630524091047223
            ],
            [
                -0.1664747921568506,
                -0.4414204865233662,
                -0.36925781764867605,
                0.4478009501583314,
                0.16583396290626648,
                -0.4830755620173332,
                0.25386886673008463,
                0.03542889131077507,
                -0.12193289226698256,
                0.21003811995270927,
                -0.30448944073486084,
                0.3144049684827635,
                0.22858476991914325,
                -0.2515177862059439,
                -0.24745573407427096,
                0.46629147845364105,
                -0.5213111461480832,
                0.04803588028481138,
                -0.33256107039053695,
                -0.1297658710318027,
                -0.06306484916692388,
                -0.10542078557504546,
                -0.2018455757276753,
                -0.0795889595092888,
                -0.11032080032282658,
                -0.052481632581132136,
                0.1415772922561343,
                0.0896481080977918,
                0.17053957517507262,
                -0.3120867446802081,
                0.014333781274304503,
                0.29368382737384385
            ],
            [
                0.04229392372213837,
                0.27113849488341646,
                0.16015424990264146,
                0.23917812876181088,
                -0.01138047679981553,
                0.10137025049595698,
                -0.30407567761830784,
                0.13495132148572223,
                0.11741219595927162,
                0.3016987118290312,
                0.04111423646956992,
                0.1751199241403426,
                -0.2547548968837146,
                -0.043737312647984555,
                -0.2836696531035388,
                0.2607674068275356,
                -0.33854582594708554,
                0.10735226581714963,
                -0.11180418931775483,
                0.17032244820012798,
                0.07040064020957484,
                -0.0757015059197595,
                0.24022475967207527,
                -0.2523512775984386,
                0.265974030697877,
                -0.00559238034838182,
                -0.187768477972893,
                0.2523721433537896,
                0.07089509486223551,
                0.02815388387726185,
                0.1058298570876362,
                0.15961094479701185
            ],
            [
                -0.03935237124916981,
                0.08482618237617581,
                -0.04062516274383201,
                -0.27488522664317133,
                0.33340354902034103,
                0.006323018543790896,
                0.2286583692384033,
                0.037695752424861485,
                0.18336990237041567,
                -0.005913966322182561,
                -0.0711002394462525,
                -0.3628363753486153,
                0.012086867713186641,
                0.12660802016546965,
                -0.10885109127629419,
                -0.30382222738430964,
                0.3111569309651878,
                -0.23897937339034758,
                0.20125251608337713,
                -0.236857288144172,
                0.08577792882644758,
                -0.2235761021901582,
                0.2134539487282078,
                0.048131669308605636,
                -0.20404448052638768,
                0.046405343506467724,
                0.2599970931755264,
                0.21972378706482595,
                0.18046205061760945,
                0.16577747513937555,
                0.17231678556420302,
                0.07979855905271024
            ],
            [
                -0.2580424019906856,
                -0.14708236703992325,
                -0.012302098671981322,
                -0.31330398742728166,
                0.15165449002327402,
                0.3231867138090947,
                -0.2129300801404269,
                0.045719779542801174,
                0.35386753450377895,
                -0.16974326982995752,
                0.1938718849901186,
                -0.1733412407481577,
                -0.13127665387936926,
                -0.02723496069391918,
                -0.13163832705965603,
                -0.09774413784855113,
                0.0036965315341572357,
                0.018352690444092202,
                0.2258254963075136,
                0.11868154704043984,
                0.11184324235081773,
                -0.05140413493811769,
                -0.15397648339396014,
                -0.14434342217833027,
                0.025170546572831017,
                0.028602037780658174,
                0.17252712671148812,
                -0.1502764923528054,
                -0.06375448788892352,
                -0.16662082116697682,
                0.17355886837241802,
                -0.09373290782042153
            ],
            [
                -0.3055111288394167,
                0.12816149541460303,
                0.46393323785443896,
                -0.6287944313959143,
                -0.1009433303182169,
                0.14965538413283294,
                -0.42655098532815644,
                -0.33435487919819523,
                0.08623531761015488,
                0.2021801089905903,
                -0.10813734932480737,
                0.09740843422090077,
                -0.07954772885561079,
                0.1789943833972566,
                0.15620457834097248,
                -0.37772706474629414,
                0.27046785699083276,
                0.028436610067160254,
                0.0027445037482311113,
                -0.278061786985503,
                0.18727357474343392,
                -0.18460862860813226,
                -0.26788832742681834,
                -0.2231285890384586,
                -0.20062143357937218,
                0.0024740244840371914,
                -0.16611510081314304,
                -0.24845144035642167,
                -0.5022653100124859,
                0.33815172128748056,
                0.011776634497505429,
                -0.014667274990645945
            ],
            [
                0.018577135565572975,
                0.25146947195302255,
                -0.006590987466500444,
                -0.33330209269934746,
                0.3546603486824807,
                0.5075380722904802,
                -0.054856679617267284,
                0.055519891505182696,
                0.011022124959640963,
                0.11692702329049517,
                0.14192132377245184,
                -0.18560092145055418,
                -0.4479865201525004,
                0.28532209797583546,
                0.3886807974855417,
                -0.24203650962941542,
                0.4727478268199008,
                -0.19257892873237095,
                0.30279713980089923,
                -0.24257929244285154,
                -0.22891216357590283,
                -0.08827251017448029,
                0.18688211224325724,
                0.023530748539857357,
                -0.22284294060721416,
                0.03920798461885708,
                0.16301888743148618,
                -0.18893179049541925,
                -0.44462955879792304,
                0.1593838281736415,
                -0.020201796574823794,
                0.2584553166071168
            ],
            [
                -0.07272255990177948,
                -0.21877048801933582,
                0.016437870096356326,
                -0.18946449703335605,
                -0.24497032437129634,
                -0.06565713560885338,
                0.19665934840142646,
                -0.1730193246362711,
                -0.2744447974978702,
                -0.06526563293871669,
                0.2153306984584299,
                0.2718450006817029,
                0.28809602932643813,
                -0.08569500768538175,
                0.2027087155415288,
                -0.22145346155935708,
                -0.13457930196014642,
                -0.1908272425143583,
                0.05257048970852982,
                -0.288554536318566,
                0.16670339419320424,
                0.17292543379885378,
                0.2465834733120006,
                -0.053015208854112,
                -0.22579006441905633,
                0.01883788441659427,
                -0.11796765162956714,
                0.0689952892498677,
                0.2544221393695496,
                -0.37097284348836584,
                -0.21735288931183583,
                -0.12667790874149293
            ],
            [
                -0.13024661047494746,
                -0.10239145575824503,
                0.33764098208508464,
                -0.39405361295930835,
                -0.081697914340568,
                -0.09797127637588555,
                0.16190157840350955,
                -0.23013965486190954,
                0.3939701760785579,
                0.14183797792461392,
                0.09213337295961793,
                -0.10812465141517064,
                0.014301512001174134,
                0.05308045953253869,
                0.2870721600350338,
                -0.24729939924919125,
                -0.1506551188827335,
                0.11038456424936981,
                -0.12514856281845427,
                -0.26436098633984484,
                -0.13265649162486462,
                0.2327083633599736,
                0.1634977197678138,
                -0.2210665114354371,
                -0.06431283927061685,
                0.1445133741438527,
                0.20453551849930077,
                -0.22989742710455735,
                -0.3649987704166964,
                0.27659103671064184,
                -0.15220812052899765,
                -0.0651480857365456
            ],
            [
                0.22083893379778782,
                -0.058943509021486734,
                -0.07976758058281251,
                0.5977015272733267,
                -0.37541813845417127,
                -0.3242090289523686,
                0.11058794946646419,
                0.07839422317205391,
                -0.35395510795266455,
                -0.16406588769051014,
                0.20306757801819864,
                0.3243463727213779,
                0.2699609118939911,
                -0.2384261112161062,
                -0.24419358432416224,
                0.40894626113179905,
                -0.30836215851265525,
                0.06354332384284056,
                -0.26760336552097064,
                -0.08523238088989459,
                -0.18666519808408233,
                -0.016374935615104027,
                -0.2062386039988937,
                0.42068399677960805,
                0.3937986524033477,
                0.15116700504504477,
                0.03793055589995315,
                0.211658080757548,
                0.5839060176609301,
                -0.4637828786533143,
                0.14079110712625795,
                -0.06426923291926633
            ],
            [
                -0.25108659488850027,
                0.09123709710783624,
                -0.2329336983835372,
                -0.21911384269459686,
                -0.044093015123545874,
                -0.04004992863087943,
                0.13496630878858587,
                -0.2444940626192543,
                -0.10394991699834454,
                -0.04491450169547941,
                0.11776637912453333,
                0.005755374485537164,
                -0.3571879644552335,
                -0.24534221211469784,
                0.12983305790540073,
                -0.22497880930740305,
                0.05561172560633168,
                0.15153101192483426,
                -0.19514863331329071,
                -0.18756100295227496,
                0.12897527918514323,
                -0.23337531168935316,
                0.2645410507599623,
                -0.22470252616480693,
                0.20524145476404568,
                0.2777204319477594,
                0.017737311018743644,
                -0.16661041969235954,
                -0.3905528819766404,
                -0.12270807365622964,
                0.08857488842210635,
                -0.18360576821503927
            ],
            [
                -0.11916714634806232,
                0.2361680181213149,
                0.15027595939538582,
                0.05229735954839393,
                0.1049758874592682,
                0.15012141594692327,
                -0.2603984943743301,
                -0.30711587196699147,
                0.16830354580190043,
                0.22818347389341115,
                -0.17309511812462763,
                -0.2727649057538767,
                -0.20541244655515856,
                0.22000305994297975,
                -0.0009213553574621739,
                0.006770443103110637,
                0.272587569130342,
                0.02363705214779971,
                0.3006569178863411,
                -0.27654338658902433,
                0.06883423644959681,
                -0.09746641223993914,
                0.25309874814041977,
                -0.2064657707882711,
                0.055194530551633494,
                0.2408620209270764,
                0.2868379651619862,
                -0.16951804926361258,
                -0.23598013565094753,
                -0.052499738909174115,
                -0.20702636369880745,
                0.17177423555761773
            ],
            [
                -0.2364129547432064,
                -0.24466378849300371,
                -0.10345591259692626,
                0.016866973867324327,
                -0.09386328718573145,
                0.15878586926041222,
                0.0477861868338044,
                0.2843614744634056,
                0.2723213147650278,
                -0.21009981371697314,
                -0.2061102173193313,
                -0.15769790126624122,
                0.20878371075271482,
                0.18856226692676428,
                -0.036914917705673976,
                -0.21529655771860837,
                0.1153750802373987,
                -0.23474207204006634,
                -0.22129715169580752,
                -0.12246407139609213,
                -0.043939312685553227,
                0.00764348165803222,
                -0.3114138970540806,
                0.2274021420595764,
                -0.1550056740843496,
                0.028114513073698076,
                0.03232117063670879,
                -0.23956875390049828,
                -0.2744265308633186,
                0.09295637188739643,
                0.04643822119035876,
                0.09480184538620194
            ],
            [
                -0.124601321389577,
                0.2827073522565984,
                -0.05304864946418679,
                -0.05645728427011688,
                -0.11957562274454625,
                0.34100366147376937,
                -0.09140023989035216,
                -0.33733879827901664,
                0.151655036463291,
                0.27887311790751856,
                0.2642547684739419,
                -0.3303146206340909,
                0.08447830501350126,
                0.3719216286479483,
                0.02553504579604446,
                0.1543895992303028,
                0.07196996604003639,
                -0.16479104393748023,
                -0.01925906994471595,
                -0.24196678561205606,
                -0.21965846523024335,
                -0.21564705718339616,
                0.2307152805371783,
                -0.3808042884633745,
                -0.25871211853698606,
                -0.04474720248541394,
                0.32644242965599585,
                -0.3636078278899339,
                -0.009751687551093645,
                0.311784103670713,
                -0.020354747228338528,
                -0.11706333849296109
            ],
            [
                0.27737777866988444,
                -0.4424278322044037,
                -0.02001731047491777,
                0.552965514261213,
                0.16185365094355567,
                -0.15656508096949687,
                0.26389473106605293,
                0.07661549848240665,
                -0.17705071847956505,
                -0.06450517842061862,
                -0.3151226499064189,
                0.08546062974218468,
                -0.07140210021647694,
                0.12858216458219354,
                -0.1930794427113986,
                -0.13170339048597482,
                -0.0433977737178316,
                0.32056979399240787,
                -0.04208358236387326,
                -0.005387385409754055,
                -0.10308439700805294,
                0.10963854570115128,
                -0.2787187530467199,
                0.18219066026196826,
                0.20509646254797234,
                0.09586308726461996,
                0.1379550136430603,
                0.39311802918737027,
                0.3652939086520606,
                -0.07313004015762828,
                0.13918079242603168,
                0.06602910682906972
            ],
            [
                0.3943770256207226,
                -0.13970234979942078,
                0.02639431762161122,
                0.38178928721240246,
                -0.0117628253001532,
                -0.3546930831693211,
                -0.1985903917320808,
                -0.18485363887462494,
                -0.06939185921220313,
                -0.16998072057922764,
                -0.04585399985546113,
                0.08545080868375814,
                0.3499550662788752,
                0.11803928377760169,
                0.1685268241891455,
                -0.018147850017107812,
                -0.36874789782052314,
                -0.13369215123006414,
                -0.1335068193914636,
                -0.25858544313464027,
                -0.2753068885076402,
                0.1466512468297179,
                -0.1846398329780398,
                -0.18042900929163108,
                -0.06078747244243842,
                0.07014529409731572,
                0.017086777131909977,
                0.40051788975969244,
                0.17480959449118494,
                0.10361266115768826,
                -0.22856439625308791,
                -0.25012030730698437
            ],
            [
                0.22846838385541707,
                0.2519792227603042,
                0.1541538703968775,
                0.09260960969047766,
                -0.011438204589909497,
                0.17877576456962996,
                -0.2759870251473806,
                0.010531212820007012,
                0.09644212775281272,
                -0.24170930349222028,
                -0.063257267565082,
                0.010923873603189454,
                0.25572173632078693,
                -0.01163761186231935,
                0.2198643290779483,
                0.16672163078344707,
                -0.12415938414159142,
                0.18325759616969012,
                -0.13809934937584142,
                0.12690937082136755,
                0.2748299717042281,
                -0.08046056165461808,
                -0.19928825477868972,
                0.1412787101404886,
                0.2839362557311287,
                0.14366468691308637,
                -0.24776675522955113,
                -0.025733852423769604,
                0.23585141633560583,
                -0.04826799907488071,
                -0.04450756214309317,
                -0.05852302688446209
            ],
            [
                0.0634832986706565,
                -0.2649017929548016,
                0.012688149343317447,
                0.4388099237714142,
                0.036720498618927754,
                -0.3099349766706927,
                0.058157482741989265,
                0.316412713676377,
                -0.17534942983266738,
                0.14077193458699475,
                -0.29572675355083056,
                0.18624183350745288,
                0.07287053706195339,
                0.21300651584819447,
                -0.2412948693481719,
                -0.17199983318274353,
                0.07529174730231279,
                -0.21422233699994087,
                0.11352825490731117,
                0.2398989972255011,
                -0.2214501251493574,
                -0.2754743695249568,
                -0.04183966979170011,
                0.2975955850307206,
                -0.0653907909096718,
                0.2488512350758044,
                -0.05780382607858772,
                -0.1991813950247904,
                -0.21857757431520167,
                0.14520991514243825,
                -0.16787800309836612,
                -0.23296852368332163
            ],
            [
                0.4541139872423698,
                -0.35603947973144895,
                -0.3918935205980889,
                0.5897475355982399,
                -0.25177883520321465,
                -0.5565720697925609,
                0.3019850446782955,
                0.003121409621093669,
                -0.10003718410155478,
                -0.016471777847017508,
                -0.2773895226858478,
                0.3876245620720559,
                0.17669110854960707,
                -0.46171984607555716,
                0.17584066476629628,
                0.19397462749375657,
                -0.6196324956005227,
                0.32946543378022164,
                -0.3430805560730061,
                0.14617887966853604,
                -0.2011335798906287,
                -0.2240099827984517,
                0.006431451327486055,
                0.3262690107033297,
                0.4727543753553293,
                0.26769794925752416,
                -0.36838746418921425,
                0.22987388656428526,
                0.5819019629407404,
                -0.06781009316223788,
                -0.05432207906600119,
                0.2800530402018156
            ],
            [
                0.12572468722936103,
                0.3999087939519813,
                -0.009348262471480167,
                -0.01673014877672064,
                0.35237048277927,
                0.09176332701583834,
                -0.2574127085637856,
                -0.14045656380474816,
                0.056466413444798684,
                -0.13354992194140983,
                -0.09983188059877969,
                0.11884409822906991,
                -0.4429178740684837,
                -0.060359531108032105,
                0.09954817665053028,
                -0.17521520603860735,
                0.4425322445515822,
                -0.027971569423777095,
                0.22121220964264676,
                0.007513410314298057,
                -0.2001127406139697,
                0.2719192145589743,
                -0.1250008600859545,
                -0.17423163876115236,
                0.10887345466918719,
                0.22739815543575304,
                0.27738134059363845,
                -0.3202060585540822,
                -0.27489783336620616,
                0.25371047868199376,
                -0.29933561621431476,
                -0.3130915192237104
            ],
            [
                -0.21788771003994487,
                0.03727707480613124,
                0.02748213452954824,
                -0.09607021886994535,
                0.3336938234179489,
                -0.20709827528716318,
                -0.195945487955613,
                -0.07157082497822367,
                0.07603147114699896,
                -0.24152781610638144,
                0.26895084625706256,
                -0.040016219396975736,
                -0.19954032418727777,
                -0.2046389305162087,
                0.12378204667856013,
                -0.09559997777163647,
                0.3134684367229801,
                0.23697318956104793,
                -0.13793124758831302,
                0.24186311020852022,
                0.0895609465533121,
                -0.20893123903905572,
                -0.040961045449222556,
                -0.11686565104951142,
                -0.18383643782443473,
                0.06997915033734901,
                0.26144660739541764,
                0.21721868153149243,
                -0.029586660800914197,
                0.2817054752987063,
                0.2697816552677304,
                0.09396456170482574
            ],
            [
                -0.13559717838674387,
                -0.24001151967501688,
                0.1346881454264844,
                0.0014248365573413019,
                -0.094863641503651,
                -0.3089085153265068,
                0.13078617007477672,
                -0.19937578495077274,
                0.027240941945890506,
                -0.13666422076986115,
                0.15828166206595395,
                0.24343777153854906,
                0.0960037481985731,
                -0.011488729964553955,
                -0.2981323150782436,
                0.2913960688681689,
                -0.08139047129148161,
                0.10925719449492657,
                -0.18297204510615156,
                -0.12704139271319434,
                0.12572136188203842,
                -0.3082884039548586,
                -0.17068281252223658,
                -0.27436492022042136,
                0.06578145294263306,
                -0.2830324571926817,
                0.182505302554914,
                -0.10020879778220186,
                0.06849340443239522,
                -0.12131579177833272,
                -0.2872956047115022,
                0.028432270954765953
            ],
            [
                0.16890538432915492,
                0.08220141810698153,
                0.0060633611040168765,
                0.19737308671217663,
                0.010981441804905347,
                -0.09841317061409784,
                -0.05062851642757996,
                -0.14436116955953837,
                0.053179388562247576,
                -0.3282662237582722,
                -0.3002727802031735,
                0.051976538395147785,
                0.2369706928598954,
                -0.12546969539294583,
                0.1335625817660065,
                0.40468175973130543,
                -0.03460964319989392,
                -0.25439383185143427,
                -0.10987383121204278,
                0.3233393683610994,
                -0.03039686975617721,
                0.22090034990757113,
                -0.07607478207337294,
                0.02538878011224073,
                0.28806146337504823,
                0.03866632106362151,
                -0.07003408317221672,
                0.44647949835594286,
                0.42617348058575494,
                -0.006192256654439523,
                0.08970630595729177,
                -0.04674694852688984
            ],
            [
                0.13717439202558226,
                0.06913658772788925,
                0.09828623787354106,
                -0.23996115837727675,
                0.22205230778693288,
                0.45053334253946303,
                -0.23898529467401655,
                0.03975815130858974,
                -0.13573160962463396,
                0.11478372276444986,
                -0.11181876230202385,
                -0.3827398227150228,
                -0.23073946652078656,
                0.16896786708577963,
                0.3352667340779514,
                -0.22351699083584567,
                -0.11967925310456565,
                -0.2285647962546929,
                0.2987239940972259,
                0.1623108510820288,
                -0.003431817495535379,
                0.10932972286622758,
                0.1714687845122681,
                -0.174187343520761,
                -0.049035161816422965,
                0.2195074175225243,
                0.1342206936988948,
                -0.27566858354570645,
                -0.08884191493139867,
                0.35887605341062967,
                0.27146126079062977,
                -0.1624431049717481
            ],
            [
                0.10332741748549007,
                0.17519003717582543,
                -0.21761520677553073,
                0.21317759094404107,
                -0.22135138303531574,
                -0.11095898436689104,
                -0.011758487734492083,
                0.1544900881667718,
                -0.3390052597613704,
                0.11703012137391683,
                0.16182731269664205,
                0.10651147897448265,
                -0.07224243641027057,
                0.17976593058561272,
                -0.0027758031125667748,
                0.3707789240894552,
                0.04076350795061394,
                0.03791354832546073,
                -0.028420557141351128,
                -0.07860645361066283,
                0.2600898768657498,
                -0.27570008101319465,
                0.05097647597892485,
                0.15079607945568316,
                -0.03205324519288038,
                0.053734163441257116,
                -0.34976935338426307,
                0.21512902625610852,
                0.12694960145412718,
                -0.36927102246153687,
                -0.15110950904702977,
                0.26022501302707235
            ],
            [
                0.016041776124487636,
                0.2856944891433335,
                0.1648584624325518,
                -0.11289772352383624,
                -0.22749416249242038,
                0.3581228979847471,
                0.25059682454129345,
                0.04930059223792875,
                0.27081201242200464,
                0.19099662824162392,
                -0.041795877970229385,
                -0.12119865538827561,
                0.10485618990747453,
                -0.061637617510595266,
                0.084209765470949,
                0.17875765287334058,
                0.33689154242406066,
                -0.10956813945311175,
                0.24542947369171342,
                -0.27585681077386986,
                0.23706988896298256,
                -0.15957322622025083,
                0.026462235939989417,
                0.1810870641102955,
                0.06841859083891172,
                0.11236392644601194,
                0.07536604201102279,
                0.23132895997479133,
                0.0823976615105667,
                0.25919081014809114,
                -0.12285405406581817,
                0.13710559125229296
            ],
            [
                -0.3178039836438394,
                0.28233061721100416,
                0.10245477394032522,
                -0.11756691662093625,
                -0.07457327208961753,
                0.23410047889546293,
                0.2403400203616895,
                0.2015398718190131,
                -0.032291405827900244,
                -0.2226345258663885,
                0.2451645862481286,
                -0.07495260567630564,
                0.17476790928374678,
                0.08736520973722757,
                0.0037179696404025853,
                -0.30329462310149613,
                -0.055940014800097686,
                -0.24471676350749114,
                -0.2160256918260428,
                0.019335428161502636,
                0.21312804786364617,
                -0.07847316632886352,
                0.13165660030453322,
                0.11125099818056929,
                -0.2897753959530859,
                -0.20284750713374514,
                0.1786364241713222,
                -0.2720816436803296,
                -0.3593652950994842,
                0.3126245033796323,
                -0.26400525869648817,
                -0.02818969937421637
            ]
        ],
        [
            [
                0.19639069369804404,
                -0.19976330408953238,
                -0.1337015633745045,
                0.3012789803329737,
                -0.05559151437171468,
                0.18328906265126302,
                -0.06431298104065425,
                -0.230793565557764,
                0.19349196429069224,
                0.13439847736058663,
                0.17777356977065803,
                -0.06571092914206597,
                -0.2639449799981961,
                -0.13925146459938034,
                -0.12491223641394972,
                -0.29601654749139944,
                0.3200560578675658,
                -0.00728356693503792,
                -0.13031921412086828,
                0.23328944926186315,
                0.3266311043716303,
                -0.29965316058498326,
                -0.01056148237235817,
                -0.19541630226633772,
                -0.2876648435637714,
                0.025102549637775525,
                -0.28727936477952926,
                -0.2795897240111546,
                0.11978888386488319,
                -0.19850421879554006,
                -0.12447956523316123,
                0.04185333652734534
            ],
            [
                0.05178365023439095,
                0.3116115063411816,
                0.37053628273127126,
                -0.017790124893874538,
                -0.11451582071852057,
                -0.1872515948388517,
                -0.23020811991680445,
                0.24828074818763424,
                0.24103325307318027,
                -0.4258164819015531,
                -0.058545029315837445,
                0.2679593283573365,
                0.20540918796383126,
                -0.21415855662992547,
                0.42525788954733557,
                0.059294864971909604,
                0.15654235740768016,
                -0.43814324616126477,
                -0.14913949917091077,
                -0.15057565624015234,
                0.08969234531212951,
                -0.07846530530936643,
                0.19427881561216007,
                0.002244873649124752,
                0.2071588874987216,
                0.17753137455179724,
                0.37229050167499106,
                -0.11300760323615096,
                -0.09078410051396642,
                0.3193205129664809,
                0.42527311980235916,
                -0.19872827465602622
            ],
            [
                -0.2936599819929636,
                0.017674886671369218,
                0.26897849058406237,
                -0.0749076139354933,
                -0.12283893306196349,
                -0.3301306967027341,
                0.337382834329278,
                -0.32257627388171617,
                -0.08986851518909575,
                -0.45069814773586725,
                -0.01416818460353483,
                0.017007892545120657,
                0.2150016647022607,
                0.03722048556644116,
                0.22764219515246806,
                -0.25699936487268066,
                -0.11816152741304792,
                0.0034858293530948005,
                -0.2691773447963961,
                -0.33777361987434057,
                0.06284983015431977,
                -0.08007385459254636,
                -0.23711671737821516,
                -0.2111552364062612,
                0.048173697046265986,
                0.24481582922994363,
                0.10846276651473201,
                0.2697718679114671,
                -0.20600743918123593,
                0.043652174639795614,
                0.4040058374381803,
                -0.18336325267126127
            ],
            [
                0.06991805925412706,
                -0.44221077530835684,
                -0.6572738266145518,
                0.5425932855851995,
                -0.025112190515803223,
                0.19385453308389117,
                -0.05087446470165937,
                -0.17265684713685636,
                0.18190818675177017,
                0.38724156990509834,
                0.3015471111942065,
                -0.10400141641599711,
                0.1410515148385659,
                0.43978522009898613,
                -0.5033181791134552,
                -0.24783320866532232,
                0.3671050739885708,
                0.5321351123202525,
                -0.08965484736832827,
                0.6458991989535311,
                0.56720184680604,
                -0.48212342336927383,
                -0.30096625779550573,
                -0.11669165596208535,
                -0.1377473778675463,
                -0.348484269967252,
                -0.5660243146257132,
                -0.4685581308675983,
                0.015730945697282703,
                0.07613014962960434,
                -0.7126131829022033,
                0.17101683963603523
            ],
            [
                0.13201515960527682,
                -0.0679385976841278,
                0.042520057653866065,
                -0.2569686797561901,
                0.006650548364789756,
                -0.25462922791880493,
                -0.10061241028116331,
                0.1273043055668276,
                -0.2315066523121203,
                -0.17076040171477655,
                0.0818766116277449,
                0.09869677679687781,
                0.11077306368012216,
                -0.13825392505853676,
                0.29304276796879236,
                0.19962304367239223,
                -0.2800659862341562,
                0.19660310313908438,
                -0.2139752538232258,
                -0.15906488501360955,
                -0.36717310206849185,
                0.15329735097357888,
                -0.07628350917591274,
                -0.10902628390967489,
                0.06897015787818257,
                0.017097852745835158,
                -0.252688290479262,
                0.15997109730948517,
                0.0911935648807755,
                0.14435746690492898,
                0.33246331082146935,
                -0.3689308605271716
            ],
            [
                -0.35443279878725964,
                0.17008841232661626,
                0.3826491888508138,
                -0.22813017119240658,
                -0.27948443175939774,
                0.21337691747034812,
                0.12008229662321056,
                -0.2160283201100495,
                0.037491400980309966,
                -0.3263842090248177,
                -0.023316502065454096,
                0.13599100564774,
                0.2931078026259165,
                -0.11935354102347606,
                0.365805907748792,
                0.021776236667241947,
                -0.08200466000030775,
                -0.4857767762232169,
                -0.25024025826506513,
                -0.6238101637882747,
                -0.2544430512417066,
                0.43529484236802984,
                -0.2707994818578654,
                0.017162386982620393,
                0.1810680648460556,
                0.3568452419205933,
                0.47245407798828465,
                0.4215814066296991,
                -0.0875678629143707,
                0.33983233016125647,
                0.4229141316100442,
                -0.18040565865101674
            ],
            [
                -0.08815984948222971,
                -0.16493814650128288,
                -0.28389503404511274,
                0.22622499922369038,
                0.1699142720833515,
                -0.1854877076528081,
                0.1828312358284718,
                0.12093087855323324,
                -0.1573097062380136,
                0.2877678309273291,
                0.03483625962433421,
                -0.2716792748222774,
                -0.10029250461974089,
                -0.26612591050785717,
                -0.36926326301806267,
                0.23287493877822993,
                -0.015610662246744197,
                0.20779245161773943,
                0.26686606374905975,
                0.27869710600493586,
                -0.15668921645367778,
                0.24604312997391936,
                -0.12609462851901507,
                -0.20542883933745837,
                0.05309513635670643,
                -0.04290846781274875,
                -0.24495715545868774,
                -0.11929157476927084,
                0.1879212173362464,
                -0.15084140047191358,
                0.12641073803769115,
                0.0362886205933683
            ],
            [
                0.2821611917995138,
                0.2591642952354693,
                0.019153069058637874,
                0.1017415657078903,
                -0.14949375905533,
                0.09986354413391618,
                0.23812666931189452,
                -0.1415846178386822,
                0.25759523287371816,
                0.33688856099312103,
                -0.21170074344504927,
                -0.2405997112795446,
                -0.11302340592546258,
                -0.0446328055703143,
                0.0009176586339380591,
                0.22351902050876016,
                0.01921596391188768,
                -0.032855142557045455,
                0.06231669063756591,
                -0.1551618216078168,
                0.047199627048106964,
                -0.16534877505723886,
                -0.027175995679214204,
                -0.04946414630359828,
                -0.18419011352795425,
                0.19986916836273605,
                0.042330545907339076,
                -0.18460728127054624,
                -0.16501502212460292,
                -0.02580792571813391,
                -0.2677684012296985,
                0.1656029824965453
            ],
            [
                -0.1535951218181574,
                0.37213869890203527,
                0.3882489089773798,
                -0.42693498306983674,
                -0.31496704776924817,
                -0.3261987318461514,
                -0.23670109585304486,
                0.1272827718712426,
                -0.2127155671289203,
                -0.3492522999387733,
                -0.23438980781464455,
                0.3407543872643587,
                -0.04851946625627443,
                0.020300250772115714,
                0.19314700434042914,
                0.16094605416807659,
                0.187399384917391,
                -0.33523971973924904,
                -0.2542948179654475,
                0.014265980168721765,
                -0.33488293524424223,
                -0.022538313716853057,
                0.0756207432638321,
                -0.29751806139138526,
                -0.12984368678852257,
                -0.23314511163199217,
                0.2808537662638795,
                0.07062244898645954,
                0.16998439487208614,
                -0.10409181936263329,
                0.03452818705688285,
                -0.04615639531052916
            ],
            [
                -0.222017035018968,
                -0.03710303868803027,
                0.2416301508815066,
                0.037236310266931714,
                0.1395017120625031,
                -0.22926129315744734,
                -0.20702523717833513,
                -0.2117350812627796,
                -0.05608562613510109,
                -0.1774772411260898,
                -0.2727956114957635,
                0.35854370956841036,
                -0.21068339634621402,
                -0.3096183581298427,
                -0.028232077401426324,
                -0.034421353989883864,
                -0.17869000572810295,
                -0.04363899917609305,
                0.09962828466280224,
                0.1038063196796172,
                0.05566828108629275,
                0.04141311051546229,
                0.037975274051088734,
                -0.2345996061508163,
                -0.16404169505694444,
                0.21064301208411215,
                0.12646467563218897,
                0.00125294587201131,
                -0.16428604134686786,
                -0.14837120488919758,
                0.08460611723084208,
                -0.3315680502020243
            ],
            [
                -0.3620070627522486,
                0.17392858907262304,
                -0.09251342638450674,
                -0.1448955720011407,
                0.06833732609434676,
                -0.16968284384589521,
                0.0606129057090871,
                -0.05411306638565076,
                0.09717666450195798,
                -0.15562585185340005,
                -0.04239740075364201,
                0.06697753162402742,
                0.29883500098208393,
                0.17506021507269248,
                0.22952440566897003,
                -0.06387744497730846,
                -0.1424101575636043,
                0.13887885119763418,
                -0.19662425430308061,
                -0.07718796744711909,
                0.142251784748073,
                0.282353613559808,
                0.2804140622392011,
                0.26727897041142,
                0.008920862879304929,
                0.32258198980145797,
                -0.19889978260901073,
                0.3091055925229719,
                -0.09284749464023041,
                -0.10391654877100766,
                0.41909860236718555,
                0.04911331502279305
            ],
            [
                -0.13232191327773973,
                0.028750912158698797,
                -0.30830470955209316,
                0.05569731336202754,
                0.15295362154370457,
                -0.2430876440832762,
                0.2140447378724315,
                -0.2168611770340676,
                -0.05900211113500831,
                0.35720315774028305,
                -0.09063462163400332,
                0.20308391386500246,
                -0.2653547561188216,
                0.3387132872809948,
                -0.2654996513899802,
                -0.04564275349314333,
                0.30301512978383655,
                0.43610463987884185,
                -0.12705071853056613,
                0.09202442348884506,
                0.03720513116471717,
                -0.22739885107753008,
                0.06383276023838812,
                0.05802836601802849,
                -0.22169747529187442,
                0.25771906149805307,
                -0.0853655040911176,
                0.14191503587725102,
                0.1639569601344667,
                0.015744476997726284,
                -0.4392192299143808,
                0.36559686642805433
            ],
            [
                -0.057904571929275915,
                0.1279639113170091,
                -0.3687843145054132,
                -0.12369793627634033,
                0.343933616768295,
                0.20822242285710837,
                0.13125207189173604,
                -0.004235985345716766,
                -0.264884797397318,
                0.5140358769521406,
                -0.12022372491221224,
                -0.05042393090485205,
                -0.25087907568814877,
                0.21740710708464847,
                -0.4252245406394722,
                0.2351857910490544,
                -0.18710836666607916,
                0.4698362116975739,
                0.1406753704996641,
                0.47964246066537036,
                0.41020958778381655,
                -0.37254009211075967,
                -0.03352931729003556,
                -0.04522952993968125,
                -0.05900506879031457,
                -0.158910955447145,
                -0.25547641782491154,
                -0.16530599789457365,
                0.18838991782840872,
                -0.04413670352150174,
                -0.23875569903504507,
                0.027755363217994183
            ],
            [
                -0.08029723593537642,
                -0.07782607340930407,
                0.1771473113874318,
                0.018367519694876724,
                -0.06947803955215728,
                0.2319241329105861,
                0.2984404309033791,
                0.17770518961624784,
                -0.22854187709299617,
                -0.29525558818685144,
                0.16028585159258346,
                0.12948898814820878,
                0.16366615895781708,
                -0.28042660989405516,
                0.30624770179783445,
                -0.27742894116581823,
                0.10510262938692785,
                -0.2951091217669575,
                -0.1393729506357412,
                -0.3142102343510211,
                -0.4310475563506557,
                -0.14713233209716856,
                0.13988996599576936,
                -0.09319038430920241,
                -0.00678356782448472,
                0.2649454097583509,
                0.3038381179864027,
                -0.06673725130483808,
                -0.42784429995307416,
                0.08615458336749518,
                0.10110904708806216,
                -0.2067313285367059
            ],
            [
                -0.1550126280582204,
                -0.22159264460796335,
                0.3677960291713204,
                -0.4149221267570117,
                -0.2025545846334164,
                -0.11426493154354342,
                -0.21265902881114088,
                -0.11652927323217964,
                0.08276062259590028,
                0.12404704775122863,
                -0.2696980842355535,
                0.17498347886365512,
                -0.07220848604995891,
                0.00013788674306912355,
                0.29324275225850555,
                0.26090005063833316,
                -0.13861464173498828,
                -0.26186579951021705,
                -0.14091072687243952,
                -0.06014957486001066,
                -0.1783713552847074,
                0.07753141302091897,
                -0.00788904339029293,
                0.1301098017690866,
                -0.16345078713463587,
                -0.17994242493072338,
                -0.2117184762671331,
                0.21508097980623853,
                -0.015769379421783986,
                0.02278848328581354,
                0.007521208412376451,
                -0.14688811701831306
            ],
            [
                0.2728536804717974,
                -0.2784568456751963,
                0.03434787966445622,
                0.18165754687243307,
                0.3578105250984895,
                0.14797293287396104,
                -0.26077593273569694,
                0.08537961744167102,
                0.21011944236824381,
                0.4684586216972535,
                0.35949668196775375,
                -0.41904992614765463,
                0.10265407392583241,
                0.3033066990941141,
                -0.4817835199600209,
                0.26192097077828774,
                0.04452897248336133,
                0.3743653195315335,
                -0.028203741129968436,
                -0.056354685160394595,
                0.031919333005345586,
                -0.1293595596965825,
                0.05265510580346537,
                -0.0057229596826810555,
                -0.3427379444933625,
                0.16654479727307042,
                -0.45124529463179347,
                0.07779490942584029,
                0.36811633725648707,
                0.00035322420726997117,
                -0.09465087201959138,
                0.12103210935827766
            ],
            [
                -0.45567458764038166,
                0.14832920508526662,
                0.3218698111142051,
                -0.3047558691303736,
                0.04022375970441124,
                -0.16178115549672173,
                0.362599349936573,
                0.052951751857898,
                0.031065045996188225,
                -0.6422442786687486,
                0.16853070630030878,
                0.21743846504230752,
                -0.27226126237225684,
                -0.16033176094584992,
                0.07038353933197097,
                -0.12194869644745124,
                -0.21311373393587837,
                -0.46332284167481197,
                0.013554584678756502,
                -0.44019754338567296,
                -0.5398316909623783,
                0.4504971304860454,
                -0.1577320792037182,
                -0.15850639085112175,
                -0.07937083855442921,
                0.11016051997838233,
                0.5233303090902124,
                0.4267009782528,
                -0.15684995989114753,
                -0.11845781000491475,
                0.5766791860334488,
                -0.20937216082067567
            ],
            [
                0.20697049836310827,
                -0.1603970674874929,
                0.16382680293379423,
                0.047371027400766444,
                0.26367030924295526,
                -0.17177104721618988,
                0.21550050114024866,
                0.18999866335602808,
                0.07564649814083901,
                0.20901103630613418,
                -0.18017390875748265,
                -0.06896311152890267,
                0.2705062364476518,
                0.32415967870205953,
                -0.17455295241433638,
                0.16881500398603153,
                -0.12845554246974783,
                -0.19276427942836455,
                -0.23792783205320994,
                -0.2095119085814037,
                0.03443571399108456,
                -0.14754060948462364,
                -0.25276841414917156,
                0.23060224105293822,
                0.008056043167123104,
                -0.27594754717729447,
                -0.0039602033867009905,
                -0.07553774753689281,
                -0.25562558291558296,
                -0.10971567131159254,
                -0.2849497152684359,
                0.1558579706515655
            ],
            [
                0.1389081410536808,
                0.35633196065627687,
                -0.09503918196511069,
                -0.024493052211023412,
                -0.05795808501208339,
                -0.10941118697700254,
                0.30059020475355686,
                0.17769337945400368,
                -0.25699788899961135,
                -0.37720857292764853,
                -0.1896025334683497,
                -0.0029483767403050095,
                -0.23192301782227914,
                0.13794125818505462,
                -0.040243865908268915,
                -0.13450140683875103,
                -0.31612052879273134,
                -0.43218187323787505,
                -0.13829532207834713,
                -0.38281897022384537,
                -0.060251745894512196,
                -0.004221856916642584,
                0.13084497177194526,
                -0.282659553442552,
                0.07563887289994499,
                -0.10793572947185248,
                0.4338528353303805,
                0.406098102179182,
                0.13327852874480514,
                -0.028460853495774315,
                0.47545701767477444,
                -0.35515016658613385
            ],
            [
                -0.07740958927123984,
                -0.30621378516874304,
                -0.0788483773511207,
                0.22586156907084506,
                -0.20435005338951528,
                -0.10691504471560083,
                0.1714152787858894,
                0.15507119707267272,
                0.2942902138831406,
