{
    "layers": [
        {
            "size": 30,
            "activation": null,
            "initializer": null
        },
        {
            "size": 32,
            "activation": "tanh",
            "initializer": "heUniform"
        },
        {
            "size": 32,
            "activation": "sigmoid",
            "initializer": "heUniform"
        },
        {
            "size": 32,
            "activation": "sigmoid",
            "initializer": "xavierUniform"
        },
        {
            "size": 2,
            "activation": "softmax",
            "initializer": null
        }
    ],
    "weights": [
        [
            [
                0.14903874874738154,
                0.19610113656068887,
                0.0026482135533150023,
                -0.1142621106101313,
                0.006385995446636121,
                0.016596426939033578,
                0.19886146920284387,
                -0.1495488479470338,
                0.13771251469502502,
                0.17537429840528107,
                -0.07207786367051135,
                0.26524354798524924,
                -0.05006271212828277,
                -0.09118212168514035,
                0.01620072549307677,
                0.1600292007049462,
                0.08272749283676908,
                -0.14611819258687392,
                0.40731363722781205,
                -0.43768493815532916,
                -0.1380818228245973,
                0.009630349212014475,
                0.06348377839336579,
                -0.34662775171616106,
                0.07176583567764008,
                0.23868262984455194,
                0.1579985674037828,
                -0.09834811018333967,
                0.025445079128826494,
                -0.05423956517654689,
                0.332307733651763,
                0.06059284731946221
            ],
            [
                -0.13062888402580916,
                0.1954951203049183,
                0.12346076112686712,
                -0.2832804646608733,
                -0.3751724314271357,
                0.348384389493044,
                0.07043356454770859,
                0.22974111817156875,
                -0.06776548445464142,
                0.06820118555201436,
                0.2327963982572636,
                -0.074962673084887,
                -0.5570652223064347,
                -0.5145049284212855,
                0.03527883875924757,
                0.1562742386835827,
                -0.17868365896380475,
                -0.11088927519799648,
                0.13906079789851442,
                -0.13958078583787453,
                -0.15579591641134544,
                -0.07101487231299931,
                -0.32378860472429877,
                0.23205325697527018,
                0.022298747802768804,
                -0.11696481244195503,
                -0.1363753362714077,
                0.21969976359914695,
                0.05778604978226595,
                -0.013779589930205605,
                0.19090167382925127,
                0.10141567086527609
            ],
            [
                0.028363422663307086,
                0.1914242700253565,
                -0.08796630725099791,
                0.25607985126152527,
                -0.12973707500489237,
                0.0855299584434898,
                0.20660077582294764,
                -0.11016805353723688,
                0.22196791997841836,
                -0.12514956541807104,
                -0.07963675784752529,
                0.05337359557054772,
                -0.11639184266817812,
                -0.007742255286097635,
                0.03637927307926966,
                -0.045929464678221975,
                0.28066190041925293,
                -0.19158596207837827,
                -0.5144917411280346,
                -0.07883484121046266,
                0.1057904121267901,
                0.043916769236773484,
                -0.02067480316925206,
                0.07196548693489614,
                0.4331885353330025,
                0.13805297721964183,
                -0.016857237629830473,
                -0.04970949772952303,
                0.11319034107187038,
                0.112736281021377,
                -0.0902365528895373,
                -0.23105135151770023
            ],
            [
                -0.5083568807983817,
                0.35148669646815206,
                0.34633287266413787,
                0.21669534952665812,
                0.3765947907831932,
                -0.043902215328059865,
                0.13714487560947608,
                -0.18479099901432167,
                0.15844754321592017,
                0.16766671994344043,
                0.314178711488085,
                -0.0314245989010916,
                0.19635995652620844,
                -0.059420669454868104,
                -0.32818691229249225,
                0.36256458593935975,
                0.1997472089638073,
                -0.6591016090669092,
                0.29889961588394715,
                -0.49285952275347744,
                -0.26109067308778705,
                0.3903453922478727,
                -0.4926502825502483,
                -0.12613889493952565,
                0.11053786898763784,
                0.32509221824362955,
                -0.499396259527732,
                -0.22214302831858887,
                0.21666190893049433,
                0.1960950519953499,
                -0.42011368958505135,
                -0.18842069423525193
            ],
            [
                0.5152041202510718,
                -0.03958962428299818,
                0.0005966481536543896,
                -0.11943760134848241,
                -0.06055878531486292,
                0.2444213124746865,
                0.03578356665024924,
                0.3313479307047081,
                -0.071820462435297,
                0.014055982245162652,
                -0.24569098769885264,
                0.012406804852674348,
                -0.012069220023763982,
                0.018311344016136794,
                -0.1947890995347987,
                -0.18642232715174847,
                0.505531340214433,
                0.32072688189728443,
                -0.2079141214797468,
                0.0069184228859751895,
                0.08329531843150707,
                0.11279904264366078,
                0.11395291327308227,
                -0.03421846463769763,
                0.0828837900023457,
                0.08068851626955122,
                0.17763253889660532,
                0.06401574621923896,
                -0.2964958388885223,
                0.0229702676389069,
                -0.10084064173399153,
                0.13438187860884435
            ],
            [
                -0.07698596054329093,
                0.24273269346983928,
                -0.2790165288597709,
                -0.2768451015954919,
                0.24152957164823102,
                0.23709421271665165,
                0.07166415100142866,
                -0.06644030365028658,
                0.1421433400540068,
                0.3394774151923204,
                -0.026515753349551714,
                0.01198653921973318,
                -0.11894830242499338,
                -0.12435040229142647,
                0.15710657549257664,
                0.06686208811035535,
                0.18841946329691442,
                0.01032116783991738,
                -0.3102244691209375,
                0.1367946436894803,
                0.27532674137568375,
                0.15380921689505078,
                0.04448916858431189,
                0.05820433209442286,
                0.3320130414341786,
                -0.31193578245690323,
                0.11798547452786856,
                0.22213814087901443,
                -0.13784564674600652,
                0.007312418979542264,
                -0.3362310102045154,
                0.10334941359088744
            ],
            [
                0.16648267565755137,
                -0.08149007728849682,
                0.35111432057376146,
                -0.11796616869191517,
                -0.051827857247711155,
                0.0608461349541324,
                0.0544419864556351,
                -0.058444973064850615,
                -0.13075508999793983,
                0.37624482098147466,
                -0.36591101099373124,
                0.2557644826301596,
                0.15376310046612737,
                0.023281599747676626,
                -0.006841655091611572,
                0.4430192605144224,
                0.08074838403887726,
                0.2682916993143796,
                -0.10530470941288972,
                0.012542094094259212,
                -0.06250312649963508,
                0.29971574055202543,
                0.4958972856525541,
                0.20923211142465006,
                -0.16464283599692922,
                0.2569427671810659,
                0.1813488211791028,
                0.060028565104445465,
                0.14789361341087567,
                0.06386194549814472,
                0.17267890069636924,
                -0.14668986210849305
            ],
            [
                0.18376706653240993,
                -0.44404714426607705,
                -0.12214656181957466,
                -0.04966563283588245,
                -0.13727985206474494,
                -0.10194634800679993,
                0.23001898670407733,
                -0.5881714688277405,
                -0.1488236166708842,
                -0.024035224511622547,
                -0.09070904910171552,
                0.02377759287831295,
                0.06682077516257659,
                -0.12036845312765025,
                0.06274425533428778,
                0.2558839519326007,
                -0.30216782265422704,
                -0.21152918592002348,
                -0.1694725766129889,
                0.08534201179119835,
                -0.182578619785532,
                0.20190101834266527,
                -0.09149347945327034,
                -0.020254875317360317,
                0.028261350633362627,
                -0.11283263452221516,
                -0.0460762239059146,
                0.11352818669290855,
                0.02350172967262365,
                -0.3482210192303,
                0.05864901304984946,
                0.5240173699023197
            ],
            [
                0.006688311074953431,
                0.3122567917433528,
                0.1266996166412337,
                -0.32463357442919394,
                0.06209264768312442,
                -0.10467262604879982,
                0.26843898378851266,
                -0.14585351068279115,
                0.15508268804941056,
                0.05017576042735393,
                -0.06551504031643693,
                -0.4639624644045354,
                0.16887269140301533,
                0.28798424328099115,
                0.32562052326174007,
                -0.07476174717947609,
                0.007508114267338537,
                0.29652502833044625,
                -0.00908363504099576,
                0.05819722665260151,
                0.014422699483553559,
                -0.17018265162509824,
                0.07915217435109877,
                0.09773306832413979,
                -0.02121389879680786,
                0.3788918338352415,
                0.006933420022258025,
                0.09535642613681082,
                -0.1280530988370963,
                0.2588588287921026,
                -0.3360047606168354,
                0.21761012509464944
            ],
            [
                -0.019127892648851234,
                0.022748776637516614,
                0.07352684864424207,
                -0.09670593660425418,
                -0.3421732790563115,
                -0.10725391392695277,
                -0.17964315086346272,
                0.26372710291532786,
                0.11950121607093776,
                0.11781050042663693,
                -0.03960650328268692,
                0.24455584534075328,
                -0.06606738681619843,
                -0.1261430059488876,
                0.22617631657989112,
                0.1515369065272146,
                0.10296202711593935,
                0.25317701143320864,
                0.29050862952113493,
                0.13878932897177662,
                -0.06117636039695681,
                0.25920388629445096,
                -0.046454177765005995,
                -0.1922726226699284,
                0.2921554257454407,
                -0.15599393670491685,
                -0.1047303016082638,
                0.21888004406891945,
                0.2905205089487516,
                0.1987897485077025,
                0.32663079451543076,
                -0.023590013452669728
            ],
            [
                0.005273943100404496,
                -0.388567632782832,
                0.3072398804285857,
                -0.16366234636531837,
                -0.13475583914923472,
                -0.10047052224809962,
                0.30608204185603727,
                -0.1904232064664412,
                0.3853172044566643,
                -0.21799162495266355,
                0.3322436888269996,
                0.2776857467153823,
                0.3530763217886858,
                -0.04671583604689022,
                0.22882386554155068,
                -0.5154595585276496,
                -0.06754600611816683,
                -0.33895258374905585,
                0.08880299828052002,
                0.12780021978564482,
                -0.25814688611890735,
                0.08857382296916493,
                0.37346150535738626,
                0.2909838959389762,
                0.20290181418155145,
                -0.14288789180439895,
                -0.11898608882591981,
                0.07864536406999714,
                0.03125149738913477,
                0.13565609458429123,
                0.1620524974081976,
                0.2626871980927989
            ],
            [
                -0.011954785056388036,
                -0.010073898016855081,
                0.22213140035426052,
                -0.20994335069256204,
                -0.04282633943634481,
                -0.2770770316926303,
                -0.09264099812385562,
                0.11126008009623198,
                0.08487802929006215,
                -0.06955907190729371,
                0.33103366644039295,
                -0.06706364060130628,
                0.1510674590300664,
                0.35651805810122184,
                -0.11137447374526066,
                -0.3163593630035411,
                0.5042942048137055,
                0.2338473506995598,
                -0.38902567205866273,
                0.24736047504110437,
                -0.11654565890972786,
                0.20000958615550102,
                -0.3134361075669242,
                -0.30907650335400344,
                -0.14003888401325104,
                0.0034184943368996638,
                -0.24926461679657608,
                -0.10655065492244652,
                0.03177539894973613,
                -0.15356777257335738,
                -0.2975697707564998,
                -0.10041903690053115
            ],
            [
                -0.04816588776996738,
                0.516775973180997,
                0.045940438332349835,
                0.08091638894263356,
                0.20537818275908706,
                -0.20149121649821572,
                -0.10031632348983774,
                0.011096112519999559,
                -0.20581657605806436,
                -0.04722277807966121,
                0.16374442180815174,
                -0.2874100948839286,
                -0.027962666148137232,
                -0.11171328407809034,
                0.11480670839584291,
                -0.027557101268584537,
                -0.05643669055193632,
                -0.23664226290846882,
                -0.10729728790745015,
                0.32509353902932003,
                0.003625452074403539,
                -0.1814104215362023,
                0.2221920560929257,
                -0.197102185840183,
                -0.19656752747213854,
                -0.26667395857645154,
                0.2671308201110893,
                -0.36609227130462113,
                0.2164296093980483,
                -0.5035683157424087,
                -0.11630222546766902,
                0.11639418049711905
            ],
            [
                -0.23327228948561232,
                -0.0002851814652913684,
                0.04778795786282248,
                -0.21177222173067242,
                -0.45873080817807477,
                -0.2067365978417942,
                -0.38898165459171263,
                0.18511918254587578,
                0.18745077497464163,
                0.11949169795414219,
                0.16884070728015652,
                0.07038109538268755,
                -0.20375959234549845,
                -0.15729070276613502,
                0.04331642581203735,
                0.34320195777613655,
                -0.2051884721607365,
                0.04287250334879461,
                -0.2950540829374196,
                0.24086257504185798,
                0.07184120579086743,
                -0.28361935307719216,
                -0.08719335076193548,
                -0.05551213224270084,
                -0.3373800813655975,
                -0.24250827634463407,
                0.0786506171410886,
                -0.282127484641079,
                0.15568265459542713,
                -0.1305467691792401,
                -0.04188202223208143,
                0.10614485915868649
            ],
            [
                -0.03675371540337824,
                0.004083657840192396,
                0.3053481101684852,
                -0.0999786828355701,
                0.20523876601174035,
                -0.2710830145956347,
                0.004890794274403415,
                0.13345407231923545,
                -0.025957545670103572,
                -0.19993379237347114,
                -0.1252832921892744,
                -0.3454784986041666,
                -0.27611282536025833,
                0.1302678959153579,
                -0.3407333761515002,
                0.13914114742717393,
                0.014853506284548675,
                0.14684896855330953,
                -0.018152694239456205,
                0.07234517174700356,
                0.019972230610914774,
                0.14661366737295883,
                -0.21200999439271598,
                -0.09192589377071778,
                -0.009289974873129894,
                -0.1128407738826816,
                0.19799357781830618,
                0.05211229214087359,
                -0.34018243533856224,
                -0.1142100098683624,
                0.011155912850293886,
                0.16022614443810998
            ],
            [
                0.2046883017120896,
                -0.004628665714237022,
                0.10120583190002198,
                -0.03087051124197772,
                -0.12401891702712314,
                0.03879153886225877,
                -0.10542652860642611,
                0.23751350071578506,
                -0.1220789479025935,
                0.03629123958843373,
                -0.17316493912785644,
                -0.11123089139075008,
                -0.08986763065271745,
                -0.24645119925635461,
                0.15028041549533053,
                0.12565129648006362,
                -0.08181901927148405,
                -0.142939848662946,
                0.06852420313702759,
                0.28037119758101975,
                0.20753184346696582,
                -0.04127578552012457,
                0.38074180708009947,
                0.03834356201643229,
                0.07932031964410732,
                0.21875561837004798,
                -0.030032101408873257,
                0.05799776199723261,
                -0.27880891374404737,
                0.40799041601441116,
                0.10088067395186986,
                0.3001341580520236
            ],
            [
                -0.15531580941910006,
                -0.26235810658212244,
                0.2564045873353062,
                -0.07385557154087487,
                -0.5021405901931453,
                -0.14592703875123905,
                0.19024133407291655,
                -0.35844708908261447,
                0.25702451169201423,
                -0.46507995597062235,
                0.32102202944505354,
                -0.19372454374206183,
                0.3881606529788362,
                -0.31382245724600905,
                0.2550849342033931,
                0.3996673699821338,
                -0.14282567755017397,
                0.17194449642903473,
                -0.11812002993626854,
                0.13792520637612007,
                -0.23047192395114974,
                0.3083147263191387,
                -0.10842911175225164,
                0.01126681572404438,
                0.13337011496259846,
                -0.13463130504112858,
                0.12580171224214334,
                -0.06776750661618548,
                -0.4672590690271158,
                0.2970955988639829,
                0.11319505006440657,
                0.09601967931637725
            ],
            [
                -0.30643802443227103,
                0.15586923142000217,
                0.34151816283159475,
                0.22332964434106822,
                -0.17128571104676088,
                0.47659777586133695,
                0.45263988686010653,
                -0.09872311308795026,
                0.17275970265148022,
                0.1448520615932976,
                -0.24185362172377148,
                -0.3519502927324587,
                -0.3292845126196747,
                -0.15752563397687333,
                0.05790744485596152,
                -0.011274609810867359,
                0.4494964884424827,
                0.12846785576329242,
                -0.17305845804870154,
                -0.19239724446305237,
                -0.2654607255083135,
                -0.2263080859657926,
                -0.04040328748695723,
                -0.19636516683255492,
                -0.15154327770392503,
                0.49171898558122806,
                -0.09378178952651983,
                0.06463817748312144,
                0.08597861817912698,
                0.5006981734892836,
                0.19954000179791156,
                0.08625299625392131
            ],
            [
                0.04981758018350963,
                -0.04089674171947942,
                0.18028529610776703,
                -0.4253233635817743,
                0.2221859856928543,
                -0.3779359223497486,
                -0.21657436148283365,
                -0.23124085135333555,
                0.033585325143478895,
                -0.012829585729012431,
                -0.14822638958930176,
                0.2616543173774277,
                0.32507842525157493,
                -0.2153058021390701,
                -0.04954793308917456,
                0.08331616409332603,
                0.18808228940253577,
                0.014597746697229418,
                -0.19514251105023142,
                0.2305804531510375,
                -0.14817089215484283,
                -0.0248847394141909,
                -0.026382006870190725,
                -0.08835342801665474,
                0.24271445321719004,
                0.1183671972822625,
                0.016880417824182776,
                0.06967782382065148,
                -0.09989337852195053,
                -0.11653318461804472,
                -0.16151151911618877,
                -0.18470330192745615
            ],
            [
                0.034697976667297285,
                0.07555620331201525,
                -0.08556706152693186,
                -0.014137255063515866,
                -0.30811631901688097,
                -0.04149435455872888,
                -0.08381306587094584,
                0.2724343339341299,
                -0.009561444495721858,
                -0.4181250662029931,
                -0.3130079261472976,
                0.056315793216591754,
                0.19178965302526765,
                0.14426413282211326,
                0.2804051143158339,
                -0.06654326811127999,
                -0.10290952125101213,
                0.18851235568441083,
                0.058941434608942286,
                -0.00880327308329569,
                0.3743594929634148,
                -0.37513113183731617,
                0.30162891039030154,
                0.3839344171025464,
                -0.035602628016816615,
                -0.02712561654362478,
                -0.08627105496062491,
                0.505089219584551,
                -0.06622304323050804,
                -0.03316989501860508,
                -0.18692726374746788,
                -0.009660239488978845
            ],
            [
                0.1700771013157871,
                -0.29217059680621416,
                0.4383797839261575,
                -0.4399853865375488,
                0.08447749527792495,
                -0.05030402009518679,
                -0.2783925222872352,
                -0.29153515050237877,
                -0.21475663370581854,
                0.14469243462513526,
                -0.1732691937677924,
                -0.07609329736306071,
                0.10943593779098067,
                0.12905772485140532,
                -0.01626851317938749,
                0.019186540986564513,
                -0.004434945140487828,
                -0.26139496175829646,
                0.20825109498788524,
                -0.05341330228859438,
                -0.017970392620745783,
                -0.2641161330787624,
                -0.21596827624192452,
                -0.17492887168852284,
                -0.05001008099928938,
                -0.042487580303524376,
                0.22325679048704594,
                -0.0899233059352303,
                0.025733712141661574,
                -0.016755718946156194,
                -0.005037493022397163,
                0.3233245654680397
            ],
            [
                0.029282879099028696,
                -0.10520871299413274,
                -0.24463255449680585,
                -0.19126036798076915,
                0.057776573979422916,
                -0.233698086445627,
                -0.08523717303799533,
                -0.3213875880886489,
                -0.29390921506181,
                -0.05721430604770684,
                0.12901847573096764,
                -0.06063244752435472,
                0.1602209902368567,
                -0.26050146454657885,
                0.433518191524402,
                -0.2518520231549598,
                -0.06692434428817176,
                0.25053574396322176,
                0.5740971511715128,
                -0.05981589441578039,
                -0.27865658076909544,
                0.13872989331286129,
                -0.09305639130044856,
                0.15826006870505746,
                0.11403734093371153,
                0.05396661710086185,
                0.2921477977197997,
                0.20476582492451137,
                0.03893263707749044,
                0.3862688809245622,
                0.0630283158566962,
                0.042482845811552615
            ],
            [
                -0.004394499740841613,
                0.2559993572443915,
                -0.09674664060313498,
                0.14009999444850013,
                -0.031471156089696466,
                0.031707865885903984,
                0.11517747056161583,
                0.10132590081456799,
                -0.1240895417453556,
                -0.307613012409834,
                -0.15084566412023354,
                -0.11278226302600933,
                -0.2268409120275938,
                -0.08366186612341016,
                0.3104733981097925,
                0.30922092422003394,
                0.002274623034455879,
                0.14703105108533582,
                0.1448765705846591,
                0.3727312147748306,
                0.19700672641579622,
                -0.04221018902054322,
                -0.13298172669592354,
                -0.1684381768975054,
                0.05215609248628366,
                0.11053672046963882,
                0.12321501276590845,
                -0.458782221760115,
                -0.09631574503282923,
                0.251915961596786,
                -0.11023089360445347,
                0.3230292442992146
            ],
            [
                0.5144141526145204,
                0.0823741200361223,
                -0.5864750779138846,
                -0.31931397659081484,
                -0.24668052659590292,
                -0.48936511863907883,
                -0.5096914770324065,
                0.3088114161126499,
                -0.11236953312139933,
                0.33673275841039096,
                -0.4411615997526416,
                0.21375460681915803,
                -0.049326136513911635,
                -0.5273979548760525,
                0.3833116300154156,
                0.2760494198652845,
                0.08340854742899628,
                0.5823822389565881,
                0.06557027274117443,
                0.3735362752929418,
                0.17212950265886084,
                -0.5741555245347395,
                0.47797447583293867,
                -0.21929839219534036,
                -0.32673329095331305,
                -0.32825966307497007,
                0.5247333976728543,
                -0.05294821675612977,
                -0.09232502880064843,
                0.07505109057071445,
                0.28761306077034393,
                0.30570507689806625
            ],
            [
                0.025504608055573443,
                -0.18505799716923665,
                0.14443782589989684,
                0.43836656909475336,
                0.15196030194268395,
                0.2739994577802236,
                0.011082817574321648,
                -0.27748023685046663,
                -0.22309129107656003,
                0.0005623464638225795,
                -0.14637214575439578,
                -0.00259863610198563,
                0.04465107436299019,
                -0.08524454921021433,
                -0.028435200777556312,
                0.3066863085516274,
                -0.02768182836730935,
                0.11450988890495993,
                0.008047859114494982,
                -0.08922054926266867,
                0.2528162903718681,
                -0.3079436326539632,
                0.040657129412662515,
                -0.2471430360379634,
                0.05823973583939574,
                -0.1402916554163445,
                0.037520306009359565,
                0.13377173204435622,
                0.10867609536714351,
                0.10783601088836707,
                0.0853445170872844,
                0.199267142796077
            ],
            [
                0.023935868305888005,
                -0.20594489737385055,
                0.028964626566256417,
                0.07101390903726072,
                0.029096739497524487,
                0.27904336956243847,
                0.15215854100851828,
                0.05808548948281856,
                0.20797390099826732,
                0.0291025015408363,
                0.10220601259466695,
                0.049368602176160736,
                -0.10350545088983733,
                -0.052153391508011626,
                -0.09270576305976463,
                -0.03738527609557471,
                0.2383574254215956,
                -0.3571884437361482,
                0.10700715588337874,
                0.349104773206828,
                -0.03355561032334345,
                -0.16956835913480678,
                -0.15222609393475478,
                0.3089168103490459,
                -0.10098564413762118,
                0.12835395326572366,
                -0.1435400903241031,
                -0.20265387556687658,
                -0.32558918380853724,
                -0.4063857198642307,
                -0.027627615597400748,
                0.017271640990133175
            ],
            [
                0.12340625178534495,
                -0.13887248898458995,
                0.07696266317795893,
                -0.3127070012356307,
                -0.04479776480385784,
                -0.3263760596979772,
                0.03352456544979516,
                -0.08474249824565785,
                -0.11964744997688961,
                -0.02657370938783373,
                0.18433428613000225,
                -0.2615880297225778,
                0.3112657139095972,
                0.11949006767189303,
                -0.11139969537608359,
                0.0029590988387351437,
                -0.21555461195898093,
                0.13614013954990964,
                0.011986919606990743,
                -0.034916623100967055,
                -0.11368311842434863,
                0.14541491936993234,
                0.367008272035366,
                0.2959099119323401,
                0.22183244689626253,
                -0.3931596262512628,
                0.07622850965154915,
                -0.022090312977029847,
                0.22632763804690215,
                0.4441259909163938,
                0.06028362193493734,
                -0.2847927094744843
            ],
            [
                0.05682724129217513,
                -0.22584707784828695,
                -0.12147426799781923,
                0.022567115056129856,
                -0.18460240565941602,
                -0.047826179096760416,
                -0.1474467600268474,
                -0.17328297977187399,
                -0.14154265401187172,
                0.2769441876440249,
                0.3734851929542953,
                -0.26976380640577274,
                -0.07296665027837032,
                0.10219923544917232,
                0.19211405827752043,
                0.14515449597070282,
                -0.1738194724182055,
                -0.18638848914066877,
                -0.5631168532200336,
                -0.1611324816189138,
                0.32396825194412865,
                0.033720731348229054,
                0.258517053983955,
                0.16087715702774577,
                -0.058185393812900006,
                -0.0790326865869533,
                0.1036533914026527,
                0.190593785228534,
                0.08153752262173057,
                -0.19269312404020747,
                -0.026553461182220284,
                -0.32736333350256924
            ],
            [
                -0.1666734521071678,
                0.26411189552797465,
                0.04168402241676418,
                0.006944395487696591,
                -0.07237476049221568,
                0.03172763136500397,
                -0.0024752217794285014,
                0.03635381387761612,
                0.13936053313726174,
                -0.13694433454469745,
                0.054435618861032695,
                -0.06042788853704018,
                0.24855416183899973,
                -0.00648973293879747,
                -0.2919260769650602,
                0.09785334394564654,
                0.36217937257961763,
                -0.03268363845139195,
                0.24512625279804737,
                -0.40904915695372107,
                0.17475799256890812,
                0.12513077312054285,
                0.10541911779430482,
                -0.17255691995078468,
                -0.03673975267439731,
                -0.13741865204469875,
                -0.04531265799522125,
                -0.2594635012113057,
                0.041554030372434075,
                0.04078133052424332,
                0.13749930381819656,
                -0.0818348360251189
            ],
            [
                -0.08821933359719294,
                -0.0935252054953452,
                -0.10332013209970588,
                -0.2451942724053369,
                0.01446081550035186,
                -0.14463018437175396,
                0.04292355879128911,
                0.027463481279835902,
                -0.15481707129289704,
                -0.08478338245563935,
                -0.10238644317346239,
                0.4479786017843821,
                -0.10567306963314442,
                -0.13578409177367107,
                0.17026275318981512,
                0.16902705820072897,
                -0.23660371551939213,
                0.009014332495537755,
                -0.18721542099091132,
                -0.2293430888145676,
                0.08311707567116886,
                0.05459775494950042,
                -0.036639181613744444,
                0.004107784801998754,
                0.035489994599063227,
                -0.05662932265424158,
                0.0396995272770309,
                -0.03312496444766382,
                -0.312532967506375,
                -0.08979524223750487,
                0.164970475223674,
                -0.14779571671959613
            ]
        ],
        [
            [
                -0.40218694403086813,
                -0.14707749959401817,
                0.22207845369860915,
                0.36057633126172695,
                0.4714060448683492,
                -0.3390099753320888,
                -0.0678952483725482,
                -0.13612949728238308,
                -0.31916316425191404,
                -0.016097090892573183,
                -0.4063655124004092,
                -0.17003782300040285,
                0.0403880025382293,
                0.13302453333501013,
                0.11509265838611558,
                0.2879391170213383,
                0.2799187663289036,
                0.3293648011125102,
                0.08444809619434973,
                0.20081761584627716,
                0.5363131946474105,
                -0.1595356474347803,
                -0.0422740729610972,
                0.24865386234161835,
                -0.4489460835310446,
                0.032527194996564805,
                -0.20726457368764845,
                -0.06641771104209462,
                -0.3039394321292821,
                0.507856477509699,
                0.10503976062903485,
                0.21123927820446967
            ],
            [
                -0.3522411039704516,
                -0.06627394432621453,
                -0.2904664716382951,
                -0.20877988613530357,
                -0.0290948258216798,
                0.18438531807101607,
                0.1557336493668398,
                0.400153016992294,
                0.13432222873108846,
                -0.27712212218257226,
                -0.3078549384579407,
                -0.2883865952522436,
                0.2340505958954558,
                0.3129295371979295,
                0.0470209104062659,
                0.048854061951087185,
                -0.40350466312348043,
                0.20836327900500012,
                -0.030127052411109505,
                0.38382223287269823,
                -0.021699781010502035,
                -0.03703135760080573,
                0.38546130964533376,
                -0.23462427280955778,
                0.22702512943991876,
                -0.07582507225093166,
                -0.1483163520500182,
                0.16177772493733883,
                0.014036958282592426,
                0.191230947376177,
                -0.012303190136446712,
                0.2840427134448553
            ],
            [
                0.1620074052455194,
                -0.04869890368680324,
                -0.06875480122423451,
                -0.11207607567193405,
                -0.12742199789647637,
                0.172073786098146,
                -0.10177969162845021,
                -0.21240520156398882,
                -0.21965098689961327,
                0.4441317366712347,
                0.2676783357286578,
                0.058509919685120225,
                0.12540185760748437,
                0.09352152534355361,
                -0.13162831615590662,
                0.3735157897371446,
                -0.30698140635047977,
                0.5472517591988346,
                0.413448383240957,
                -0.40758278231562123,
                -0.1342151222310707,
                -0.023911628330513145,
                0.11416986781023551,
                -0.2557035033356905,
                0.2919410785053046,
                0.25611957321336176,
                -0.3388678754732728,
                0.07398319328358896,
                0.10005050018623521,
                -0.5237043686005054,
                -0.242161571530968,
                0.17942678092650058
            ],
            [
                -0.22250650093852278,
                0.0560566763541103,
                0.33309575176216977,
                -0.10809174559597164,
                0.17371523471805236,
                -0.12119701008372162,
                0.42263798167503847,
                -0.10736397671762535,
                -0.13435191072181923,
                0.012131773778954321,
                0.47778429789273624,
                0.34399752026470704,
                -0.19735037569602543,
                -0.03651186895138279,
                0.23661798596885256,
                -0.05617522974093679,
                -0.07756101956502115,
                0.4289411209600008,
                -0.06278196430851207,
                0.23668354947947812,
                0.12833450996049214,
                -0.4154408231990005,
                -0.2525379103281426,
                0.09309046592836372,
                -0.0262985039793379,
                -0.17422210783330258,
                0.27586768330205175,
                -0.27790563022407205,
                0.12887885097993496,
                -0.5333124853637883,
                0.17297144174305493,
                -0.3577495261861493
            ],
            [
                -0.17036825417354248,
                -0.13469768860168757,
                0.12729335616138968,
                -0.3277564817353705,
                0.0854024628856648,
                0.13675645819709875,
                0.19441408507794972,
                0.4047961978844048,
                -0.13348918534758536,
                0.32910539199556427,
                0.08775526764130481,
                -0.07763623770886485,
                0.17950387157382347,
                -0.18856817500486606,
                -0.4143702350713894,
                0.23247898278550347,
                -0.3740600776912706,
                0.16769181211016462,
                -0.3859919111501741,
                0.26054738024779284,
                -0.3586671757573913,
                -0.03844015261782772,
                0.15777481369082946,
                -0.22372882058763643,
                0.2203966488181122,
                -0.1524745969533603,
                -0.06675044457066716,
                -0.10106775218675669,
                -0.2791916999231258,
                -0.025294595353270864,
                0.012560058003424596,
                -0.08921629071948946
            ],
            [
                -0.2867500570011161,
                0.44577643102060077,
                -0.0811835233417122,
                -0.12206641509488489,
                0.08017105534926455,
                0.2335103243880786,
                0.04379047719706887,
                0.3481182105467421,
                -0.032544392375229936,
                0.1932329487418749,
                0.45082743955222787,
                0.14422849146293695,
                -0.15987024314598527,
                0.12824007097552229,
                -0.42787125832305545,
                -0.32212497813378105,
                0.38683857437866065,
                0.3924216175045895,
                0.21749221261004614,
                -0.2189995163071638,
                -0.4412278015859755,
                -0.35657434776783464,
                -0.365136581746567,
                -0.3614422919054302,
                0.40435608964863035,
                -0.012886660196539267,
                -0.007320430498686242,
                -0.24502438756878106,
                0.2365038019262721,
                0.284807781392812,
                -0.41347944804256365,
                0.38631864326780835
            ],
            [
                0.12097916350611904,
                -0.12334142790195621,
                0.48592687189464867,
                0.2102595442884782,
                -0.4813841273119819,
                0.4056755481812081,
                -0.27426590948487894,
                0.18341167067969602,
                0.26900696747533764,
                -0.3141178872027025,
                0.08698666083611778,
                0.25173664321389233,
                -0.46375842569386605,
                -0.13257537599604774,
                0.2760463422086431,
                0.38193398281771485,
                -0.0009639225926748121,
                0.15931291015175617,
                0.2685875399952812,
                0.2415119089553118,
                -0.25703393272267283,
                -0.005878063563015149,
                -0.2818444541074118,
                -0.3918151367572734,
                0.014281501866094809,
                0.14002973721494916,
                0.14884720240745578,
                -0.42679686105072534,
                0.13316477675030763,
                -0.4918597313221391,
                -0.4990903880706837,
                0.32326306356147394
            ],
            [
                0.1400295266664585,
                -0.0223349627703603,
                -0.011106071569211165,
                0.18382454485696448,
                0.4063652334847645,
                -0.15732264931693832,
                -0.21379609620429513,
                -0.30157225880398303,
                0.15391755104044655,
                0.3242256717569004,
                0.013833441828516521,
                -0.26911201670948537,
                0.44721867795358794,
                -0.08083617048160013,
                -0.08265023752674353,
                0.04458020441851298,
                -0.42849369077118704,
                0.21644108708590035,
                -0.06696409004241083,
                0.15423369339114984,
                -0.3007505185210117,
                0.22796005759135612,
                -0.24795999654112927,
                0.3098649526962441,
                0.07808311736627888,
                0.2236898615147236,
                -0.1442385158218799,
                0.25509760457072655,
                -0.2569201232735254,
                -0.05611615163695806,
                0.2029027535147549,
                -0.19205958202977697
            ],
            [
                -0.05275899297453951,
                -0.2294984457127741,
                -0.013613705584122551,
                -0.09324259159755025,
                -0.10710300778371042,
                -0.30106162272234904,
                0.37800683514632305,
                -0.31399179668440014,
                0.3840472824373276,
                0.007727527925816077,
                -0.09884198610028816,
                0.030794332749682646,
                -0.44836282600103616,
                -0.366693213436136,
                0.34860280960017803,
                -0.34420848830502493,
                -0.1528495038752413,
                0.3924071610004858,
                -0.21496001073477342,
                -0.1891557595628859,
                -0.03301945548918656,
                -0.27236618180941563,
                0.06952333674276703,
                0.11070200808192367,
                -0.039470601986747955,
                0.15519326751497492,
                0.14729879656057537,
                -0.3188918333643751,
                0.3971412893825703,
                0.33626188016575764,
                0.21062262415178515,
                0.09571372248986497
            ],
            [
                0.38728820936577546,
                -0.2241365780315,
                -0.03959407168293356,
                0.13790339321277167,
                0.08586004849917225,
                0.03431298109095051,
                -0.3152402161065318,
                0.1937738571246879,
                -0.19567229964453714,
                -0.08580031642803031,
                -0.16137290315404365,
                -0.43330979449170043,
                0.37530538385806056,
                0.23768564983362844,
                0.24233387689909983,
                -0.0114136052807298,
                -0.33224067152272074,
                0.29010172156991104,
                0.0664034906393993,
                0.06795215854612242,
                0.31961495556559916,
                0.3031952652425427,
                -0.20343226130088285,
                -0.3382050314538283,
                -0.3135014129573354,
                0.2753681702984849,
                -0.16317651270185204,
                0.1669807403411979,
                -0.00809742115251761,
                -0.4153968042130774,
                -0.3242129541254757,
                -0.018037751842316676
            ],
            [
                0.29376147204008984,
                -0.17195255644995974,
                0.07996980100516575,
                -0.45138171653842224,
                0.18807902415217165,
                0.2440950306659676,
                0.03662491793577719,
                -0.08338897532498543,
                0.4241465165907793,
                0.2562985240478173,
                -0.274611225310193,
                -0.08322138030732974,
                0.1911321359081634,
                0.23640132389875887,
                0.2346406515678471,
                0.214088191506438,
                0.20696035024539766,
                -0.09475130840454074,
                -0.10893872775027437,
                -0.19479105755754017,
                0.29139324918143356,
                -0.2954409802648909,
                -0.26672429325334457,
                -0.48020388220882265,
                0.46711639193750526,
                -0.4286115723343179,
                -0.4713706310226493,
                -0.3126034010855664,
                0.3964303321980561,
                -0.40754322882042,
                -0.28562868384982937,
                -0.4430410216302278
            ],
            [
                0.16246044454437644,
                0.0066481637531586625,
                0.17016192416896345,
                -0.37717229140014014,
                0.3748091879668685,
                -0.3748119529121074,
                -0.2898582155869213,
                -0.26772208711357454,
                0.19799391344752215,
                0.1145315685811637,
                -0.013528449887894867,
                -0.0008722671978915051,
                0.4125857285818553,
                -0.2621359803667318,
                0.11609200957450337,
                -0.03182595003747926,
                -0.130954289177628,
                -0.2654714122491946,
                0.15421665043041702,
                -0.3016376509569301,
                -0.15667860399791486,
                0.10024093681311551,
                0.04981648331625234,
                0.2341967498449473,
                0.15427066489628535,
                -0.35488155985310194,
                -0.024132390347622497,
                -0.340410473265461,
                -0.0515636574881781,
                0.11958854435164094,
                0.15450890883950433,
                -0.09427053570212135
            ],
            [
                0.1382276143792641,
                -0.374647498559659,
                0.44667817711148955,
                -0.09112474427374898,
                0.28760006075891575,
                -0.06273220462891686,
                -0.05575820013501897,
                -0.16851523144954406,
                -0.08768310673372412,
                0.21201454100821157,
                -0.33191705533117194,
                0.2957267189793326,
                0.11747164951769676,
                -0.45434528778525163,
                -0.44386988858251025,
                0.02424834260524081,
                -0.2726590494898755,
                -0.11639721396109536,
                0.16466956660720397,
                -0.30612735252625656,
                0.15949359009434474,
                -0.1393331035290283,
                0.06306163097435692,
                0.05610171354775161,
                -0.07854312483014615,
                -0.1585180893065214,
                -0.3029610990359076,
                0.27125558608114386,
                -0.23811760612467034,
                -0.32594063379223664,
                0.29974575428361483,
                -0.14685264516507754
            ],
            [
                0.2430355271370883,
                0.2058706896528412,
                0.5152207946401609,
                -0.4195924079777059,
                -0.41829414941559245,
                0.10863170542926655,
                0.12267820557861463,
                -0.23232468815284205,
                0.29746970714026544,
                -0.27297743194538515,
                0.004534345020343906,
                -0.17245826610474363,
                -0.3067815751308576,
                -0.3248060970326886,
                -0.3056239246531194,
                0.09297246861774973,
                -0.2863307279364295,
                -0.07767180848447879,
                0.08619440098450916,
                0.0703147274518742,
                0.013344281459364971,
                -0.07299806658953195,
                -0.16176894956582183,
                0.2765770284463636,
                0.2252589029006449,
                -0.15439956269772498,
                -0.2542215941825939,
                -0.1329817374796055,
                0.16690535981145815,
                -0.4896965697013665,
                0.05323825359218298,
                -0.1629995295340064
            ],
            [
                -0.06266666903696097,
                -0.10990541307758366,
                -0.39644108344329454,
                0.47042905333583984,
                -0.043382187917512444,
                -0.06856165838537967,
                -0.16357137592170273,
                -0.3318474814747644,
                -0.365807029790433,
                -0.4302880284708585,
                -0.0637355725106718,
                -0.021352977732863897,
                0.4460911018823714,
                0.2481028174041033,
                -0.199564110042675,
                -0.00031623729940784333,
                -0.019885765976316104,
                -0.17543642358127717,
                0.35039071383928544,
                0.34306498489806714,
                -0.30384824181334397,
                0.4911067109990309,
                -0.35448010185202994,
                -0.029508185732094672,
                -0.23844798356688984,
                -0.007308671300882871,
                -0.2484629758177191,
                0.3624251624194043,
                -0.39848505669908624,
                0.2990831537512954,
                -0.26665077221479117,
                0.2765465083582477
            ],
            [
                0.1965723941545862,
                0.15894222945284867,
                -0.2866348809639286,
                0.37659067554869735,
                -0.10755495293484686,
                -0.0017120955933974337,
                0.06425184402477394,
                0.23069654709346982,
                0.14054984556377478,
                0.15894129384459776,
                0.20724201830265293,
                -0.13589277965593086,
                0.010929219520046706,
                -0.17904541082880673,
                0.08864299026830333,
                0.12128380478071236,
                -0.03586083619372481,
                -0.3083974918303847,
                -0.04945173086389296,
                0.3155421086361009,
                0.23860774963792708,
                -0.3579116174774888,
                0.03521787876659101,
                0.1178582390016369,
                0.15780422672027167,
                -0.365153248716715,
                0.22345786629699782,
                0.36629411639142523,
                -0.12872109615029156,
                -0.37277083068988054,
                0.3946273011325528,
                -0.15479686869524262
            ],
            [
                0.08345822674078551,
                -0.34845048038222454,
                0.25345305022357756,
                0.3197260971901107,
                -0.09796629298151929,
                -0.23523741753316738,
                -0.2566551710417925,
                0.04378530875343193,
                0.09293611867023222,
                -0.3990611228309444,
                0.07759451429604187,
                0.23521889613993574,
                -0.43922480347153336,
                -0.10137204045514953,
                0.3903099088511463,
                -0.2645915101804737,
                0.305732536098337,
                -0.06446008579787312,
                -0.3411070716277895,
                -0.27060510488454403,
                -0.26166381433742086,
                -0.28573576256597266,
                0.1494653289758613,
                -0.20679092822690082,
                0.10635838379652612,
                -0.04036555324239492,
                0.2333034317546954,
                0.06903727722428975,
                -0.0905217889287533,
                0.38774109425268893,
                -0.28839958539670074,
                0.29019498820916917
            ],
            [
                0.34577568448221907,
                -0.31616004486720023,
                -0.055286587544521704,
                0.26457627036421194,
                -0.09658896985083558,
                0.13614117379718776,
                -0.49250783925793573,
                -0.4035916181627548,
                0.03787903377613482,
                -0.4665572806578396,
                -0.29352169180936494,
                -0.054547678694813646,
                -0.21301037311306772,
                0.5040976198360337,
                0.2146802238150506,
                -0.19243999463926964,
                -0.41933510220250086,
                -0.22939463915803285,
                0.20551960153424567,
                0.42271340510868,
                0.441385773260967,
                -0.29109395280396805,
                -0.26953532072445674,
                0.04546908013217943,
                -0.46484440898939067,
                0.3359691570423072,
                -0.3242721625495001,
                -0.25500899926498516,
                -0.538865799895865,
                0.5207464057850166,
                -0.3057568947956887,
                0.15025313302558868
            ],
            [
                0.40625810140536156,
                0.23394526207178118,
                -0.05734279335326204,
                -0.3265398688138881,
                0.26664070292704345,
                0.22031224366326602,
                0.15153086439726768,
                0.4270660435883637,
                -0.21575493261427842,
                0.023786432636124445,
                0.13755377155706072,
                0.2672629577534991,
                0.3923336833288769,
                -0.40721451622188676,
                0.14510850686562587,
                -0.43638962105851253,
                0.17811753342287173,
                -0.21313384101208507,
                0.012665729232471107,
                0.4283574522252727,
                -0.40108850802546864,
                0.16416596690050578,
                -0.4153701005884418,
                0.25745794276575024,
                0.43835279780634157,
                -0.035495062152034275,
                0.42099288388747724,
                -0.13229460449518649,
                -0.33064517489618644,
                -0.418227516966514,
                -0.3219827006163236,
                -0.011528948538944437
            ],
            [
                0.2782078445746566,
                0.029138848925414056,
                -0.2698207401882015,
                -0.204589574296792,
                0.26895096095051796,
                0.39426567828143116,
                -0.3473544655021677,
                -0.3374595220784954,
                -0.3086947924174571,
                -0.08985652824014982,
                -0.39765877736216126,
                0.21954559822287165,
                -0.2843845755955587,
                0.24451097920011006,
                0.42777706176619995,
                -0.26724126493232797,
                -0.34179777003478196,
                -0.1684165907024553,
                0.23845348267676805,
                -0.1953044301686022,
                0.39030545448665593,
                -0.09175112806269299,
                0.19871743111915832,
                0.3415254761462951,
                -0.453089369033397,
                0.12031327659153805,
                -0.11967855618287936,
                0.41567080862344513,
                0.3202133683275656,
                -0.05715437852892725,
                -0.09435614055439291,
                -0.14187235320030311
            ],
            [
                -0.27041338422567335,
                0.02405095657882957,
                0.1668710843454555,
                0.4065944646005093,
                0.09733653142316039,
                0.023521755710978233,
                0.22265236273524666,
                0.2373661716265923,
                0.18051167480484745,
                -0.3351616411784905,
                0.18571588018261198,
                0.09572373738369239,
                -0.0516495685698652,
                -0.19671530622308836,
                -0.1496553945380778,
                0.1558392677607059,
                0.08359655125516392,
                -0.013515600361211222,
                0.1926400279039703,
                0.20616643896356027,
                0.4980995049354808,
                -0.10189621937876905,
                -0.12895014122702614,
                0.24861565401299615,
                -0.22588577954097078,
                0.19806233949806976,
                0.37840101136364096,
                -0.3012966652661174,
                -0.008533025767028565,
                0.3092739918860677,
                0.10618229507313319,
                0.37241702996752746
            ],
            [
                0.299224495259561,
                0.0003340163453008848,
                0.44313413273490054,
                -0.056085045693336937,
                -0.15644755556567363,
                -0.18362846482692985,
                0.3619815898614731,
                -0.2350499099823915,
                -0.12471242338192019,
                0.40884970795159503,
                0.28204350374967274,
                -0.13311755617447568,
                0.20960431182032316,
                -0.1739248463126301,
                -0.3901969586842392,
                0.11349778305502126,
                -0.0953894146494122,
                0.4328235002182979,
                -0.1664038678721994,
                0.26172451360647786,
                -0.315876252358854,
                -0.4229789302507341,
                0.1318015928439647,
                -0.41878601189930814,
                0.4734818279598319,
                -0.3493750193389012,
                -0.3959242070698248,
                0.0520690791817772,
                0.11971013271555656,
                -0.00856890839139842,
                -0.3092137384137953,
                -0.18593631811688835
            ],
            [
                0.21877206121720535,
                -0.277352650606781,
                -0.05970821980261115,
                0.3305905120977372,
                0.1926282500836174,
                0.2691763584276847,
                -0.4644008550895818,
                0.08321694235783254,
                0.08039469190250434,
                0.39591003071508857,
                -0.4143705980703831,
                -0.15417988789406184,
                -0.050160357489915715,
                0.02008393554219931,
                -0.06569889122554282,
                -0.4443743752008583,
                0.13720450209423474,
                -0.29086135896955967,
                -0.3044908941880119,
                -0.025251540600278642,
                0.313807767813018,
                -0.17818097344206493,
                -0.4604309686307534,
                0.2261783964574633,
                -0.009657795189479828,
                0.3395107654106173,
                -0.26783045035447306,
                0.38869886262355025,
                -0.410816028052877,
                -0.27245076352927294,
                -0.33512933482759955,
                0.20250036180567108
            ],
            [
                0.0961622485613007,
                0.005476489552584314,
                -0.2956264165811121,
                -0.23375482221869798,
                -0.09038432558080656,
                0.4367141091509706,
                -0.2757497863085861,
                -0.3857223833709453,
                -0.07140200319833329,
                -0.3848009588103368,
                -0.26857980272734966,
                -0.02110366988352109,
                -0.43609814448110495,
                -0.17575504926929683,
                -0.031646485910992075,
                -0.17590780780231924,
                -0.37754496379473923,
                -0.11061641768247964,
                -0.29433335822174567,
                -0.1497488427511309,
                -0.40416928992450396,
                -0.3237354845113552,
                0.353680544851477,
                0.10391657919246487,
                -0.27678518846833067,
                -0.18902554226206456,
                -0.27831731104145624,
                -0.08424059434419912,
                -0.2597305824837881,
                -0.2480082164925642,
                0.03431956319460057,
                -0.19760354318011938
            ],
            [
                0.07907334496163156,
                0.3869415887790916,
                0.30026428977610925,
                -0.4000048114985365,
                -0.4013231210080144,
                0.11745045877356633,
                0.34075237510720474,
                -0.04638433636250748,
                0.1314798660750211,
                -0.09632005471863081,
                -0.22676983644671547,
                -0.4192205534511437,
                -0.28168528094314293,
                -0.055750327939280614,
                0.08933886475758719,
                0.3740459773034034,
                0.03681974892572212,
                0.27510527656343,
                0.31191801642504646,
                -0.03356244934468323,
                0.2252495653026218,
                -0.16108390880735537,
                0.4122198731775953,
                -0.17514187260506134,
                0.3814353072290447,
                0.2446153278227795,
                -0.18877656802086587,
                0.1050701131468277,
                1.096228020162398e-05,
                0.33822796820686196,
                -0.41253060462643626,
                0.3998549907510152
            ],
            [
                0.16786017685470683,
                0.4705231660220187,
                0.12572498880239957,
                0.2931877923030832,
                -0.037541146726310606,
                0.002237867426495532,
                -0.262277289521705,
                0.3226032706373865,
                0.3855754701022703,
                -0.31385947513890206,
                0.49550230109621085,
                -0.40219760255982,
                0.27697668783649204,
                -0.37445503383992096,
                -0.2303591760715436,
                -0.3842717040037235,
                -0.2553033514324385,
                0.24828896671337564,
                -0.341935606178763,
                -0.16209619925950067,
                0.22241329458123346,
                -0.20681933086917617,
                0.30857897720312855,
                -0.16208387289480747,
                0.08118868557155602,
                -0.2616284224689958,
                -0.4026562020257822,
                -0.06467944036959276,
                -0.3322676707072045,
                0.04769114473960983,
                -0.26192788820499174,
                -0.050109460209929395
            ],
            [
                0.17758582725556143,
                0.013278294306599414,
                0.17980793835870565,
                -0.06074228078054547,
                0.5036169786635083,
                0.3745467343123619,
                0.24462075668430466,
                -0.3022987099465688,
                -0.3499192516977844,
                -0.2290699279077807,
                -0.381453447746812,
                -0.18336308759468903,
                0.3580926011880551,
                0.49706266421135864,
                0.022776899072468163,
                0.2761722913524861,
                -0.3346342822112576,
                -0.3378064459368251,
                -0.18381226259623568,
                -0.1171093624179508,
                0.4363157746784738,
                0.4154854367076304,
                0.3105228006111636,
                0.21688434818803132,
                -0.4495501926099441,
                -0.39066701647996194,
                -0.012217031182896798,
                0.14536033888278083,
                -0.3075108387374222,
                0.18237310981403856,
                -0.20663288368561902,
                -0.198815077647211
            ],
            [
                0.22680435635213375,
                -0.2229877436493328,
                0.3523399309111665,
                0.4326852641311276,
                0.23455819023040858,
                -0.27851739882679744,
                -0.17815197194177596,
                -0.13673596881754688,
                0.36435465087918967,
                0.10227051600431374,
                -0.13759688838902187,
                -0.08753434271566317,
                0.1283667738659455,
                0.12088429932932501,
                -0.21218560708368714,
                -0.3047968791787192,
                0.06267171890410879,
                0.23643264580200976,
                0.17464220037148767,
                0.38509366940565437,
                -0.09079038737671985,
                0.021133331968669736,
                0.2914846224411692,
                0.3149462367893794,
                -0.0071225860805016064,
                -0.2517441816057166,
                0.15741727447557025,
                -0.19438224084208555,
                0.0676139558161218,
                -0.24384733395318708,
                -0.055791155714932934,
                -0.3071405302666124
            ],
            [
                0.1653733323170756,
                -0.31603529398145813,
                -0.14468995234754792,
                -0.10830086329814496,
                0.17116741205583036,
                0.18831827488843136,
                0.1492088472036789,
                -0.35530522977863926,
                -0.39986391822433087,
                -0.2723688498982068,
                0.14180241919402334,
                -0.11823503827172387,
                -0.13248423908635343,
                0.3751406165354314,
                -0.23612159854254272,
                -0.08313247812785032,
                -0.10512855836032103,
                0.04574113130565615,
                0.1328317449768134,
                -0.056890042952159554,
                -0.39562026120706306,
                0.3249374495666765,
                0.23703741263993106,
                -0.17757799716649947,
                -0.18016254727029798,
                0.1910610694722736,
                -0.26024143235269154,
                0.0971531837110757,
                0.36322010188817705,
                0.22873842966244495,
                -0.41083475801171265,
                -0.40703999808342217
            ],
            [
                -0.38556509221937746,
                -0.08106973113361655,
                -0.12128809918054212,
                0.19131077014437775,
                -0.3357602068894584,
                0.14471835384081871,
                0.3876883673811083,
                0.1437391395162663,
                -0.4241204853833369,
                0.3420986241426107,
                -0.08676734971534418,
                0.3449573535177956,
                0.3491271346285849,
                0.35410374203143824,
                0.23450197002886913,
                0.12103389424085624,
                -0.3009971796829197,
                0.3407010561309276,
                0.09577938318920488,
                0.25425604601188423,
                0.004574386246169824,
                -0.03628867286588978,
                0.09190570415406658,
                0.23236562435364186,
                -0.30327978448910586,
                -0.2937938059578376,
                0.31229445511851195,
                -0.38391071085956807,
                0.21976964974106428,
                -0.08074455292037185,
                -0.24302286991203634,
                -0.0639417836076053
            ],
            [
                0.4081352516186655,
                0.07370446300333783,
                0.05107310411245957,
                0.27572202526121864,
                -0.37578506077923507,
                -0.27805701578147024,
                0.10644742464315766,
                -0.3209670731168707,
                -0.0464419708567512,
                0.1075262231413553,
                0.29881901604083266,
                0.0180038326078481,
                -0.1539118252553124,
                0.45770534249898337,
                -0.036399865830473443,
                0.040227910328223,
                0.2277820244707223,
                -0.037599855397509145,
                0.03475812530993862,
                0.21130848649544767,
                0.24615185959890848,
                0.39220483635445785,
                -0.45323837540052037,
                0.25501252649175116,
                -0.2733833193823752,
                0.35170628087027733,
                0.36157914084424847,
                0.11425032762543506,
                -0.04810853464827004,
                0.21490795343889404,
                0.1523852002460714,
                -0.2961050769252114
            ],
            [
                0.3551266255894748,
                0.22648257777578917,
                0.06030169385773169,
                0.3509111861496869,
                0.2515102674296897,
                -0.18486585140167985,
                0.013647526638143281,
                0.0938008856301683,
                0.16076182853060217,
                -0.01867663497793458,
                -0.3976918242418538,
                0.06805896105464145,
                0.04070539587943588,
                0.3643214291873948,
                -0.1035534029920323,
                0.10743982358324623,
                0.34431073235630966,
                0.16879276512716523,
                0.08336201775555192,
                0.24502611677136787,
                0.2936312409744074,
                0.050434669947686236,
                -0.41837328469500995,
                -0.24934293617124534,
                0.03142252363086522,
                0.4055933303053231,
                0.3725125089877096,
                0.017083077895139534,
                -0.33818601760286,
                0.33049121400270787,
                0.18087752836049262,
                -0.22759418607388424
            ]
        ],
        [
            [
                -0.26790407796532667,
                -0.027537551464693673,
                0.2667649275844329,
                -0.03169943621879261,
                0.0008703913419099587,
                -0.3389421215244943,
                -0.2788213809351187,
                -0.3498732834539869,
                -0.2161485226353964,
                0.13085178660079597,
                -0.13186321402551834,
                -0.3426134595455352,
                0.056769971822990394,
                0.2883764890797606,
                0.3332791470141154,
                -0.42356775759339954,
                -0.0325444924218152,
                -0.33275573002496306,
                -0.07356087846200657,
                -0.4326598472385483,
                0.30129272347158953,
                -0.3515879161933331,
                -0.09714244069096335,
                -0.261125678847445,
                -0.08187145790906442,
                -0.19053361228326776,
                -0.4207364002264914,
                -0.04532244174525624,
                0.2940164550895129,
                -0.13566949304091036,
                0.14941161301744235,
                -0.08762973518136574
            ],
            [
                -0.23508632164588103,
                -0.3602331589503636,
                -0.06055154458588697,
                -0.323732989801841,
                -0.4133968289720726,
                0.38962890662195726,
                -0.16068479115910528,
                -0.019248800455360406,
                -0.29400045274221775,
                -0.26385697209403974,
                -0.2335993006753786,
                0.06912823100784929,
                0.26740535779326896,
                -0.0013185064267228698,
                0.3533007985339673,
                0.23378376907030257,
                0.28426851791237323,
                -0.38439397770038797,
                0.2976557818899922,
                0.08328598448866757,
                -0.32877007495922883,
                0.21849377023084834,
                -0.3472952652657649,
                -0.0504201057254332,
                0.37359117299163974,
                -0.06333503480981528,
                0.3765560185236085,
                -0.07592429123635043,
                -0.3837559936928111,
                -0.19954389858504643,
                0.20635094955168276,
                0.36740351204134064
            ],
            [
                0.10786630807616823,
                0.15944261043839278,
                0.4338221322067906,
                -0.2644422534103351,
                0.07054373921424059,
                0.05287296357936154,
                -0.15282885936120363,
                0.444750163251344,
                -0.4195141137022602,
                0.33359199634088416,
                0.1262742707647352,
                -0.325969782514686,
                -0.08529015152193596,
                -0.4111646501250411,
                0.37957052286815424,
                0.15949876155229567,
                0.04156452842147134,
                0.3397790828873539,
                -0.1844712137973858,
                0.3898808762369458,
                0.22478904309188927,
                -0.402370440339279,
                -0.16612390308583025,
                -0.0456319046143856,
                0.2530966717577513,
                -0.1342492886563281,
                0.38771472933044354,
                0.2281451835113834,
                -0.2584563358785855,
                0.45539252361009075,
                -0.02362225028811693,
                0.04289051374710728
            ],
            [
                -0.13189333547133178,
                -0.10697683740391915,
                -0.1643178080644185,
                0.3055857777241134,
                0.12694846622505082,
                -0.24196396560852082,
                0.11400535212521863,
                -0.5009009803849392,
                -0.0004358365507713426,
                -0.43807850093531586,
                -0.1031695599750297,
                0.44715317642802954,
                -0.45430089572591725,
                0.1418011560273707,
                0.0012590946450011901,
                0.13176512568870616,
                0.18413191826700992,
                -0.5000373102772123,
                0.3583483590772876,
                0.24004628963920593,
                0.02021526525283149,
                -0.06488314245755927,
                0.2972993201432571,
                -0.09725573841136766,
                -0.0369532109919363,
                -0.44146439042395363,
                -0.2192016675283198,
                0.5155805134744454,
                -0.30889629975987637,
                0.2420502381421942,
                -0.34575371498699836,
                -0.35691266692497003
            ],
            [
                0.20643714060694915,
                0.34895390899392426,
                -0.23015182085425698,
                0.44387421376175074,
                -0.08711357170816342,
                0.30258482022319594,
                0.3973394526098625,
                0.006425475433779176,
                -0.2790013792749677,
                0.2988941167948904,
                0.13824728775869138,
                0.37838858659958735,
                -0.4154344914132185,
                0.33188808066962483,
                -0.2328460089551117,
                -0.10231591962201524,
                0.35017055866506624,
                0.05851832631702659,
                -0.25007902777448815,
                -0.07690915814553424,
                0.11141798801980841,
                0.08727522423323267,
                0.4168269438135961,
                -0.05759138979901297,
                0.0912943217269983,
                0.22765387995913708,
                -0.03364190465863928,
                0.482622342576306,
                0.4457466789121317,
                0.11417206241722176,
                0.319854154145971,
                -0.10432999706951832
            ],
            [
                -0.18625793648974745,
                0.3141602601996125,
                0.03582644934238824,
                -0.4270417655427321,
                0.09266920529131668,
                0.3172536840989335,
                0.37042696665807245,
                0.29752294641656396,
                0.11153903847559249,
                0.27864689992226427,
                0.4202376944810934,
                0.2721033320529078,
                -0.09316916884327783,
                -0.1225804894896717,
                -0.19582204859235852,
                0.3167818561604368,
                0.1684473648016759,
                -0.016034649631466877,
                0.16498804837905964,
                -0.12993546047507498,
                -0.04542651829328587,
                0.1902670328828224,
                0.2498551517156502,
                0.09317937669052119,
                0.39058419368236225,
                -0.04710828478617466,
                0.402945721068147,
                -0.30772650266336093,
                -0.4221564720804748,
                0.4198028254505262,
                0.019868574540979272,
                0.4227447169450978
            ],
            [
                0.19710291379944653,
                -0.4137329572250887,
                0.11542945022285088,
                -0.3587102083767007,
                -0.3924608337524867,
                0.27833131342750095,
                -0.004394125701978736,
                0.3310974326771065,
                -0.08089228754211761,
                0.19495885357050627,
                -0.4199005071656518,
                -0.3613709341859485,
                -0.05659464385688997,
                0.18099581589205188,
                0.516136689756918,
                0.3610258543503103,
                0.17864266320121214,
                -0.09114175079914397,
                0.4176532546489781,
                -0.32624262454345326,
                0.04677463532048777,
                -0.3074023482233827,
                0.17230293979604683,
                -0.16846097772377908,
                0.2535665576920364,
                0.37261013955901356,
                0.3029273664789801,
                -0.4157749408931047,
                -0.13476326081077755,
                -0.2998246259546616,
                0.2914283992779197,
                -0.2085830788666873
            ],
            [
                -0.22129114977417302,
                -0.18458607836888283,
                0.020147700704099998,
                -0.33541040421989515,
                -0.30504195847011084,
                0.3697894583392506,
                -0.2664628559976967,
                -0.018549263927650148,
                -0.1787052122667327,
                0.2978092822444458,
                0.011152532089618042,
                0.3135307430211376,
                -0.10087559440410612,
                0.16556134414487458,
                -0.11406545897913568,
                0.07020816767570913,
                -0.24383987653290204,
                0.1774702850787568,
                0.3178628094903421,
                0.3798415353086573,
                0.1077860228114161,
                -0.4290793915317359,
                0.18865554547507396,
                -0.058449305117313034,
                0.2950698706249337,
                -0.05295158722392654,
                0.293637948285656,
                -0.44233205414919824,
                0.053158006372804864,
                -0.26920140827359684,
                -0.19856196678492782,
                -0.12317667624557793
            ],
            [
                -0.3893083375526579,
                -0.21785735666531034,
                0.23303041346951753,
                0.2756777020555927,
                0.06157270595245855,
                0.28747303703496496,
                -0.13437124280556306,
                0.34618237285064013,
                -0.2811429327705973,
                0.38327112052414636,
                0.3660813312519478,
                -0.44166016969229416,
                0.28150355534017524,
                0.17601452336685242,
                0.4269638963963264,
                0.2365681290736139,
                -0.4441251092868709,
                0.34934069071834023,
                -0.02452703476431784,
                0.26250197971585854,
                0.13733590832456602,
                -0.3097186762937045,
                0.18857817074877534,
                -0.323282974799009,
                -0.31266579145501605,
                0.05873018238909589,
                -0.1070925772261519,
                -0.3942770037419235,
                0.29421980517712687,
                0.3275959654820155,
                -0.39423443297592176,
                -0.28965791619730985
            ],
            [
                0.09358749013796432,
                -0.3383696849777625,
                0.029734660896076636,
                -0.18927312353796266,
                -0.18925708062154536,
                -0.10764077635539229,
                -0.03736670384324153,
                -0.005384247957414675,
                0.2892749442260176,
                -0.2836678739942334,
                0.08580494601449846,
                -0.329135026942917,
                0.09200252770443539,
                -0.18158590042432132,
                -0.1938528770974615,
                -0.14526940691639612,
                0.20180961939158834,
                0.21659723359855682,
                0.4113633102755252,
                -0.20189569707100127,
                -0.39882585716782915,
                -0.18485142875893296,
                -0.4887382679364545,
                -0.13101313349889618,
                0.25735049695988443,
                -0.36437357846909085,
                -0.38383157254381584,
                -0.1256303912750716,
                0.22732560949506844,
                -0.19700180579180554,
                -0.11421789824023582,
                -0.026459815852315778
            ],
            [
                0.22715648564551488,
                -0.08016424498110669,
                0.24182085914529344,
                -0.38139543438823315,
                -0.235089927747717,
                -0.16501977138106735,
                0.41342785167018314,
                0.3528978916756048,
                -0.3220863463838339,
                0.0910619225762629,
                -0.06144580162757792,
                -0.4562381734290866,
                0.3357973600425613,
                -0.4640683300653431,
                0.2642022949516337,
                -0.16854472263758652,
                -0.0754376681800555,
                0.40095008251629255,
                0.2999152824775919,
                -0.14508189531263765,
                -0.25782106048549375,
                -0.15182310790927386,
                -0.42500660573275717,
                -0.18733350640260815,
                0.18931314902884455,
                0.13571597608701133,
                0.17121473986427405,
                -0.34374134171496334,
                -0.34703767200004604,
                -0.13666373701230536,
                -0.131073329627158,
                -0.42053576656145253
            ],
            [
                0.003603299544780821,
                -0.0059225904416351114,
                -0.08603503120679505,
                0.1809516022688842,
                0.0808828969481893,
                -0.2247820185447614,
                -0.2111661799804376,
                0.392726900801025,
                -0.020007045947085036,
                -0.04978399228900465,
                -0.21744443611037859,
                0.1562257764961899,
                0.32698266720494507,
                -0.031459445774125204,
                -0.35328149394374336,
                -0.01129473625920941,
                0.17015119883819096,
                0.085926523850536,
                -0.005832866765470945,
                0.3739198400599527,
                -0.08808586316997721,
                -0.15562022608225473,
                0.16504267143422216,
                -0.0938151126600076,
                0.06291681007463995,
                -0.24623831578549188,
                0.08728077571531412,
                0.07713232560365006,
                0.23583321261359463,
                0.028970046296090277,
                0.005942191409512046,
                0.274065190151217
            ],
            [
                0.31411551910971697,
                -0.09507133334432553,
                0.2240043727229602,
                0.0867829024129358,
                -0.3803244203060863,
                0.10675062429946894,
                -0.44774007287960366,
                -0.3777900380622674,
                0.09729866147120457,
                -0.1489342851681589,
                0.09782910363249311,
                -0.12829922446836894,
                -0.18101830101353983,
                -0.10386648635142112,
                -0.2815557868596562,
                0.20566300781334912,
                0.2480351058088943,
                -0.11506427736302341,
                -0.04864172710216358,
                -0.03240355380629851,
                0.2529379006783818,
                0.45902047199529517,
                0.01774718736525017,
                0.21957830502569795,
                -0.4874673445176473,
                -0.13937916617058616,
                -0.0035555434595020874,
                0.2604250144179795,
                0.4132201202946954,
                0.3511642047920808,
                -0.005505638433196966,
                -0.28288307712017297
            ],
            [
                -0.2322412555901142,
                0.38077229513040733,
                -0.09069793942568571,
                -0.009675220988474014,
                0.3602429094715597,
                0.2854709779376028,
                -0.36870549422630977,
                -0.16496588723444527,
                -0.0338582596272742,
                0.41005230529576536,
                0.4519940101393734,
                -0.09514092778337496,
                -0.01897098274732561,
                -0.14788054802525805,
                -0.24767095936558306,
                0.36436566169578694,
                -0.10858945199679605,
                -0.32841040502188906,
                -0.16736763895005702,
                -0.15783343685465231,
                0.43407381086950814,
                -0.11590850698496893,
                0.46815124323103724,
                0.24666652480648144,
                -0.39041093992770565,
                0.07177242533680128,
                0.35758932804473154,
                0.42149198091630846,
                -0.15263283392220064,
                -0.09673950973450134,
                0.04253171187800476,
                -0.12469601405425366
            ],
            [
                0.24210177781395734,
                -0.07833461713835006,
                0.3394650233071844,
                -0.3700746452776271,
                0.049890967510598155,
                -0.25353458712604254,
                0.03951753101764895,
                -0.5089020908065206,
                0.2695113101832686,
                0.01723290510201192,
                -0.33252504040926506,
                -0.033887017241618834,
                -0.2375882822485099,
                0.33191546385452514,
                -0.44031109791534356,
                -0.38360885038700765,
                0.3236877619117279,
                -0.2571080924950391,
                -0.21680402380083255,
                0.17168410652974994,
                0.08278601886774493,
                -0.16645767048854893,
                0.30146660358242194,
                -0.20381010302032565,
                -0.30131957830430045,
                -0.10157098715205091,
                0.28470120214692163,
                -0.18889278756641664,
                -0.277455654081573,
                -0.16692434990137775,
                -0.2378517723972357,
                -0.2842574906251771
            ],
            [
                0.1481471268145662,
                -0.19001024646457237,
                0.06417673444772873,
                -0.2615802973332096,
                0.26900109748738615,
                0.058917683329518605,
                -0.14737773067059312,
                -0.1661954801059644,
                0.13455213494261564,
                0.20859526298727737,
                -0.06575470159092184,
                -0.319538308291429,
                0.3967037002283594,
                -0.26757726570560714,
                -0.3449732351480989,
                0.027823752680279853,
                -0.4013126184197665,
                -0.21748506886327842,
                0.14664880397833183,
                -0.34589080038179604,
                -0.24261576842373134,
                -0.24691892228653914,
                -0.2156700988642659,
                -0.42944676642034585,
                0.18356495687685964,
                0.3451712732441894,
                -0.18021354401043954,
                -0.008612525973498207,
                -0.2543471919585923,
                -0.10951517449480803,
                -0.07968963162793963,
                0.37114334593365117
            ],
            [
                0.3257928151651909,
                0.08938122095691724,
                -0.39102392730340163,
                -0.10832353008677933,
                0.03736141833052047,
                -0.41400565910521386,
                -0.1735236043159782,
                -0.3634905639601285,
                -0.1363947055782101,
                0.12216498986899459,
                0.20097238473459836,
                -0.3945754582403663,
                0.20902452196433943,
                -0.02854731347584856,
                0.2613363806481977,
                -0.09860290518750771,
                -0.4276725947050658,
                0.34507961051744823,
                -0.19444917960603025,
                0.22895490300094368,
                0.36453436363860164,
                -0.1999292569124328,
                0.3190599290526091,
                0.308393817565076,
                0.1289278167637469,
                0.04913689237342344,
                -0.31539703070063235,
                0.24683369739946642,
                -0.07976917449236058,
                0.19126907960422496,
                -0.2981455402032468,
                -0.02277887584731358
            ],
            [
                -0.09484975308364851,
                -0.39913786935427004,
                0.11021187477737915,
                0.32764008886689294,
                -0.18442121736552264,
                -0.05214565632354386,
                0.3776884618169077,
                0.36029427323648733,
                0.11834162536174114,
                0.27017672711952356,
                -0.46028461711855306,
                -0.0002093120753391992,
                0.4998978364498229,
                -0.19702353035766282,
                0.3930115777095734,
                -0.34211898718272593,
                -0.13469101900504177,
                0.2689952378886497,
                0.12397614831130001,
                -0.01730496924013744,
                -0.42642380687666814,
                0.1597845049025577,
                -0.49912116279541774,
                -0.08295757538875312,
                0.17581065599332155,
                0.4410560119084674,
                0.35616689736408896,
                0.012776026154889744,
                0.14710262964051282,
                0.2427736219778961,
                -0.25549412153107964,
                0.08767255177617447
            ],
            [
                -0.10465541722569283,
                -0.13391432097775557,
                0.05215458122653517,
                0.34426377284314386,
                0.06386381073097337,
                -0.30315592129245456,
                -0.3403076370533025,
                -0.042643836375143365,
                0.22786465466811623,
                -0.4271527068741063,
                0.17553299690633312,
                0.33147949007982147,
                -0.013774371686106068,
                -0.09461961435540757,
                -0.39973956744557604,
                0.2558630294031794,
                -0.074480812706166,
                0.1939646036091003,
                0.047016963065461756,
                0.23980331463128515,
                0.0718072207163149,
                -0.020034677206580302,
                -0.12637785274489646,
                0.23307241489887778,
                0.1787925921725881,
                -0.19417201173620918,
                0.04268233278349145,
                -0.09891709200055168,
                -0.39555498370685166,
                0.2442613366367492,
                0.36205365405792045,
                -0.4125522060181446
            ],
            [
                0.17535001913448564,
                -0.33697332136974184,
                -0.3947098372743305,
                0.38354734163529286,
                0.01809168118536497,
                0.06918534959873227,
                0.2739191277727042,
                -0.4314556043611424,
                -0.17246851661557183,
                0.3752735297871176,
                -0.20651119370501295,
                0.24046329519000886,
                -0.21092115753249444,
