{
    "layers": [
        {
            "size": 30,
            "activation": null,
            "initializer": null
        },
        {
            "size": 32,
            "activation": "sigmoid",
            "initializer": "xavierUniform"
        },
        {
            "size": 32,
            "activation": "sigmoid",
            "initializer": "xavierUniform"
        },
        {
            "size": 32,
            "activation": "sigmoid",
            "initializer": "xavierUniform"
        },
        {
            "size": 2,
            "activation": "softmax",
            "initializer": null
        }
    ],
    "weights": [
        [
            [
                -0.009219793625073469,
                -0.3499162098895279,
                -0.0541417828161341,
                0.15656630600188526,
                -0.10006982143536071,
                0.3226826461348522,
                -0.05589863952758308,
                0.18914153534813463,
                0.36880154570478996,
                0.09223487276493715,
                0.10599314017372777,
                0.33050926463954255,
                0.24179509039570898,
                0.14954668984170308,
                -0.13129948864604515,
                0.24437204489556036,
                0.11497562586479673,
                -0.1712310858135814,
                -0.21779696263640316,
                0.1239973103243688,
                0.1789825558132752,
                0.01741403941290567,
                -0.055679488967223856,
                0.04010855776117982,
                -0.08076012383545578,
                -0.010933166711967032,
                0.1657475352869769,
                -0.2325861946829631,
                -0.09577269525255808,
                -0.23944046810896516,
                -0.21050241316495624,
                -0.356275900935962
            ],
            [
                -0.08434957767465923,
                -0.10159885194302241,
                0.281967972542369,
                0.1521798240966477,
                0.07593751323956731,
                -0.06808061297960193,
                -0.15141137908194663,
                -0.39612045224560866,
                0.11180603312170602,
                0.23908143947770175,
                -0.1976326233318801,
                0.39614857744932164,
                0.17949633018725034,
                -0.2513276757587621,
                0.2506046051402597,
                0.405161620802075,
                0.3367938065710044,
                -0.23193256275994845,
                0.1129744722299556,
                0.05373158776158696,
                0.13589325708034972,
                0.019663625908845333,
                0.26045017858876035,
                -0.2571598030843861,
                0.08916599595550577,
                0.22142597097704272,
                -0.1508673486542235,
                -0.281258869924748,
                -0.04119270435921591,
                0.02135586209456104,
                0.16351809620767066,
                -0.3073860855797417
            ],
            [
                -0.4064633032164701,
                -0.1874761429902685,
                0.171983008149139,
                0.29372551122915774,
                0.3199787558839202,
                0.11017525662931013,
                0.017953305765159345,
                -0.08788046999435409,
                -0.2879561469516108,
                -0.14141110515488065,
                0.10014759277624259,
                -0.384605608215951,
                -0.10833960674598374,
                -0.047996556922699725,
                0.007693673934712713,
                -0.05476103358326271,
                0.15200312909848124,
                0.2281403071886765,
                -0.08168592261556869,
                -0.0403385894821907,
                -0.3783522874058581,
                0.31424876852240863,
                0.2895382511332321,
                -0.26402686936433606,
                0.0033358763777056578,
                -0.015834822060231842,
                -0.1373025583660857,
                0.23493462919334399,
                -0.16057601871568744,
                0.5491906011366802,
                0.0604117565938107,
                0.11614873329808892
            ],
            [
                -0.3553738790371256,
                -0.037627663606313935,
                0.16723697609245217,
                0.08968802422730722,
                0.11837847574362038,
                0.008558143332560166,
                0.17774693632815872,
                0.004447694272299141,
                -0.17082285009810516,
                -0.2472796634505025,
                0.342070741461159,
                -0.17194311122923003,
                0.2344458714342824,
                -0.19490245026987665,
                -0.368992971903899,
                -0.3310787624574681,
                0.10997617233396595,
                -0.05274061370110918,
                -0.4459908944784343,
                -0.11513509747890029,
                0.03186276105734369,
                -0.22373411335256,
                0.492370786417286,
                -0.3380621408204909,
                -0.04926344515085272,
                0.1209434718874197,
                -0.19195329834221167,
                0.07322498381462095,
                0.4775425045297496,
                -0.4862795903044953,
                0.1601907239483995,
                -0.1864194207240887
            ],
            [
                0.00040651775758320446,
                0.25805826815297217,
                0.2773797111720552,
                0.08633799897512452,
                0.11400531364756392,
                -0.0037622931529795803,
                0.11871144581723458,
                -0.14535932391973141,
                -0.1399763313145876,
                -0.3553234772448657,
                0.12818487505853648,
                -0.002831978243990393,
                -0.039807135847986896,
                0.42286975224771767,
                0.27165627227496014,
                -0.06555128389561811,
                -0.054487106015067274,
                -0.03530501611483979,
                0.3021106631299477,
                -0.26320447841327665,
                -0.10309109379630668,
                0.013171488671479768,
                0.04318663669157336,
                -0.1266421379509113,
                -0.008533695856549773,
                0.4676291028173234,
                0.05324621517335516,
                -0.03949812874125125,
                0.35951137397274546,
                -0.04736409529702083,
                0.11960771198747099,
                0.26892874197285965
            ],
            [
                -0.2990988784923137,
                -0.18020529337417482,
                -0.20958464289575987,
                0.28601711896958054,
                0.1388253550459455,
                -0.554898957207607,
                0.1572908058713885,
                0.04437215768686091,
                0.2221594502819204,
                -0.13782744502967584,
                0.03751938288245219,
                -0.11124006402488205,
                -0.1626915960382214,
                -0.1763546729276553,
                -0.32858837834448984,
                -0.10841377832991238,
                0.2909398397787368,
                -0.20902719554613322,
                -0.13001966640732704,
                -0.17661400317617412,
                0.12152393849046292,
                -0.27268269986349203,
                -0.09219260996549063,
                0.07494913356360984,
                -0.023160499444942452,
                -0.23881311268032188,
                -0.27640921499570426,
                0.1057962242026508,
                -0.2660561250281715,
                -0.3138873983641111,
                0.014984625279806848,
                0.07578074539378062
            ],
            [
                0.39881208367139753,
                -0.134340775597681,
                -0.19474202859747283,
                -0.1485342027694692,
                0.4077535611451113,
                0.11315247234017053,
                -0.2478081763870063,
                0.0813758137710322,
                0.22433475859869834,
                -0.002054117429614881,
                0.21420002323660164,
                -0.21175383603876383,
                0.07695034022474333,
                -0.10625680092105023,
                -0.17517164144634614,
                -0.26619296100769874,
                -0.13901827346212595,
                -0.1418073597572198,
                0.2540832322541282,
                -0.0861288259939626,
                0.07215677806732947,
                0.04504297549223355,
                -0.3766289737217015,
                -0.05723361621369551,
                -0.13489944339673224,
                -0.16301868112657036,
                -0.07106597762453454,
                -0.1931243534635029,
                -0.13538202150267734,
                -0.09522124792856297,
                -0.34522831375648805,
                -0.2776680778965103
            ],
            [
                0.245906228059391,
                -0.003240830903486794,
                0.15510172033107666,
                -0.017155594001668974,
                0.027320729486614886,
                -0.10456268725220695,
                0.08826617335251478,
                0.03304170013102381,
                0.366496911562582,
                -0.047732800841852954,
                -0.0006045330993306412,
                0.17639655139794125,
                -0.09891735795754766,
                -0.016612389620340624,
                0.09213898272200247,
                -0.11801844386479309,
                -0.08547738172765179,
                -0.059149138716606285,
                -0.06440966968280812,
                0.09041748397952658,
                -0.41449946982697444,
                -0.11775584067059587,
                0.058881564599684556,
                -0.1319065667793012,
                -0.25020371109383555,
                -0.32118983570179155,
                0.3058770709309873,
                -0.1765675099949137,
                -0.10628461096933367,
                -0.11972324613925753,
                0.1501518186627865,
                0.25531159560177596
            ],
            [
                -0.06236114589937992,
                0.2640819457664347,
                0.22807072063276346,
                -0.0014891928887351183,
                0.1355920583998803,
                0.3079062469997012,
                0.14284640775823745,
                0.10075178794130123,
                -0.3819845813089819,
                -0.13824013727867374,
                -0.10148381850704012,
                -0.0019182118025455875,
                -0.2295238306706485,
                -0.250509694337527,
                0.1404209871021871,
                -0.10160361992886734,
                -0.21454445524455773,
                0.14641873822153867,
                0.06020090776821137,
                0.12538620013140242,
                0.041449570853743296,
                0.1744772957832024,
                -0.20436852228141225,
                -0.17884590830651093,
                0.2561859771557164,
                -0.1957079466967991,
                -0.3533940476233403,
                -0.06682162132774166,
                0.4317901572450255,
                -0.2770206458790171,
                -0.009836650082145751,
                -0.03799314852401861
            ],
            [
                0.5130666662268103,
                0.12590441622743526,
                -0.0995168797573739,
                -0.33959828199459957,
                0.038263188567112597,
                0.14297885980834749,
                0.14366449266889342,
                -0.29994213611370013,
                -0.07733414519207787,
                0.1639353809568406,
                -0.03201787779444813,
                -0.17640470416280088,
                0.052697645060547596,
                0.286786657647783,
                -0.04090157202752269,
                0.12177626705586324,
                0.23869309178615158,
                0.14996468382451514,
                -0.09950592032880413,
                -0.01401886308661786,
                -0.09750240898363048,
                -0.11667043518366536,
                0.01673923734037772,
                -0.39668810064280274,
                -0.2279479141852814,
                0.0410168559732627,
                0.06936027025938278,
                -0.15540885001894575,
                -0.0809468387923693,
                -0.15791026456946675,
                0.0396589873335939,
                0.25187051057426946
            ],
            [
                0.053577796264904845,
                0.091309156274703,
                -0.07274584276464664,
                -0.12828037957495464,
                -0.1715117008003421,
                0.12649246062385006,
                0.22891567636872248,
                -0.12629726965934523,
                -0.048210778502320785,
                0.040755562919189005,
                -0.06276742133451586,
                -0.22908084138245322,
                0.1340498443949859,
                0.048176080534508246,
                -0.3005145761080298,
                -0.03250209841290576,
                0.024414251898652612,
                0.08960326321701742,
                0.1492078859015613,
                -0.09794947569279061,
                -0.5019018098376018,
                -0.08578159695526873,
                0.3484827043587531,
                -0.36178305175858977,
                -0.5378367533068792,
                -0.08162360495820915,
                -0.06481649155095165,
                0.33424218160213315,
                0.10300737194813031,
                0.2742268825321842,
                -0.11458455200317848,
                -0.00435937798209894
            ],
            [
                -0.2776106080420521,
                0.14934616770687764,
                -0.11620670623177214,
                0.287475160673227,
                -0.07681210777801604,
                -0.29458866832912073,
                -0.07488454855508103,
                -0.31853620296737706,
                -0.09338621154939958,
                0.1392969381896885,
                -0.3908277763075944,
                0.14453954209147263,
                -0.02491719581635892,
                -0.14872622154360945,
                0.11972256276815782,
                0.03200820320123991,
                -0.3050317011428027,
                -0.2510885918266139,
                -0.3273248407828779,
                0.08040684258510435,
                0.12054642021015954,
                -0.09318820049943163,
                -0.2583085499494467,
                -0.0785325530440601,
                0.28457753349587883,
                -0.1518384947237993,
                -0.15388847712484438,
                0.12576196346683313,
                0.25328957547783787,
                -0.11964365072289601,
                0.2733270221372478,
                0.05033913364738084
            ],
            [
                -0.08314449227984098,
                0.18599601896518023,
                0.0030431329029809045,
                -0.18966737757864477,
                0.3514361662910968,
                0.16369523256345997,
                -0.10745362504439358,
                -0.14795159839877361,
                0.11365005833897486,
                -0.2993036589996234,
                0.06757991193624792,
                0.43338828992723255,
                -0.003541940857950666,
                -0.193111032479764,
                0.033778784648799354,
                -0.21748008580035472,
                0.07716893256766123,
                -0.058878586612208544,
                -0.030108028265175012,
                0.3761086804499417,
                0.055668143079317764,
                -0.1481748465206733,
                0.27766678645783355,
                -0.12641702426215548,
                -0.08766073371213441,
                -0.08888720641283346,
                0.2743120649166776,
                -0.10058439009825262,
                0.39145637151227847,
                -0.052448697148519074,
                -0.08789088704093578,
                0.27130130287189785
            ],
            [
                0.256462270612313,
                -0.22531508301311648,
                -0.21677556266801132,
                0.42120480276665456,
                0.39846657730101587,
                0.15197772392958422,
                -0.14117423442672436,
                -0.5060369776169377,
                0.2639828986971488,
                0.13853833191580883,
                0.159405418521666,
                -0.06555348196774818,
                -0.0816200961998854,
                0.1183436603001386,
                0.21674704346583606,
                0.055364533563486217,
                -0.022821599064285276,
                0.14910192439793166,
                -0.15881956141349793,
                0.049749229000418525,
                0.14348086797114157,
                -0.23011928782442417,
                0.20149805970941792,
                -0.21051472630377305,
                0.09185222225261827,
                -0.2827667134723447,
                0.08729904524059724,
                -0.12205597916060484,
                -0.31536806558421693,
                0.07373473561656786,
                0.22790738869744234,
                0.14129760288988674
            ],
            [
                0.006159069291952222,
                0.15130625061697095,
                0.03528871163317482,
                0.1886448241990155,
                0.055827516646704545,
                0.05280382431941172,
                0.13916653552339614,
                0.17910607661887767,
                -0.17885635957247625,
                0.2807350318886892,
                0.12023526912982342,
                -0.03867712646586289,
                0.2730074562844609,
                -0.03855756102880961,
                -0.2196372987040075,
                0.18795360442940381,
                0.18688511257111814,
                -0.033108569155900255,
                0.08290763813819803,
                -0.15742501020906768,
                -0.0524433918291639,
                0.19954384351503213,
                -0.25241348349084375,
                0.42257760876388867,
                0.06966463021865278,
                0.16699567145999064,
                -0.030018128944229356,
                -0.1262975067152586,
                0.06598402442335878,
                -0.36615102593780074,
                0.14499731469206512,
                -0.32065671398794665
            ],
            [
                -0.06677444913259833,
                0.05739432228670638,
                -0.0410798205903166,
                0.011721103244384927,
                -0.1431544735531586,
                -0.2084753605842264,
                -0.34497060799864615,
                -0.10599949901517554,
                0.17373739157098778,
                -0.048505698906933924,
                0.15617050605476948,
                0.16779291084799772,
                -0.005280574108970196,
                -0.10871787352018827,
                0.18779718608689316,
                0.37763493856833397,
                0.21440507385331814,
                0.2777678201406395,
                -0.22196255782988325,
                -0.10785695426147268,
                0.34699799044965624,
                0.2118560305945506,
                -0.07562720548254788,
                0.4207333650432541,
                0.16721548912023226,
                -0.24016777147007265,
                0.2519327395170069,
                -0.05486313626662651,
                -0.06553655152044487,
                -0.5768298733817726,
                0.34980293707053167,
                0.03313199165903523
            ],
            [
                0.11101039922056108,
                0.07694383525623295,
                0.1966061076949819,
                -0.4380181416943957,
                -0.0665932406064422,
                0.13135705699947575,
                -0.09411512721726113,
                -0.11928524217797834,
                0.09267303470284355,
                -0.2605237415315113,
                -0.0833092520025217,
                0.04503356523985701,
                0.0031018976311188136,
                -0.1679918019238693,
                0.2603215764013176,
                0.5193633093681649,
                0.2194243993954834,
                0.22578316574091054,
                0.37485875956008635,
                -0.19868424347336971,
                0.0804304460857223,
                -0.005441469741865232,
                0.2584349832671092,
                -0.19097125432204484,
                0.14305155518907442,
                0.19761765386603386,
                0.1296309158913873,
                -0.13632682973795324,
                -0.006588684646890458,
                0.08506848166106955,
                0.07026703651957651,
                -0.027000835142423133
            ],
            [
                0.021870249572244743,
                -0.009793934587045859,
                -0.40545786010321044,
                0.09782508159376292,
                -0.12425842330068934,
                0.0024049503584552883,
                0.1749677864722917,
                0.022836991950191683,
                0.27604597406334197,
                -0.16930955658407698,
                0.13731432808011163,
                0.03474029437849771,
                -0.019723894875107322,
                0.21935550414221702,
                0.071781421645734,
                -0.39240702702098773,
                -0.06037805473893443,
                0.4583850511206954,
                -0.4223355619916786,
                0.024070288247640407,
                -0.17416968319266063,
                -0.04397262616630764,
                0.26292287683589344,
                -0.062716206448404,
                -0.07064285610032182,
                -0.006188022214409865,
                0.12682954300628524,
                0.268396838176368,
                0.019811792284478966,
                0.24086911347986573,
                -0.03282867385379411,
                -0.27975869179979196
            ],
            [
                -0.4785558000650937,
                -0.23928480677533231,
                -0.09795422620466385,
                0.12707993900523554,
                -0.3066100530315517,
                0.09457150423007644,
                -0.5041108600604164,
                -0.20306576614056834,
                0.07974840404036863,
                -0.041321703914499526,
                -0.28526157506825034,
                0.38412881231018786,
                -0.14160574436217288,
                -0.44414065618443727,
                -0.09126246128727863,
                0.09746505720170448,
                -0.04480032520157145,
                -0.054435578394789776,
                -0.1286423330617936,
                -0.43805979375196386,
                -0.10827622961303918,
                -0.22224606774542563,
                -0.025406684800142694,
                -0.006099338655032272,
                -0.16157071104848253,
                0.009065086254613053,
                0.11237750952382349,
                -0.3496892299842514,
                -0.2607593159358493,
                -0.0836521414164481,
                -0.13622761115741552,
                0.27953236363173833
            ],
            [
                0.0003289596360522993,
                0.025297759437483015,
                0.22359359567329168,
                0.03207289066345945,
                -0.15453187268478488,
                -0.5207980915645529,
                0.1503502142052143,
                -0.06466923947688334,
                -0.12289979486914478,
                0.32694933178686086,
                0.0677675874067893,
                -0.2067711895296165,
                -0.10008415624514909,
                -0.10975274728923629,
                0.19589894336618316,
                -0.015216702585334418,
                -0.09719604610562656,
                0.14337994945325416,
                -0.07821146764294486,
                -0.12933221482475377,
                0.31717085273515283,
                -0.12215643513547061,
                0.20357871863831578,
                0.3509163578777467,
                0.18268812998855777,
                0.12584544960620203,
                -0.11308391614926543,
                -0.1376062569664221,
                0.12061269523033238,
                0.28660401089608284,
                -0.03223074844786907,
                0.3057785621470399
            ],
            [
                -0.3491554619920045,
                -0.08386511754162537,
                0.2506071925274016,
                0.034521421419680356,
                0.05868753475480335,
                -0.045029678365019296,
                0.05599248912361161,
                -0.6241832949836342,
                0.06966889311464039,
                -0.11958178659577091,
                -0.09185931539613426,
                -0.09991512264964014,
                0.07968081361161237,
                -0.2418637136854595,
                -0.02738835057736543,
                -0.2059790751073227,
                0.018215162900683087,
                0.05452552480321302,
                -0.10839949491135888,
                0.20070609135017078,
                0.040388417825925345,
                0.14209720073313242,
                0.41164112861100005,
                0.19430506461990896,
                0.12884741195165125,
                -0.09137040367173985,
                -0.14144623333623335,
                0.2640746370396452,
                -0.31206788003414476,
                0.2939207439725557,
                0.19796582921463374,
                0.2933936692488401
            ],
            [
                0.01508391402927714,
                0.06314935476715931,
                0.08046783142054587,
                0.062356574981874295,
                -0.08262905227719142,
                0.32336062215261796,
                0.2920078173295855,
                -0.013655186589973485,
                -0.3987293975289755,
                0.11893372341210152,
                0.16387872010753632,
                0.09795822919211973,
                0.017951616137965403,
                0.1953409698512958,
                0.037254212348796695,
                0.47399418318283754,
                0.0038192008007383793,
                -0.20983035143346618,
                0.16505956962518464,
                0.19972226000262552,
                0.5190195546243591,
                -0.07670601195449296,
                -0.2669185640797406,
                0.0779572795990127,
                -0.1498988576071935,
                -0.3775250296878115,
                -0.23928556628221057,
                -0.13359263831986914,
                -0.2651821001501846,
                0.0690951642529608,
                -0.19716056361461728,
                -0.2515850706181749
            ],
            [
                0.09913910637509153,
                -0.47113485874375277,
                0.19291967493510978,
                -0.15336525421069747,
                -0.0825549452942913,
                -0.1826190742728249,
                -0.09964596115895577,
                -0.32194207435037114,
                -0.0005364408221726155,
                0.2344460541670222,
                0.28380417398159746,
                0.2246358474989264,
                0.07322098925629361,
                0.021177972862093816,
                -0.22690271773096993,
                0.23507173704938486,
                -0.2855378799359647,
                -0.20531215260983712,
                -0.16906023180633825,
                -0.1303174154163062,
                0.04711775570502151,
                -0.28727698325695833,
                0.08546371406121797,
                0.056767265934718265,
                0.47496835170541674,
                0.06265870107456004,
                0.2776717144297739,
                0.0013941101672031006,
                0.13359551685143167,
                -0.1217267137063097,
                -0.18602260570271514,
                -0.05614919363833237
            ],
            [
                -0.3082146969863184,
                -0.5335824881986976,
                0.16694054761986657,
                -0.18029317307846116,
                -0.3166930194207028,
                0.3970741425234713,
                0.4906488332939975,
                -0.6984824762373982,
                -0.6721467051022872,
                -0.4216390524444832,
                0.2711976354591775,
                -0.16453627225765388,
                0.540197594379022,
                -0.04578292903893078,
                -0.4471001843135846,
                -0.3872354900795986,
                -0.4157826127312946,
                -0.3786894615243608,
                -0.03914646197331761,
                0.20211778541541836,
                0.3575915523389262,
                -0.14949012024630362,
                0.13282066465978687,
                -0.7130536798416047,
                0.2272890799322171,
                0.15726415623767592,
                -0.236783069847416,
                0.5598807859350764,
                0.14355417614822155,
                -0.2561410515213933,
                0.23084163280943537,
                -0.529014847144997
            ],
            [
                -0.02871229056992751,
                -0.2019044379060773,
                0.3075557671927988,
                0.05819352189342847,
                0.1794828734405723,
                -0.20976982904996,
                -0.3968271963895688,
                0.7165673552551162,
                0.06343254695698436,
                -0.27790492162230557,
                0.4896752451262602,
                0.1767786979847604,
                0.12253461909615693,
                -0.25620647433481225,
                0.007892118749171775,
                -0.065506261508692,
                0.04837964426567638,
                -0.3519692689691294,
                -0.06673996864610438,
                -0.08241310935228896,
                0.38305114630312886,
                -0.2578454990264819,
                -0.3615792991608053,
                0.1446160248608399,
                -0.47800620165301116,
                0.1392898661663578,
                -0.043768523660815906,
                0.24226040076591307,
                0.13126276560620526,
                -0.3577489286110904,
                0.03710867612120392,
                -0.0586510169259785
            ],
            [
                -0.16219636500243984,
                -0.08664234868623451,
                -0.0014777027021021362,
                0.19722413617396756,
                -0.3281075578184432,
                -0.10885372945604628,
                -0.09546485840495121,
                -0.01545812637007229,
                -0.2137641447771935,
                -0.05858840909430511,
                -0.24760218023131395,
                -0.06881589345444335,
                0.1824129351634107,
                0.39343375927972424,
                -0.18371744912075733,
                -0.07380343448823808,
                0.38753159718835,
                -0.016179320900861268,
                -0.05717398630800551,
                -0.14554771844339678,
                0.4042086290452774,
                -0.006788369902596554,
                0.02891404262117886,
                -0.18599183643124031,
                0.0018499001625586148,
                0.3271664703414813,
                -0.4106526217432337,
                -0.04101518457727576,
                -0.06035885915497634,
                0.07710278336434966,
                -0.0897315874130567,
                -0.09112687993813086
            ],
            [
                0.3521874078242271,
                0.0551161818374432,
                0.10090560765139053,
                0.08048111215172721,
                -0.1622062042726393,
                -0.19626850526615822,
                0.12649389214307444,
                -0.28355372412984786,
                0.14235082223323656,
                -0.05370788624834706,
                0.1262632557200548,
                -0.046356184594599836,
                0.17985911221443085,
                -0.1337635658189489,
                0.1980380220360794,
                0.31665485912903024,
                0.2602886976638594,
                0.03801605526308646,
                0.037953019051392665,
                -0.1916833518512551,
                0.16013438259929483,
                -0.039658227828999026,
                0.0913279726125103,
                -0.22837008115800608,
                0.056112719376897234,
                0.2213922258837034,
                -0.03280532726191285,
                0.010117343277085838,
                -0.01784879449280099,
                0.27844169605435565,
                0.0031551272166596735,
                0.43541952989745225
            ],
            [
                0.14978585427861135,
                -0.007869549490690195,
                -0.17098981955514936,
                0.013743231171417809,
                -0.23320506218601833,
                0.1927897435806062,
                0.2105457616583414,
                0.28869580162462366,
                -0.13988703150441462,
                0.06242418271904965,
                -0.04559541683423973,
                -0.4015247017597394,
                0.19787504857606517,
                0.18052691496487794,
                0.23057547779914372,
                0.21532117769267234,
                0.13067695571646454,
                -0.09947560313878863,
                -0.006415066503189709,
                0.2514468152450359,
                0.06969702637629821,
                0.23590622784542098,
                -0.4265165435601224,
                0.11248101786372089,
                -0.49922143806506974,
                0.3655699914343024,
                -0.034540240851521804,
                0.26946595650853467,
                0.3659724774465322,
                0.3223052258839208,
                -0.03337125213995825,
                0.04403327713944414
            ],
            [
                -0.09510933767639249,
                -0.24243123776671807,
                0.24063757969961516,
                0.11584330435416948,
                0.5089703936804097,
                0.16453515056265786,
                -0.09851979840422029,
                0.28847543547663596,
                0.19868594772166437,
                -0.09449233042982552,
                -0.08151906425226173,
                -7.500126385593654e-07,
                0.009985737056879837,
                0.1403085979340499,
                0.05315002527856697,
                -0.1859509548435945,
                -0.0699858232785568,
                0.526515404004098,
                0.28002405213053805,
                -0.008203966994991358,
                0.021850113847325537,
                -0.0926691325841055,
                0.21311904680099145,
                -0.202899422438183,
                -0.017158026406786077,
                -0.1487192625717439,
                0.07390253353181322,
                -0.2510011051164881,
                0.12048471968237225,
                0.0990241344827029,
                0.07089110427744173,
                0.09672504773644573
            ],
            [
                -0.30127483328791327,
                -0.5075785049034046,
                -0.06265829599284614,
                0.14858839262568108,
                -0.12248083355294798,
                -0.2966997549225649,
                -0.10225980682280848,
                -0.14646332438624649,
                0.12366901034823101,
                0.13339657623908127,
                -0.24255701083772152,
                -0.2467009766529929,
                0.006947806946675555,
                0.1252563559433623,
                -0.0032113685599789083,
                0.021051118287634854,
                0.18575536159220846,
                -0.3558265240796767,
                -0.03188696358821623,
                0.06369012943129686,
                0.16525446486477022,
                -0.0728244619279483,
                -0.40961153158746616,
                -0.04198213954411199,
                -0.12272808932558195,
                0.06447585761737487,
                0.15923568865311655,
                0.20811503375123763,
                0.2412498483751293,
                0.06988326109063255,
                -0.15645103491363685,
                0.37551562114758497
            ]
        ],
        [
            [
                -0.17614227104433275,
                -0.11806631414616513,
                0.01182970025204662,
                -0.28984445583298507,
                -0.11419436788335409,
                -0.272283187567079,
                -0.11663075438674873,
                0.12246064268176604,
                0.1625462390358614,
                -0.28609035397351884,
                0.2306205954528635,
                -0.20644827696084928,
                0.3092633875578391,
                -0.2508983850610342,
                0.0024440028308584656,
                0.041393799964686395,
                0.04427279666017925,
                0.2640788379954974,
                0.30737389103960444,
                -0.012369170373904795,
                0.19318771177335153,
                0.0913684569412926,
                0.013432924653218548,
                0.05432637728264521,
                0.06799274081561485,
                -0.1917749878434716,
                0.04104796635277035,
                0.01650192188893213,
                0.2933972201408827,
                0.20036512112663588,
                0.3196385042898196,
                0.09304420353456413
            ],
            [
                0.008230174831431262,
                -0.24823003169329724,
                -0.02665525926999653,
                -0.3411299977235531,
                0.09905128711414683,
                0.014591777882256345,
                0.1876253167891694,
                0.025489606296833063,
                -0.16810590362011502,
                -0.18782967724562216,
                -0.27172960263065393,
                0.4003435522016076,
                0.2971013262879663,
                0.044039468600728555,
                -0.25451801594023504,
                -0.1890988318019113,
                0.12439397274482361,
                0.05664066925844847,
                0.17430304950553238,
                -0.1461521597324325,
                0.06151456965119716,
                0.20430927108970515,
                0.0929812642118587,
                0.12736450645522376,
                -0.05205606135466929,
                -0.3534597785724256,
                -0.21890971254955902,
                -0.18275884451965688,
                -0.16652628563949426,
                0.35963837689821126,
                -0.02370455144176647,
                0.03866620119276051
            ],
            [
                0.19751664060325702,
                0.027394055303960017,
                0.11477695372690548,
                0.25441183241590554,
                0.29655906717893105,
                0.3108489736611363,
                0.00824665970458963,
                0.14212665617229683,
                -0.08499044871618801,
                0.1296047613354594,
                0.14071761856014103,
                -0.0723536545735548,
                -0.2880550978729144,
                -0.010666837518413373,
                0.12776898063180872,
                0.1854174972869389,
                -0.17906810304630966,
                -0.18733406699601818,
                -0.08111573079628877,
                -0.07076662611985725,
                0.11947313588717628,
                -0.12340442961260095,
                -0.16776544867240023,
                0.0785866046916323,
                0.3067882098343027,
                -0.15151607322342014,
                -0.20779657508133859,
                0.2607041908363445,
                -0.24707006762973635,
                -0.08426116976647381,
                0.04951804192332227,
                -0.13681024358072377
            ],
            [
                -0.009152253210561423,
                -0.2801593665433606,
                0.08325604249923485,
                0.20245390440402813,
                -0.25230042311925144,
                -0.041578504683062484,
                0.22216072501338707,
                -0.16641223464491056,
                -0.2370534803965104,
                0.12226003406899985,
                -0.006155594636098265,
                -0.05984320697964828,
                0.07523845137873132,
                -0.25005264439609404,
                0.13916417097718523,
                -0.30398531285080205,
                -0.0054002702980848576,
                -0.019688925424180787,
                -0.024242580099945652,
                -0.2419940512856006,
                -0.3088894257051918,
                0.20832865697738587,
                0.1276567131019946,
                -0.28793348785628325,
                -0.03258320293860965,
                -0.2748295129515331,
                0.09084723755850106,
                0.03698593208405692,
                0.15315427254013356,
                0.221099910458798,
                -0.13300976336601106,
                0.051147433207991685
            ],
            [
                -0.2920372552815029,
                -0.23004653113668766,
                -0.028313059025196076,
                -0.2546211175761663,
                0.13322230534430185,
                0.11495882361611383,
                -0.228172101503588,
                -0.020558328318962583,
                0.17672870464669635,
                -0.14617226123531707,
                -0.07318958935855763,
                0.13418435243071886,
                0.2587404813298944,
                0.2850889282867138,
                0.25847800592348213,
                0.17838049900963804,
                -0.11951975255739368,
                -0.2368326413627772,
                0.19836648961561018,
                0.15359896180342392,
                0.14075052001381777,
                0.1752957366302258,
                0.06253284555542561,
                -0.1933841922556351,
                0.11485767222624133,
                -0.09016807008838643,
                -0.12377354817992688,
                0.2513113931109146,
                0.30000035065444614,
                0.23374348278315502,
                -0.05211269857711284,
                0.12152156885385057
            ],
            [
                -0.28405169997446317,
                0.07858964216142152,
                0.1374975521599587,
                0.2414768062058964,
                0.3166003607651144,
                -0.16585171622837022,
                -0.03566891278811873,
                0.26369923174453463,
                -0.2249510199068087,
                0.31518188271916825,
                -0.1400149159746296,
                -0.37307392981372306,
                -0.0464237420702891,
                -0.20280535060365867,
                -0.24557526146676667,
                0.002257501971966006,
                0.2006516971105844,
                -0.32718820328721804,
                0.14532683488130652,
                0.2636875192644981,
                0.10830720114597646,
                0.27715046195623727,
                0.06635959740178024,
                0.0899372477332223,
                0.2764044389437218,
                -0.037868325109597305,
                -0.1921903895825285,
                -0.13164918882464188,
                -0.18835305538081837,
                -0.13230802933810032,
                0.09430185984711363,
                -0.026380782537140844
            ],
            [
                -0.07363575837669575,
                -0.17268506887038884,
                0.2500938906764896,
                -0.0632717958374879,
                0.36535802471154905,
                0.22274506665475546,
                0.023800122843275626,
                -0.11927672357430012,
                -0.18245955629765329,
                -0.06308129806706608,
                -0.1313175412449679,
                -0.15534362337256086,
                0.11295962909337139,
                -0.02460430012070829,
                0.2698429403146205,
                0.03453022221022706,
                -0.23341483777624888,
                -0.04310834191964659,
                -0.10424567131886577,
                0.01631759809777854,
                -0.20041003660470483,
                -0.11329498574769517,
                -0.025254029876793444,
                0.03851292454869679,
                -0.01656107828517379,
                0.1734068743688988,
                0.27723017480078677,
                0.13109467410936568,
                0.05298570467910755,
                -0.19125170640787167,
                0.15434706051476207,
                0.1619647017587071
            ],
            [
                -0.13245247893894593,
                0.23871721542105565,
                -0.1868914399584917,
                0.09034282792267415,
                -0.3037730501207104,
                -0.03963184201423063,
                0.20890741476028962,
                -0.11069666556430591,
                -0.15778332783324614,
                -0.28518193411822973,
                -0.00513502885517335,
                0.3718698835399389,
                0.1838441863848114,
                -0.05259130037424735,
                0.014875608571103727,
                -0.12338258553742905,
                0.12346292221127673,
                0.413790656827973,
                0.055431915381519065,
                0.09939752165470456,
                -0.06610162666866487,
                0.053963731089716825,
                -0.07261563996510517,
                -0.06684717244260248,
                -0.008606982570458844,
                -0.30819961234088017,
                -0.24753969158672523,
                0.08709110421073113,
                0.10298978339293328,
                -0.2164256706090642,
                0.35862070238919846,
                0.22849670925682367
            ],
            [
                0.26163903161812074,
                -0.07658631516770639,
                0.10560862418033999,
                -0.391146452116852,
                -0.008961077588729884,
                -0.2395029151927547,
                -0.14412601978720357,
                -0.2966103815745813,
                -0.11357120749868486,
                -0.2826726579816225,
                -0.02129974023270036,
                0.3353865100264451,
                0.07573197578733135,
                0.17256315205087672,
                -0.27137269247495605,
                0.18324812469801047,
                -0.1405595852963403,
                0.24190353973184972,
                0.3481146040122972,
                0.16253319588419296,
                -0.10519196398541719,
                0.21919661394466763,
                0.007784534502663529,
                0.04535322691906465,
                -0.05061165745972103,
                0.03504604713818055,
                0.013397566374370198,
                0.04724281560589016,
                0.09212389868678937,
                -0.12975633911906811,
                0.2793190889703823,
                0.244683378797864
            ],
            [
                -0.24780274222631224,
                -0.29806730743551746,
                0.21466957452806318,
                0.17990921317428557,
                0.024614655298541163,
                -0.21595262010461783,
                -0.05950149409906163,
                -0.020256454976637157,
                -0.19807990702199818,
                0.021054946361168638,
                -0.20057961454655043,
                0.2484868717827917,
                -0.11496365609805516,
                -0.09958532081328726,
                -0.131506670887569,
                0.029103147638108246,
                -0.25617712874666737,
                0.38710195408447495,
                -0.05060955593049334,
                -0.08272561343745496,
                0.23446895259560482,
                0.13276217179264474,
                0.052385024393614865,
                -0.26352769561246214,
                0.017136827383883665,
                -0.14521929558076496,
                0.021353825390432207,
                0.09524977665878225,
                0.04802697032926659,
                0.33108843024596774,
                -0.2345163591140339,
                0.259141819321826
            ],
            [
                -0.2596865877329258,
                0.11838478093304029,
                0.14970487638445226,
                0.2582955154559379,
                -0.21040447091196907,
                0.3389212125544705,
                -0.3082388393032501,
                -0.13317246104196387,
                0.01307528146705639,
                0.13829521196133907,
                -0.2202076999692864,
                -0.2081427693974458,
                -0.24656379927194405,
                -0.06578196947554743,
                0.12751878859080537,
                0.21562276009308248,
                0.23807005826913225,
                -0.19900813237386727,
                -0.22168855022126935,
                0.11288399753890879,
                -0.3182450534453635,
                0.028481821421630134,
                -0.06283223225006601,
                0.17849895299470184,
                -0.009294339709803406,
                -0.044826469999581,
                0.1862464555437697,
                -0.1816612724702265,
                0.1741530394008062,
                -0.30411526140997397,
                0.14090555948520253,
                -0.10798546570698453
            ],
            [
                -0.19516618007676892,
                0.21884325133658855,
                -0.07253396667591083,
                -0.2765740916551051,
                -0.16254187417008062,
                0.06771249164999024,
                -0.20553176525039094,
                -0.09322181775529147,
                -0.22277394156490435,
                0.26107566982553143,
                -0.2772126684250992,
                0.10940572036870351,
                -0.14879520688815057,
                0.10679825459120687,
                0.1682509788507881,
                0.0017648025253350502,
                -0.21356340830248952,
                -0.005959313192117548,
                0.11811002063444752,
                -0.0625967950197048,
                0.1643532557823531,
                0.22538060015023662,
                -0.09312306578544698,
                -0.0737726516010762,
                0.08076550382442806,
                -0.10785110341777325,
                0.23640802758120077,
                0.14288749082470314,
                0.004696952223427888,
                0.24557642837593882,
                0.25791864065809866,
                -0.08938428127950539
            ],
            [
                -0.3255395840878202,
                0.2772341842897112,
                0.22463964776707648,
                0.31100238760343923,
                -0.07434984788138335,
                -0.008670843046754303,
                0.04106345872239894,
                0.03939008779505066,
                -0.11925959892090505,
                0.17267260469444665,
                0.21503246162867257,
                -0.3116482004993141,
                -0.12926264119480402,
                0.15956960057596584,
                0.10784734101374968,
                0.016423704169548584,
                0.16414996207185317,
                -0.43073478322647235,
                -0.22579038766304915,
                -0.12569402993701906,
                0.008809896230691559,
                0.0872419511880757,
                0.2871554958652187,
                0.2198148109777343,
                0.021988006021291136,
                0.12224544075657422,
                0.061477321049004795,
                -0.20728715270312356,
                -0.11858040970710589,
                -0.3376576702974922,
                0.02343847963310482,
                -0.104239156512007
            ],
            [
                -0.2043935702693563,
                -0.13532220976636244,
                0.017960118776903972,
                -0.2514293293816436,
                -0.05840482416288847,
                0.2917853504067553,
                0.29302267181934805,
                0.11607011260530996,
                -0.20115628452661088,
                0.16428847205913708,
                -0.04891474737847835,
                0.14866626045632164,
                -0.06002422427989224,
                0.19532274677519176,
                0.21651476684547769,
                0.13279887678563407,
                0.08622012596342961,
                0.019425241943711077,
                -0.038930737493003555,
                -0.027925183503988153,
                -0.12700251298755308,
                0.18431181263123067,
                -0.2542559915647687,
                -0.20743352131117765,
                -0.23664382886889795,
                -0.260518474811217,
                0.26240473070653103,
                -0.15296726435600996,
                0.11449099802165984,
                0.2480791958179796,
                0.16583196783216855,
                -0.2051132474207177
            ],
            [
                0.3391475964116798,
                0.04109766905221019,
                0.27695645110897976,
                -0.010539052364864066,
                -0.29983516995179776,
                -0.0013415511210461983,
                0.08039047357140118,
                -0.15272573357799826,
                0.2328470910584173,
                0.09726175897876016,
                -0.06117609853793623,
                -0.04346997938650044,
                -0.12778094467555612,
                0.11452924818562801,
                0.08411673626429299,
                0.2943467285759271,
                -0.22216423246722938,
                0.25944072410965197,
                0.12658406729750904,
                0.24050047109531528,
                0.3711330488227258,
                -0.07580899551422962,
                -0.2921429322320928,
                -0.11800143921143028,
                -0.10236442866769875,
                -0.37912959697919296,
                0.14242473472906828,
                -0.0657605534906458,
                -0.08190451184686377,
                0.25926089357802024,
                0.26240177884061744,
                -0.28356664715822405
            ],
            [
                0.2355690370458831,
                0.13338162043451218,
                -0.29979236076140037,
                -0.0850198975774883,
                0.0846351723361647,
                0.129060448662917,
                -0.2620064158940945,
                -0.28829577456455335,
                -0.13091211574966,
                0.0019516783254659945,
                -0.22376856682708438,
                0.26995193167568776,
                0.15608257589944202,
                0.1811789227147281,
                0.01631670407306983,
                0.3015712524647882,
                0.031180406429013013,
                0.20206069721395858,
                0.274652140339554,
                -0.23431991095685828,
                0.2675357374679431,
                0.07908180683919176,
                -0.1688321319769624,
                -0.08792534280683159,
                0.23350402986498373,
                -0.22200621782321342,
                0.15869431118926142,
                0.2838689593258277,
                -0.2109687739651889,
                -0.04520257500627366,
                0.17350992661309356,
                0.2897599772450888
            ],
            [
                -0.25279627841384406,
                -0.32008383734427964,
                0.152049035060863,
                0.00678315010368317,
                -0.04466168996548299,
                0.12792413820104467,
                0.18177338651152491,
                -0.06345956819548211,
                0.15249827673442573,
                -0.09186825036157288,
                -0.13902758525195208,
                0.3160250703869556,
                -0.011308210818991409,
                -0.016275677894252032,
                -0.07164164399263157,
                0.2283821842751133,
                -0.2105029489327939,
                -0.18827666926614958,
                -0.059751888286423374,
                0.14685855166505674,
                0.2646031148900209,
                0.1286414123635518,
                -0.2532439189840848,
                -0.29548397956712297,
                -0.13242067733989699,
                0.093016914693154,
                0.07082890366828952,
                -0.0010556325093172884,
                0.20306247214961845,
                0.07096423801623622,
                -0.1742866301143406,
                0.15684031404637705
            ],
            [
                0.13536510409173982,
                -0.04867976413161095,
                -0.15493343451839314,
                0.19682369233735195,
                -0.13119335856291586,
                -0.35612360790040254,
                0.14884125221295838,
                0.031967766094578846,
                -0.27314067730703306,
                0.1080522024741584,
                -0.02571166505719819,
                -0.058485206410670655,
                -0.03169910017709,
                -0.3252189599739572,
                0.027836363156799902,
                0.26473303359283124,
                -0.2912661977368663,
                0.09547222533440212,
                -0.07617042367281444,
                0.02197921065995293,
                0.24648159870294725,
                0.2796068780409486,
                -0.31082848135237773,
                0.07786615892912627,
                0.1938705815443785,
                -0.05860066207677588,
                -0.2430147174921198,
                -0.22829539560687698,
                0.01591238311103628,
                0.13564969251822162,
                -0.1402209707542688,
                0.2443185744597159
            ],
            [
                -0.14786323423989714,
                -0.07861399266862137,
                0.013390402182225586,
                -0.3092702465236235,
                0.1520008612772892,
                0.24786632152028729,
                -0.164639432814266,
                -0.051325830695108605,
                -0.3119583098160041,
                -0.07297834136744404,
                -0.16739108475573589,
                0.04619402673243829,
                -0.15323589893819725,
                -0.10707035043672848,
                0.01705448706808439,
                0.2654665272143917,
                -0.2344076697192906,
                0.32944441303291905,
                -0.2308710560458477,
                0.0036967399549017533,
                0.2852470293984403,
                0.21862507053988878,
                -0.21289004471776346,
                0.02833790587298428,
                -0.021691637576427458,
                0.25093526131241545,
                -0.02878581427004035,
                0.00963355374491719,
                -0.17414518326508432,
                -0.027026172624064447,
                -0.0198048898194307,
                0.15336101599919733
            ],
            [
                0.23708833382442024,
                -0.20094457404716567,
                -0.2783947145383809,
                -0.051904145740619155,
                0.12121292962277984,
                -0.24464390958419707,
                -0.06272080578880138,
                -0.27502200824642103,
                -0.015481824035945236,
                -0.17996597155391705,
                -0.07336673577294929,
                -0.3256025823032553,
                -0.3057313565388811,
                0.3009720516213225,
                -0.11004091311360979,
                -0.14583390513780337,
                0.2924719947169006,
                -0.03511092108144694,
                -0.2858251373238133,
                0.09689231955011078,
                0.15697759025189717,
                0.12844954334623895,
                0.03342127973844375,
                -0.07569721767173594,
                -0.10648331924045606,
                0.21105724175480883,
                0.08736779353617116,
                0.14489719312184537,
                -0.01781159076108009,
                0.16209590282304712,
                -0.03892984090914776,
                0.05275771638031235
            ],
            [
                -0.2262467692936891,
                0.18020293034294615,
                0.06080998802247504,
                0.1582875184305833,
                -0.0009810791457614226,
                0.24357700038617447,
                -0.30903957241967855,
                -0.25692501145493934,
                0.28940387724282424,
                0.3342795903221401,
                0.015202836847859696,
                0.10161312297681542,
                -0.11710127011877566,
                0.22456212698296535,
                0.05376379581157189,
                0.1951271016823724,
                -0.024140093416936098,
                -0.14208726175429803,
                0.09507614385448332,
                -0.19801467543521245,
                0.2027485552010753,
                -0.2623739593882096,
                0.27301846500357113,
                0.05063365667755656,
                -0.01929673220872479,
                0.11677417957512992,
                -0.172724189578509,
                -0.1324026470698448,
                -0.009344204957026295,
                -0.3032397555055728,
                0.02434489027380864,
                0.25528918135325934
            ],
            [
                0.14947040158606723,
                0.06728668796836142,
                -0.13343991032997335,
                -0.08594264394649737,
                -0.188325169313371,
                -0.01077261054653323,
                -0.06487670554780313,
                -0.16094002498055346,
                0.02447005234543378,
                0.0782231556980899,
                0.021917733489418268,
                0.01663587125315375,
                -0.08929740191391018,
                -0.2893826085736402,
                0.02534046006476741,
                0.16118565906122326,
                0.06504820917807125,
                0.1769261470519438,
                -0.123143526810853,
                0.014985521229393584,
                0.22341958499094713,
                0.21092633891519366,
                0.21251081424554188,
                -0.10901184649454315,
                -0.31700112283248644,
                0.004722184080057121,
                0.18649550885272423,
                -0.1944252717104054,
                0.08960226622398175,
                -0.18651374558666714,
                0.08685828587220648,
                0.15678838291508018
            ],
            [
                0.2856940771274599,
                0.27541440443979104,
                0.12504665733412326,
                0.338329190093105,
                -0.20436478804011562,
                -0.06393951677343646,
                -0.01617740394868888,
                -0.1330637377135209,
                0.12935823045068306,
                0.26400738280182273,
                0.029247235888049058,
                -0.1754804118380376,
                -0.18756695220791528,
                0.28056599690829415,
                0.2177290606696036,
                0.08425840179860276,
                0.2922473035036633,
                -0.04131754059487683,
                -0.21852682997064748,
                -0.004595541395695602,
                -0.2570511983332257,
                -0.2038043815755706,
                0.251403630614784,
                0.32974779435896295,
                0.01426013499410257,
                -0.051595148067171547,
                -0.09962441179954819,
                -0.15452281023520262,
                -0.18497852100541795,
                -0.11433933829156578,
                0.21399405272372404,
                -0.2900268605375662
            ],
            [
                0.20140277463059136,
                -0.20776381072022285,
                0.14008129138750527,
                -0.35338363512272425,
                0.1986063194193875,
                -0.36580537555028747,
                0.26639893620249594,
                0.1175525927183997,
                0.06216488946045405,
                -0.3754384803078423,
                -0.27565177465837126,
                0.4701414176922312,
                0.2135006162908124,
                -0.37281458261645706,
                -0.07491416472273837,
                -0.2482444795453353,
                -0.13774588083437822,
                0.4522839109775069,
                0.08510001409099019,
                0.27771056004744454,
                0.3624568554813606,
                -0.27382944411550914,
                -0.21559012392269122,
                -0.3364544273304397,
                0.039063603450051686,
                -0.0491723978656919,
                -0.33741590266354865,
                0.32340278929999433,
                0.1058945555599217,
                0.29591958683559444,
                0.0506325789921393,
                0.2812180913883845
            ],
            [
                -0.23184222957475417,
                -0.007607917828338106,
                -0.25598398199459504,
                -0.013972748802007905,
                -0.25053445570209226,
                0.07881995260294115,
                -0.2661920234018697,
                -0.10770738438648898,
                0.1947592225797236,
                -0.02994112152246266,
                -0.0006468741371091531,
                -0.30753360724115253,
                -0.2025328361026135,
                -0.13612762343441875,
                0.1970804521151608,
                0.1920293258537534,
                0.3194862010288677,
                -0.11066808818859966,
                0.0717503711446508,
                -0.15214258579700277,
                0.16753973427428093,
                -0.07177730749529465,
                -0.0027494155414765032,
                0.14425114254607335,
                -0.11180007685203718,
                0.05477777134538067,
                8.786572194833397e-05,
                -0.09739160532505609,
                -0.2118001221423222,
                -0.21846913920977168,
                -0.1346146036441247,
                0.2571613488189822
            ],
            [
                -0.006380458291709824,
                -0.1422593032154992,
                0.0442656283534975,
                -0.05548290395109388,
                -0.24351033602404157,
                0.26950477844812915,
                -0.1463657332870263,
                0.07202553146517833,
                0.07074980244349997,
                0.26522895479132225,
                0.12515352969125135,
                -0.35380300898627826,
                0.2068985195709013,
                0.219799500719075,
                -0.19057732011352801,
                0.076660468889304,
                -0.10899103017757157,
                -0.183079294699736,
                0.024208834967722147,
                -0.028837142343065673,
                -0.17297639439314383,
                -0.07513937358594064,
                0.0315338701568535,
                0.12800480074990014,
                -0.3062521661604124,
                0.056046488444005296,
                -0.25712190250468464,
                0.13201809512374985,
                -0.24504344708326012,
                -0.17192598679042234,
                0.2592380890715389,
                0.047483793586435716
            ],
            [
                -0.08498486628398474,
                -0.14842621471267758,
                0.21887525620502674,
                0.11219340674517753,
                -0.013647490528747452,
                -0.2627308691376024,
                0.0939258898819235,
                0.08970970677327102,
                0.13263248145171766,
                -0.1787333089576535,
                -0.056437988554870824,
                0.3096099282787165,
                0.15346168345792122,
                0.11012886802610952,
                0.20044561176948894,
                0.13571537933496072,
                0.20302603638234232,
                0.2822785294472974,
                0.16583359075004875,
                -0.015108574811480141,
                -0.0694124035567394,
                -0.27210091275889897,
                -0.0906022480525892,
                -0.09591583906725784,
                -0.05466340707789888,
                0.024386731497174814,
                -0.04977084539547157,
                -0.16794421219353223,
                -0.24991065730834566,
                0.27830243051713766,
                0.2034708262276164,
                -0.28082713189760455
            ],
            [
                -0.038332119100045775,
                -0.21094017380047553,
                0.2870074520293762,
                0.3237084735211664,
                0.017940583421939094,
                0.02971651977270241,
                -0.13607581520554954,
                0.1836518451148276,
                0.008213353717024204,
                -0.04097561695547719,
                -0.1247708138075798,
                -0.1374771034250965,
                -0.2528015829169581,
                -0.017054617407887867,
                0.34199957493432087,
                0.19664704615777157,
                0.2042761387405044,
                0.01915549669177067,
                -0.3181413747088648,
                0.132263263066818,
                -0.021054845868797113,
                -0.21398476942242017,
                -0.0053930401401040785,
                0.20480616822958192,
                0.013944916007094226,
                0.4030993576583889,
                0.10141567876954649,
                0.01854591998236797,
                0.09415758626356002,
                -0.12759539027887484,
                -0.242310263450588,
                0.05556455694248492
            ],
            [
                0.2254018799843672,
                0.16198230561946306,
                0.22513078197167438,
                0.2050123503329108,
                0.27432374217790667,
                -0.05789193386667049,
                0.13964373349077136,
                0.3079638474442907,
                -0.21754192057889662,
                0.08415163416882096,
                -0.12581497489976198,
                -0.36131083600378205,
                0.003236943546082792,
                -0.16634549929717402,
                0.07425163349428741,
                0.24516100920272976,
                0.2614543207176528,
                -0.30093111285595586,
                -0.08902629155763986,
                -0.19374070784509487,
                0.171385854231416,
                -0.22934959139418484,
                0.29412792258942794,
                0.18791198539023696,
                0.2197554015773168,
                0.05828320167727855,
                -0.06758522630361119,
                -0.16826135638809625,
                -0.13435651773438745,
                0.018018421609622096,
                0.07356252296480065,
                0.13203563619731906
            ],
            [
                -0.20097696157865738,
                -0.02130779060925377,
                0.013264039277464409,
                -0.35097349282395107,
                -0.19695435327888955,
                0.2306601724760487,
                0.2662315865525488,
                0.011184406846473913,
                -0.1383663632099027,
                -0.16026342952783895,
                0.07836293647162187,
                0.1590225714342041,
                0.08772427742694938,
                -0.20385949638873188,
                -0.3725544685590381,
                -0.23617455596823064,
                -0.29415664506238676,
                0.15771512052947986,
                0.11522021680430597,
                -0.1656957318311745,
                -0.144604626785626,
                -0.0958719202973044,
                -0.2753614420299949,
                -0.2631020602406969,
                0.074269631548028,
                -0.3066370577922223,
                0.1755628083064663,
                -0.016289575493923923,
                0.12733570449993542,
                -0.09452490116452121,
                -0.2241291341138596,
                -0.21827380123696502
            ],
            [
                -0.25456255398551875,
                -0.22990958929102429,
                -0.21244489285149779,
                0.2676961530043228,
                0.06451661968022275,
                -0.00564948808435868,
                0.19881836469595182,
                0.007840910395252264,
                0.03438193310269838,
                0.24222257060680774,
                0.1776212089370099,
                0.007413105955891153,
                -0.251633247150898,
                -0.18484250957344048,
                -0.09410325533869654,
                -0.0605389468748241,
                -0.0470586852749102,
                -0.22919180779086648,
                0.171864958600428,
                0.056239976925181845,
                -0.28151235760329024,
                -0.17131660436978674,
                -0.006495788330530062,
                0.17827887375028195,
                0.021015393991408997,
                0.21717516725575703,
                -0.11003060725565626,
                0.02023543213763293,
                -0.19628588085100906,
                -0.14354278930343722,
                -0.34506651775097946,
                0.15384872432613753
            ],
            [
                0.07305369821684442,
                -0.28128542757817293,
                0.20914399963936076,
                -0.05759207437610515,
                0.12659354689307414,
                -0.16590017533409906,
                0.23209512493124967,
                -0.3247748461010659,
                -0.2640681362499392,
                0.15831631398774026,
                0.11847977124837676,
                0.4009149649032853,
                -0.050370898574854474,
                -0.243693085993165,
                0.10201366239296834,
                -0.14503595159950414,
                -0.07658501474516288,
                0.08061120001353489,
                0.378062936475673,
                0.1325351094488972,
                -0.12032067158120949,
                0.05553291378336177,
                -0.3218495664809802,
                -0.1563981590618801,
                0.27616587240883284,
                -0.005923325206400388,
                0.04925624491481354,
                0.10007233388369598,
                0.0833503300616053,
                -0.01305731093127965,
                0.09157141192529743,
                -0.18870343563249017
            ]
        ],
        [
            [
                -0.21159075446351325,
                -0.03313826580991367,
                -0.09916313071040499,
                -0.18142258275398057,
                0.2807347151532507,
                0.05863649608913518,
                0.20818954523761649,
                0.19939559730486978,
                0.131751292461849,
                -0.22538234430229315,
                0.22464659478112037,
                -0.1409002775708498,
                0.0060794767348875,
                0.18625854863894592,
                0.030512512588974243,
                0.08715112606782993,
                0.0005608232725398298,
                0.009122473220418098,
                0.08888335778539569,
                0.3541026110551964,
                0.13553853877910674,
                0.11611017538781217,
                0.25136157593295394,
                0.14817358901485125,
                0.18216881805568128,
                0.1883283907191992,
                0.07164563391320744,
                0.16503936064779692,
                -0.004971506442363325,
                0.00010397278913786188,
                0.21960716457765264,
                0.08263044770709187
            ],
            [
                -0.26169388487557543,
                0.09278366242178826,
                0.10758680749243406,
                -0.31655750541489813,
                -0.20480899417653137,
                0.10503325024200492,
                0.162797557152985,
                -0.007817668458792271,
                -0.02769016969136812,
                -0.08412129559443297,
                0.1561994883092219,
                -0.1829721739494479,
                -0.27186950163386897,
                0.20440070711984965,
                0.20201685394649715,
                -0.26283884045656786,
                -0.28489429005793376,
                -0.150946501074489,
                -0.0385439957902327,
                0.049882427331591386,
                -0.28351171587381924,
                0.005860868670770323,
                0.2691768163635842,
                -0.09932867744227634,
                -0.1940742823850298,
                0.0335297801524952,
                -0.08224519172666772,
                0.11822648117364874,
                0.2458010555681255,
                -0.16393648842171193,
                -0.0830896496351151,
                -0.2153541069757233
            ],
            [
                -0.07311462484231154,
                -0.2577695091501077,
                0.12500510122448172,
                0.05992263479243895,
                -0.2786011116744175,
                0.18719644911824207,
                0.029812837086902886,
                0.13548980119290197,
                -0.2434652567614977,
                -0.09374405140970822,
                0.01845199410937214,
                0.266194474391306,
                0.2930081558345781,
                0.039183368024428705,
                -0.28957024637172624,
                -0.24673870106839685,
                0.05116249248169307,
                0.34257106983666263,
                0.1681565882165436,
                -0.18215485478284596,
                0.18388636369126882,
                -0.1401998436748532,
                0.27478137142455056,
                0.04616249125810876,
                -0.04880536919231955,
                -0.20480222398235368,
                0.14522649035998342,
                0.19905180021534552,
                0.07963378029126442,
                -0.09053725952954568,
                0.13055882101610675,
                0.02597230301292203
            ],
            [
                0.253999954565336,
                0.13932453508541573,
                -0.20994725805986664,
                -0.16322896104774362,
                -0.3900921349583737,
                0.243083286861317,
                0.06313841377762333,
                0.11852916038645232,
                0.19109390925848674,
                -0.1909582065569404,
                -0.39279056333773427,
                0.14094427628330602,
                0.15295963275717958,
                0.5073155152369796,
                -0.22212819474542309,
                0.2075332813538869,
                0.12006861243413344,
                -0.004623981322802915,
                0.2819604070261908,
                -0.33238079415742683,
                -0.26017787058179576,
                -0.11526035949205027,
                -0.19110251236967438,
                -0.17782633064871478,
                0.0009968980663417153,
                -0.07248109975936942,
                -0.23034129474979512,
                0.2071471683500608,
                0.3512137257963484,
                0.33422248754727657,
                -0.3313464829410691,
                -0.2188494416389583
            ],
            [
                -0.16279907184335302,
                0.15605824710771,
                -0.14547272364733993,
                -0.253844701181218,
                -0.12397633697801509,
                0.17597194606381886,
                -0.07165661536569588,
                0.11174973624657336,
                -0.26956690585880877,
                0.24190143037771195,
                0.024693982443157708,
                0.19910101623596108,
                0.14036267594701932,
                0.039802046626543484,
                0.08720093975274627,
                -0.08376164298470479,
                -0.1431601344414447,
                0.1829077174467543,
                0.17909615789503222,
                -0.20874264604988294,
                0.20450148401562726,
                0.006543538699226641,
                0.2750413029085371,
                0.24928702080711776,
                0.21333763979523349,
                0.21712427150090602,
                0.20264177979718667,
                -0.2713926366207362,
                0.23643555740158329,
                0.10431057477189812,
                0.028324922064441014,
                0.19147359847251086
            ],
            [
                0.18868339563005335,
                -0.02347195207908624,
                0.1903138051195127,
                -0.3072153587927059,
                -0.35686260572307593,
                -0.006683681629869248,
                -0.30680141784024867,
                0.2705785849467846,
                0.2697306995214682,
                -0.11466275919142421,
                -0.02821444432292322,
                -0.006218418499002849,
                -0.05981419670165654,
                0.11587579356759689,
                0.09331076023180732,
                0.06283426994149217,
                -0.10888450351912056,
                -0.06270824012414655,
                0.3108924526755987,
                -0.03328863683828917,
                -0.22467535924551882,
                -0.209778430075256,
                0.10758898733385307,
                -0.24895831439723456,
                -0.0428204156554568,
                -0.2125122288349453,
                0.2071738350072539,
                -0.29711504267329797,
                0.0070814171572107735,
                -0.026970898979516197,
                0.0875334795911133,
                -0.02562905361441186
            ],
            [
                0.14338687785991877,
                -0.07698393677617496,
                0.24582215870937382,
                0.33449573256119214,
                0.1615131615016774,
                0.060250223681574094,
                0.24124310497359872,
                -0.18036755233490787,
                -0.3021157950473445,
                -0.23499680708990603,
                0.2939140147866972,
                -0.2376320590513678,
                -0.1112019557222442,
                0.07259777201396941,
                0.2379600268559446,
                0.011204069390919669,
                0.23950986140106592,
                -0.16502924777665476,
                -0.28152123755260816,
                -0.1609630852162908,
                0.059902121514204855,
                0.10964602711123128,
                -0.1289105781188004,
                0.07428299279073501,
                -0.16673087086078625,
                0.028274281780935613,
                -0.06883352246607977,
                0.048629737298366046,
                0.2013299014795985,
                -0.1745537166457061,
                -0.0009791683210209974,
                -0.19095577849954026
            ],
            [
                -0.25513054789352047,
                0.28418300840873284,
                0.021004618057521185,
                0.2701248132955397,
                0.22474151594696873,
                0.014111330245199734,
                -0.23967295826149662,
                0.34438020290054744,
                0.20611343970997553,
                -0.053543915151886785,
                0.0024894401744688273,
                0.2845331108938524,
                0.05843586586758209,
                0.1157393443220739,
                0.21694803007782895,
                -0.00886722171541099,
                -0.24410860304772744,
                0.35560884245865687,
                0.07881199775783587,
                0.016149058871124992,
                0.1762069543939291,
                -0.06114819030420114,
                0.27002197320181565,
                -0.005325343036956921,
                -0.04468238035714684,
                -0.11240168504717808,
                -0.10531957019186675,
                -0.2860452796117937,
                -0.14207207653411547,
                0.30831896598685926,
                -0.27561524003404136,
                0.15642445801084315
            ],
            [
                -0.2125945005096487,
                -0.013904133582737102,
                0.3162486143269164,
                -0.1352676581153903,
                0.0036289372688275796,
                -0.142457656864451,
                0.09374646887177303,
                0.057945996656879266,
                0.04351678505717926,
                -0.2936532803855447,
                -0.01608672463148077,
                -0.25926294957634066,
                -0.11748137819792291,
                0.15472031157686325,
                -0.1468909889263037,
                -0.04224115284653271,
                -0.08881728404235772,
                0.15048389117874525,
                0.2594450218237416,
                -0.25115940433865,
                0.12623824162939185,
                -0.08046838982040223,
                -0.18267690414626378,
                0.02059719629689462,
                -0.13665454547245467,
                0.06933709368081524,
                0.17085986594470673,
                -0.08916632680914373,
                -0.039653699080428116,
                0.14301506231634883,
                0.022015120316385122,
                -0.04426904530445145
            ],
            [
                0.31553255419341125,
                0.12357951993143064,
                -0.14250070719983512,
                -0.03569679157158418,
                -0.17124299492771503,
                -0.13765567491787903,
                0.21680761841906707,
                -0.0740111060373508,
                -0.0662584595854623,
                -0.13599012820788298,
                0.0033533090319231257,
                0.26560547174488147,
                0.279864816736537,
                0.2840333979354093,
                -0.14698583698806134,
                0.00745323922747298,
                -0.2560657899284838,
                0.2096087639377301,
                -0.1991624942333055,
                0.02600587555873249,
                -0.18608577682937819,
                0.1193870699208574,
                0.10924333249785369,
                -0.2286611862539378,
                -0.2231738320363042,
                0.24879044415040186,
                -0.16150560732616392,
                -0.15268091931101907,
                0.2138320948169039,
                0.2686453228622875,
                -0.24670036662675868,
                0.006800533896763804
            ],
            [
                -0.21059354376032927,
                -0.0982043316652119,
                -0.11054263359853024,
                -0.05076946664151475,
                -0.00907368094972217,
                0.28647711208506726,
                -0.11277929453854911,
                0.2554805641837399,
                -0.2627416217583999,
                0.05965600738864663,
                -0.2190421596801353,
                0.13042508971707456,
                -0.29264765201447535,
                0.20580883261329563,
                0.2035192336765601,
                -0.0784316551984487,
                -0.30847753703251024,
                -0.23690302382722012,
                -0.0179352620654135,
                -0.048038117786068715,
                -0.13803115798640353,
                0.20204964997027955,
                -0.18518730330870173,
                0.07001597235331607,
                -0.02596116652457301,
                -0.0737408223845671,
                -0.23311137787582567,
                0.22070168936745618,
                -0.15364035177329133,
                0.07362373124370823,
                0.016863482262344506,
                -0.19109234003190373
            ],
            [
                0.10129178701076899,
                -0.03614029984500832,
                0.1609517620959564,
                0.2978065702217378,
                0.4377728173961322,
                -0.3039866809688469,
                0.41495705756528567,
                -0.3598190373853564,
                -0.10659910032048127,
                -0.162657169999307,
                0.40212444431353495,
                0.31111951988788134,
                -0.310752345401222,
                -0.21730267847133516,
                -0.011983862064213912,
                0.2873021395184863,
                0.04105828688700071,
                -0.37578571845955483,
                -0.18391234174433305,
                0.15434099406340424,
                0.1451540489139713,
                -0.2802467304915374,
                -0.36909109793913936,
                0.20156297796529263,
                0.32915669660296193,
                -0.32646702303181974,
                0.11050775266964158,
                0.09605984278431658,
                -0.32411648862463244,
                -0.3855388632884737,
                0.08586490499997065,
                0.20592674195886007
            ],
            [
                0.1010865299450531,
                -0.17965916105641883,
                0.0636465285417394,
                0.027668988079281764,
                -0.11557162691787551,
                0.18524270747973612,
                0.3852849205999749,
                -0.23847441184233859,
                0.014462069682100082,
                0.10298230958409646,
                0.3547363660188542,
                -0.04962947956545587,
                -0.05391648401573056,
                -0.16030483389637065,
                -0.21547693846555388,
                0.2974874199401393,
                0.120397662244413,
                -0.2870455584705242,
                -0.149553985735335,
                -0.14693729057264768,
                0.06027233395779756,
                0.20357558074786827,
                -0.21882834465926518,
                0.094250356920347,
                0.1095873725601265,
                0.21859077348857794,
                -0.27307896997835995,
                -0.06104121423061137,
                -0.17563194871564516,
                0.1194947252229952,
                -0.2802637737532152,
                0.11308549818650783
            ],
            [
                0.13996228278331538,
                0.27440124243333247,
                0.09187470310654786,
                -0.13024236071982148,
                0.009444794293783042,
                -0.2366554164412226,
                -0.24913439746765764,
                -0.2371939388334593,
                -0.10543233932544784,
                0.21554041352974176,
                -0.2826376018226214,
                0.08960251256974262,
                -0.1930380530561232,
                0.009333850125232392,
                -0.22426557867077915,
                -0.19645482589917246,
                -0.21863982225775572,
                0.06726808593689904,
                -0.1833091298117684,
                -0.2654871512275212,
                0.17273401276840727,
                0.2433549656750524,
                0.04350878584016637,
                0.21191615292665295,
                -0.016659637293020804,
                0.0762805443251045,
                -0.07136233543162979,
                -0.15478349834958957,
                0.05108666819396955,
                0.15938485233627314,
                0.09480329175405543,
                0.25690626168948494
            ],
            [
                -0.266727345016837,
                0.04858297700165287,
                0.1377855180066922,
                0.014431727100877511,
                -0.31206056061169113,
                -0.11438254836641255,
                -0.33041680277030455,
                0.2485948598694616,
                0.08748330567520622,
                0.027482860099738736,
                -0.2072132662827062,
                -0.2802921417486416,
                0.3171512087827869,
                -0.010507985895795432,
                -0.05934602736275816,
                0.1324504729087433,
                -0.02725178083827129,
                -0.013824567418642837,
                -0.2810290270681594,
                -0.026898633702274122,
                -0.188934811519321,
                0.3208313522649923,
                0.28063797398672596,
                0.0025743945060154793,
                -0.2830453052973859,
                -0.0939845820273954,
                0.20288799653959844,
                0.19764886881838592,
                0.23149099775599474,
                0.08705290730993855,
                0.25590634215452984,
                0.005793264369239217
            ],
            [
                -0.03917228866174871,
                0.10420780460654373,
                -0.24179970113383426,
                -0.10858000167067565,
                0.10225475719537508,
                0.11774599907574702,
                -0.18005003957251628,
                0.2789890744777974,
                -0.026156637618841336,
                -0.19168702223715386,
                -0.2319834187997695,
                0.2821675717873475,
                -0.1208571671521,
                -0.058125301723664285,
                0.029449381788815066,
                -0.2000791094666177,
                0.21860774563794264,
                -0.022435903152409103,
                0.25331888144357295,
                -0.06484465422582036,
                0.21677955989571202,
                -0.2526917419340299,
                0.0863168054862512,
                0.14359611292071242,
                -0.18252805088328417,
                0.013943368521775313,
                -0.07878393211716561,
                0.25787762430444605,
                -0.09759679581680508,
                -0.20363989574835145,
                -0.07364551831017035,
                -0.029954208894341264
            ],
            [
                -0.14455614600006275,
                -0.27082581097355085,
                -0.0245660578516739,
                -0.04855413381671512,
                -0.19136142716995277,
                -0.20186722396428158,
                -0.14300083749422274,
                0.18809627954019917,
                0.19760553901955064,
                0.09345261623555357,
                -0.25038891796779816,
                -0.016174076915942106,
                0.13207508503107324,
                0.21717680278833015,
                0.11324061561539527,
                -0.08087730583630394,
                0.16314742687924141,
                0.33425070331980056,
                0.22490783268384745,
                0.08235445706522591,
                -0.12828721682809974,
                -0.060753996507211507,
                0.05785167442039823,
                0.16578407318549093,
                -0.2291951393391564,
                -0.025888716069896546,
                0.21091574192894455,
                -0.22461795942495003,
                0.16530068467516867,
                0.35100529226542526,
                0.2237648399668553,
                0.10984583055383319
            ],
            [
                -0.408392487638747,
                -0.19839843084642403,
                -0.11961293578147585,
                0.258742580971953,
                0.197363086051885,
                -0.10097096016548009,
                0.0753681401217692,
                -0.42936977398070786,
                0.18928574102543377,
                -0.15474309438110198,
                0.16231326449492722,
                -0.07479713149108748,
                -0.11973441222684701,
                -0.49342034113041805,
                0.24060353492028183,
                0.2442626849874142,
                0.5159432413786785,
                -0.2546980524448921,
                0.18469376688100952,
                0.203368402807097,
                0.2370820991641231,
                -0.14994747750468657,
                -0.40101163574044507,
                -0.1345949900725783,
                0.013362515773999575,
                0.07178236191621458,
                0.35223673082029633,
                -0.25620178360055335,
                -0.028276771187414142,
                -0.3265943691506155,
                0.05626532519988983,
                0.08455945943796925
            ],
            [
                0.23356260575676963,
                0.25318150131342537,
                -0.23209087323395297,
                0.3044944970096314,
                -0.08499847718958888,
                0.16714090616664365,
                0.1748139829680913,
                -0.3360351614536523,
                0.15431334678756428,
                0.15735396157888135,
                0.1447542589585137,
                0.22443361769253825,
                -0.3216272676042644,
                -0.12591308399727016,
                -0.2367072761314335,
                0.0044884863618735275,
                0.15265300000494889,
                0.029139807194953602,
                -0.3095399694731337,
                0.045490762557197396,
                0.3605257830415302,
                -0.32808070625210045,
                -0.09625398726768106,
                0.21378173788756336,
                -0.0511631787657588,
                -0.3064197737802385,
                0.01887815284479961,
                0.15056631164066403,
                -0.14958350913028262,
                -0.13272690807824505,
                0.22499076125782708,
                0.16043965391385884
            ],
            [
                -0.08344128839430487,
                -0.06220570969963996,
                -0.03587086834386206,
                0.07204586531428574,
                0.008905415309063042,
                -0.0025074190622882083,
                -0.0636667358448227,
                -0.3070608173052263,
