{
    "normalization": [
        {
            "mean": 495.74797005915786,
            "std": 105.08265387187238
        },
        {
            "mean": 39.79713089016475,
            "std": 514.904736429893
        },
        {
            "mean": -243.3744090125,
            "std": 8.780894559533115
        },
        {
            "mean": -0.3878634974417863,
            "std": 5.16040249138473
        },
        {
            "mean": 3.153909673286355,
            "std": 4.103030881423507
        },
        {
            "mean": 21.9580125,
            "std": 97.60108742375692
        },
        {
            "mean": 1.1410195296768044,
            "std": 5.163925073157659
        },
        {
            "mean": 2.963094615116594,
            "std": 4.364496027131785
        },
        {
            "mean": -224.58991486346417,
            "std": 480.8423325139229
        },
        {
            "mean": 1030.0969463871304,
            "std": 43.63982882393576
        }
    ],
    "weights": {
        "Hufflepuff": [
            -0.93623386226741,
            0.8467943006085044,
            -0.1570658968909252,
            -0.7308810992553602,
            0.6066138777497787,
            -0.29934953956852944,
            0.7740170557319863,
            0.47374583835436235,
            -0.48173236777617995,
            0.42214163821310663
        ],
        "Ravenclaw": [
            0.7963022221186553,
            -0.6940848287389798,
            0.9238805447670492,
            0.35949980800873077,
            0.35528849069731083,
            -0.0661541454318154,
            0.33961560959401377,
            0.03706291603886536,
            0.8407506950828949,
            0.07817052695183649
        ],
        "Slytherin": [
            -0.340636327072209,
            -0.4312486161041455,
            -0.33466808358133654,
            0.56884475294453,
            -1.0182599100573475,
            -0.38830642864680115,
            -0.6533335167287121,
            0.11355190322904446,
            -0.37527476668669985,
            0.11120044133007209
        ],
        "Gryffindor": [
            0.7041540214364349,
            0.33542109994481145,
            -0.24185427013328012,
            -0.1564174539522619,
            0.03936942060395688,
            0.6559565382640452,
            -0.5223523220417452,
            -0.6847506059129923,
            -0.20607198181075298,
            -0.704697088689638
        ]
    },
    "biases": {
        "Hufflepuff": -0.8177898894459034,
        "Ravenclaw": -1.0153284030609264,
        "Slytherin": -1.4787857321621216,
        "Gryffindor": -1.3504293565206773
    },
    "excluded_features": [
        "Arithmancy",
        "Care of Magical Creatures",
        "Potions"
    ]
}